digraph Tree {
node [shape=box, style="filled, rounded", color="black", fontname=helvetica] ;
edge [fontname=helvetica] ;
0 [label="X[5] <= 47.493\ngini = 0.352\nsamples = 322\nvalue = [[2, 1, 35, 0, 464, 0, 0, 0, 0, 0, 0, 0, 0, 0, 0]\n[1, 2, 0, 53, 0, 7, 0, 0, 4, 51, 1, 2, 5, 1, 375]\n[1, 1, 2, 348, 1, 1, 3, 9, 0, 36, 1, 2, 27, 4, 66]]", fillcolor="#e581394a"] ;
1 [label="X[8] <= 346.091\ngini = 0.35\nsamples = 319\nvalue = [[2, 1, 35, 0, 458, 0, 0, 0, 0, 0, 0, 0, 0, 0, 0]\n[1, 2, 0, 53, 0, 7, 0, 0, 4, 51, 1, 2, 5, 1, 369]\n[1, 1, 2, 348, 1, 1, 3, 8, 0, 31, 1, 2, 27, 4, 66]]", fillcolor="#e581394b"] ;
0 -> 1 [labeldistance=2.5, labelangle=45, headlabel="True"] ;
2 [label="X[6] <= 36.685\ngini = 0.348\nsamples = 317\nvalue = [[2, 1, 35, 0, 452, 0, 0, 0, 0, 0, 0, 0, 0, 0, 0]\n[1, 2, 0, 49, 0, 7, 0, 0, 4, 49, 1, 2, 5, 1, 369]\n[1, 1, 2, 342, 1, 1, 3, 8, 0, 31, 1, 2, 27, 4, 66]]", fillcolor="#e581394c"] ;
1 -> 2 ;
3 [label="gini = 0.0\nsamples = 1\nvalue = [[0, 0, 0, 0, 2, 0, 0, 0, 0, 0, 0, 0, 0, 0, 0]\n[0, 0, 0, 0, 0, 0, 0, 0, 0, 0, 0, 0, 2, 0, 0]\n[0, 0, 0, 0, 0, 0, 0, 0, 0, 0, 0, 0, 2, 0, 0]]", fillcolor="#e58139ff"] ;
2 -> 3 ;
4 [label="X[13] <= 0.015\ngini = 0.345\nsamples = 316\nvalue = [[2, 1, 35, 0, 450, 0, 0, 0, 0, 0, 0, 0, 0, 0, 0]\n[1, 2, 0, 49, 0, 7, 0, 0, 4, 49, 1, 2, 3, 1, 369]\n[1, 1, 2, 342, 1, 1, 3, 8, 0, 31, 1, 2, 25, 4, 66]]", fillcolor="#e581394d"] ;
2 -> 4 ;
5 [label="X[10] <= 104.982\ngini = 0.385\nsamples = 165\nvalue = [[2, 1, 14, 0, 258, 0, 0, 0, 0, 0, 0, 0, 0, 0, 0]\n[1, 2, 0, 34, 0, 5, 0, 0, 2, 31, 1, 2, 3, 0, 194]\n[1, 1, 2, 175, 0, 1, 3, 3, 0, 24, 1, 2, 23, 4, 35]]", fillcolor="#e5813939"] ;
4 -> 5 ;
6 [label="X[20] <= 0.741\ngini = 0.284\nsamples = 60\nvalue = [[0, 0, 3, 0, 94, 0, 0, 0, 0, 0, 0, 0, 0, 0, 0]\n[0, 0, 0, 12, 0, 1, 0, 0, 2, 9, 0, 0, 0, 0, 73]\n[1, 0, 0, 75, 0, 0, 0, 0, 0, 0, 0, 2, 6, 1, 12]]", fillcolor="#e581396d"] ;
5 -> 6 ;
7 [label="X[11] <= 29.002\ngini = 0.335\nsamples = 33\nvalue = [[0, 0, 3, 0, 51, 0, 0, 0, 0, 0, 0, 0, 0, 0, 0]\n[0, 0, 0, 11, 0, 0, 0, 0, 2, 9, 0, 0, 0, 0, 32]\n[1, 0, 0, 44, 0, 0, 0, 0, 0, 0, 0, 0, 4, 0, 5]]", fillcolor="#e5813953"] ;
6 -> 7 ;
8 [label="X[20] <= 0.339\ngini = 0.337\nsamples = 21\nvalue = [[0, 0, 2, 0, 30, 0, 0, 0, 0, 0, 0, 0, 0, 0, 0]\n[0, 0, 0, 1, 0, 0, 0, 0, 2, 6, 0, 0, 0, 0, 23]\n[1, 0, 0, 23, 0, 0, 0, 0, 0, 0, 0, 0, 4, 0, 4]]", fillcolor="#e5813952"] ;
7 -> 8 ;
9 [label="X[10] <= 64.288\ngini = 0.259\nsamples = 18\nvalue = [[0, 0, 2, 0, 25, 0, 0, 0, 0, 0, 0, 0, 0, 0, 0]\n[0, 0, 0, 0, 0, 0, 0, 0, 2, 2, 0, 0, 0, 0, 23]\n[1, 0, 0, 21, 0, 0, 0, 0, 0, 0, 0, 0, 3, 0, 2]]", fillcolor="#e581397a"] ;
8 -> 9 ;
10 [label="X[0] <= 20.0\ngini = 0.189\nsamples = 14\nvalue = [[0, 0, 2, 0, 20, 0, 0, 0, 0, 0, 0, 0, 0, 0, 0]\n[0, 0, 0, 0, 0, 0, 0, 0, 2, 2, 0, 0, 0, 0, 18]\n[0, 0, 0, 21, 0, 0, 0, 0, 0, 0, 0, 0, 0, 0, 1]]", fillcolor="#e581399e"] ;
9 -> 10 ;
11 [label="X[13] <= 0.01\ngini = 0.169\nsamples = 13\nvalue = [[0, 0, 1, 0, 20, 0, 0, 0, 0, 0, 0, 0, 0, 0, 0]\n[0, 0, 0, 0, 0, 0, 0, 0, 2, 2, 0, 0, 0, 0, 17]\n[0, 0, 0, 20, 0, 0, 0, 0, 0, 0, 0, 0, 0, 0, 1]]", fillcolor="#e58139a8"] ;
10 -> 11 ;
12 [label="X[9] <= 4.042\ngini = 0.113\nsamples = 12\nvalue = [[0, 0, 0, 0, 20, 0, 0, 0, 0, 0, 0, 0, 0, 0, 0]\n[0, 0, 0, 0, 0, 0, 0, 0, 2, 2, 0, 0, 0, 0, 16]\n[0, 0, 0, 20, 0, 0, 0, 0, 0, 0, 0, 0, 0, 0, 0]]", fillcolor="#e58139c5"] ;
11 -> 12 ;
13 [label="X[16] <= 89.992\ngini = 0.073\nsamples = 9\nvalue = [[0, 0, 0, 0, 16, 0, 0, 0, 0, 0, 0, 0, 0, 0, 0]\n[0, 0, 0, 0, 0, 0, 0, 0, 0, 2, 0, 0, 0, 0, 14]\n[0, 0, 0, 16, 0, 0, 0, 0, 0, 0, 0, 0, 0, 0, 0]]", fillcolor="#e58139da"] ;
12 -> 13 ;
14 [label="X[15] <= 83.821\ngini = 0.041\nsamples = 8\nvalue = [[0, 0, 0, 0, 15, 0, 0, 0, 0, 0, 0, 0, 0, 0, 0]\n[0, 0, 0, 0, 0, 0, 0, 0, 0, 1, 0, 0, 0, 0, 14]\n[0, 0, 0, 15, 0, 0, 0, 0, 0, 0, 0, 0, 0, 0, 0]]", fillcolor="#e58139ea"] ;
13 -> 14 ;
15 [label="X[13] <= 0.007\ngini = 0.167\nsamples = 2\nvalue = [[0, 0, 0, 0, 2, 0, 0, 0, 0, 0, 0, 0, 0, 0, 0]\n[0, 0, 0, 0, 0, 0, 0, 0, 0, 1, 0, 0, 0, 0, 1]\n[0, 0, 0, 2, 0, 0, 0, 0, 0, 0, 0, 0, 0, 0, 0]]", fillcolor="#e58139a9"] ;
14 -> 15 ;
16 [label="gini = 0.0\nsamples = 1\nvalue = [[0, 0, 0, 0, 1, 0, 0, 0, 0, 0, 0, 0, 0, 0, 0]\n[0, 0, 0, 0, 0, 0, 0, 0, 0, 1, 0, 0, 0, 0, 0]\n[0, 0, 0, 1, 0, 0, 0, 0, 0, 0, 0, 0, 0, 0, 0]]", fillcolor="#e58139ff"] ;
15 -> 16 ;
17 [label="gini = 0.0\nsamples = 1\nvalue = [[0, 0, 0, 0, 1, 0, 0, 0, 0, 0, 0, 0, 0, 0, 0]\n[0, 0, 0, 0, 0, 0, 0, 0, 0, 0, 0, 0, 0, 0, 1]\n[0, 0, 0, 1, 0, 0, 0, 0, 0, 0, 0, 0, 0, 0, 0]]", fillcolor="#e58139ff"] ;
15 -> 17 ;
18 [label="gini = 0.0\nsamples = 6\nvalue = [[0, 0, 0, 0, 13, 0, 0, 0, 0, 0, 0, 0, 0, 0, 0]\n[0, 0, 0, 0, 0, 0, 0, 0, 0, 0, 0, 0, 0, 0, 13]\n[0, 0, 0, 13, 0, 0, 0, 0, 0, 0, 0, 0, 0, 0, 0]]", fillcolor="#e58139ff"] ;
14 -> 18 ;
19 [label="gini = 0.0\nsamples = 1\nvalue = [[0, 0, 0, 0, 1, 0, 0, 0, 0, 0, 0, 0, 0, 0, 0]\n[0, 0, 0, 0, 0, 0, 0, 0, 0, 1, 0, 0, 0, 0, 0]\n[0, 0, 0, 1, 0, 0, 0, 0, 0, 0, 0, 0, 0, 0, 0]]", fillcolor="#e58139ff"] ;
13 -> 19 ;
20 [label="X[19] <= 35.643\ngini = 0.167\nsamples = 3\nvalue = [[0, 0, 0, 0, 4, 0, 0, 0, 0, 0, 0, 0, 0, 0, 0]\n[0, 0, 0, 0, 0, 0, 0, 0, 2, 0, 0, 0, 0, 0, 2]\n[0, 0, 0, 4, 0, 0, 0, 0, 0, 0, 0, 0, 0, 0, 0]]", fillcolor="#e58139a9"] ;
12 -> 20 ;
21 [label="gini = 0.0\nsamples = 1\nvalue = [[0, 0, 0, 0, 2, 0, 0, 0, 0, 0, 0, 0, 0, 0, 0]\n[0, 0, 0, 0, 0, 0, 0, 0, 2, 0, 0, 0, 0, 0, 0]\n[0, 0, 0, 2, 0, 0, 0, 0, 0, 0, 0, 0, 0, 0, 0]]", fillcolor="#e58139ff"] ;
20 -> 21 ;
22 [label="gini = 0.0\nsamples = 2\nvalue = [[0, 0, 0, 0, 2, 0, 0, 0, 0, 0, 0, 0, 0, 0, 0]\n[0, 0, 0, 0, 0, 0, 0, 0, 0, 0, 0, 0, 0, 0, 2]\n[0, 0, 0, 2, 0, 0, 0, 0, 0, 0, 0, 0, 0, 0, 0]]", fillcolor="#e58139ff"] ;
20 -> 22 ;
23 [label="gini = 0.0\nsamples = 1\nvalue = [[0, 0, 1, 0, 0, 0, 0, 0, 0, 0, 0, 0, 0, 0, 0]\n[0, 0, 0, 0, 0, 0, 0, 0, 0, 0, 0, 0, 0, 0, 1]\n[0, 0, 0, 0, 0, 0, 0, 0, 0, 0, 0, 0, 0, 0, 1]]", fillcolor="#e58139ff"] ;
11 -> 23 ;
24 [label="gini = 0.0\nsamples = 1\nvalue = [[0, 0, 1, 0, 0, 0, 0, 0, 0, 0, 0, 0, 0, 0, 0]\n[0, 0, 0, 0, 0, 0, 0, 0, 0, 0, 0, 0, 0, 0, 1]\n[0, 0, 0, 1, 0, 0, 0, 0, 0, 0, 0, 0, 0, 0, 0]]", fillcolor="#e58139ff"] ;
10 -> 24 ;
25 [label="X[20] <= 0.17\ngini = 0.187\nsamples = 4\nvalue = [[0, 0, 0, 0, 5, 0, 0, 0, 0, 0, 0, 0, 0, 0, 0]\n[0, 0, 0, 0, 0, 0, 0, 0, 0, 0, 0, 0, 0, 0, 5]\n[1, 0, 0, 0, 0, 0, 0, 0, 0, 0, 0, 0, 3, 0, 1]]", fillcolor="#e581399f"] ;
9 -> 25 ;
26 [label="X[13] <= 0.002\ngini = 0.167\nsamples = 2\nvalue = [[0, 0, 0, 0, 2, 0, 0, 0, 0, 0, 0, 0, 0, 0, 0]\n[0, 0, 0, 0, 0, 0, 0, 0, 0, 0, 0, 0, 0, 0, 2]\n[1, 0, 0, 0, 0, 0, 0, 0, 0, 0, 0, 0, 0, 0, 1]]", fillcolor="#e58139a9"] ;
25 -> 26 ;
27 [label="gini = 0.0\nsamples = 1\nvalue = [[0, 0, 0, 0, 1, 0, 0, 0, 0, 0, 0, 0, 0, 0, 0]\n[0, 0, 0, 0, 0, 0, 0, 0, 0, 0, 0, 0, 0, 0, 1]\n[0, 0, 0, 0, 0, 0, 0, 0, 0, 0, 0, 0, 0, 0, 1]]", fillcolor="#e58139ff"] ;
26 -> 27 ;
28 [label="gini = 0.0\nsamples = 1\nvalue = [[0, 0, 0, 0, 1, 0, 0, 0, 0, 0, 0, 0, 0, 0, 0]\n[0, 0, 0, 0, 0, 0, 0, 0, 0, 0, 0, 0, 0, 0, 1]\n[1, 0, 0, 0, 0, 0, 0, 0, 0, 0, 0, 0, 0, 0, 0]]", fillcolor="#e58139ff"] ;
26 -> 28 ;
29 [label="gini = 0.0\nsamples = 2\nvalue = [[0, 0, 0, 0, 3, 0, 0, 0, 0, 0, 0, 0, 0, 0, 0]\n[0, 0, 0, 0, 0, 0, 0, 0, 0, 0, 0, 0, 0, 0, 3]\n[0, 0, 0, 0, 0, 0, 0, 0, 0, 0, 0, 0, 3, 0, 0]]", fillcolor="#e58139ff"] ;
25 -> 29 ;
30 [label="X[11] <= 19.732\ngini = 0.32\nsamples = 3\nvalue = [[0, 0, 0, 0, 5, 0, 0, 0, 0, 0, 0, 0, 0, 0, 0]\n[0, 0, 0, 1, 0, 0, 0, 0, 0, 4, 0, 0, 0, 0, 0]\n[0, 0, 0, 2, 0, 0, 0, 0, 0, 0, 0, 0, 1, 0, 2]]", fillcolor="#e581395a"] ;
8 -> 30 ;
31 [label="gini = 0.0\nsamples = 1\nvalue = [[0, 0, 0, 0, 2, 0, 0, 0, 0, 0, 0, 0, 0, 0, 0]\n[0, 0, 0, 0, 0, 0, 0, 0, 0, 2, 0, 0, 0, 0, 0]\n[0, 0, 0, 2, 0, 0, 0, 0, 0, 0, 0, 0, 0, 0, 0]]", fillcolor="#e58139ff"] ;
30 -> 31 ;
32 [label="X[16] <= 89.401\ngini = 0.296\nsamples = 2\nvalue = [[0, 0, 0, 0, 3, 0, 0, 0, 0, 0, 0, 0, 0, 0, 0]\n[0, 0, 0, 1, 0, 0, 0, 0, 0, 2, 0, 0, 0, 0, 0]\n[0, 0, 0, 0, 0, 0, 0, 0, 0, 0, 0, 0, 1, 0, 2]]", fillcolor="#e5813967"] ;
30 -> 32 ;
33 [label="gini = 0.0\nsamples = 1\nvalue = [[0, 0, 0, 0, 2, 0, 0, 0, 0, 0, 0, 0, 0, 0, 0]\n[0, 0, 0, 0, 0, 0, 0, 0, 0, 2, 0, 0, 0, 0, 0]\n[0, 0, 0, 0, 0, 0, 0, 0, 0, 0, 0, 0, 0, 0, 2]]", fillcolor="#e58139ff"] ;
32 -> 33 ;
34 [label="gini = 0.0\nsamples = 1\nvalue = [[0, 0, 0, 0, 1, 0, 0, 0, 0, 0, 0, 0, 0, 0, 0]\n[0, 0, 0, 1, 0, 0, 0, 0, 0, 0, 0, 0, 0, 0, 0]\n[0, 0, 0, 0, 0, 0, 0, 0, 0, 0, 0, 0, 1, 0, 0]]", fillcolor="#e58139ff"] ;
32 -> 34 ;
35 [label="X[5] <= 9.779\ngini = 0.26\nsamples = 12\nvalue = [[0, 0, 1, 0, 21, 0, 0, 0, 0, 0, 0, 0, 0, 0, 0]\n[0, 0, 0, 10, 0, 0, 0, 0, 0, 3, 0, 0, 0, 0, 9]\n[0, 0, 0, 21, 0, 0, 0, 0, 0, 0, 0, 0, 0, 0, 1]]", fillcolor="#e5813979"] ;
7 -> 35 ;
36 [label="X[18] <= 90.096\ngini = 0.282\nsamples = 8\nvalue = [[0, 0, 1, 0, 13, 0, 0, 0, 0, 0, 0, 0, 0, 0, 0]\n[0, 0, 0, 3, 0, 0, 0, 0, 0, 3, 0, 0, 0, 0, 8]\n[0, 0, 0, 13, 0, 0, 0, 0, 0, 0, 0, 0, 0, 0, 1]]", fillcolor="#e581396e"] ;
35 -> 36 ;
37 [label="gini = 0.0\nsamples = 1\nvalue = [[0, 0, 0, 0, 3, 0, 0, 0, 0, 0, 0, 0, 0, 0, 0]\n[0, 0, 0, 0, 0, 0, 0, 0, 0, 3, 0, 0, 0, 0, 0]\n[0, 0, 0, 3, 0, 0, 0, 0, 0, 0, 0, 0, 0, 0, 0]]", fillcolor="#e58139ff"] ;
36 -> 37 ;
38 [label="X[10] <= 74.186\ngini = 0.242\nsamples = 7\nvalue = [[0, 0, 1, 0, 10, 0, 0, 0, 0, 0, 0, 0, 0, 0, 0]\n[0, 0, 0, 3, 0, 0, 0, 0, 0, 0, 0, 0, 0, 0, 8]\n[0, 0, 0, 10, 0, 0, 0, 0, 0, 0, 0, 0, 0, 0, 1]]", fillcolor="#e5813982"] ;
36 -> 38 ;
39 [label="gini = 0.0\nsamples = 1\nvalue = [[0, 0, 0, 0, 3, 0, 0, 0, 0, 0, 0, 0, 0, 0, 0]\n[0, 0, 0, 3, 0, 0, 0, 0, 0, 0, 0, 0, 0, 0, 0]\n[0, 0, 0, 3, 0, 0, 0, 0, 0, 0, 0, 0, 0, 0, 0]]", fillcolor="#e58139ff"] ;
38 -> 39 ;
40 [label="X[9] <= 3.299\ngini = 0.146\nsamples = 6\nvalue = [[0, 0, 1, 0, 7, 0, 0, 0, 0, 0, 0, 0, 0, 0, 0]\n[0, 0, 0, 0, 0, 0, 0, 0, 0, 0, 0, 0, 0, 0, 8]\n[0, 0, 0, 7, 0, 0, 0, 0, 0, 0, 0, 0, 0, 0, 1]]", fillcolor="#e58139b4"] ;
38 -> 40 ;
41 [label="X[18] <= 90.293\ngini = 0.082\nsamples = 5\nvalue = [[0, 0, 0, 0, 7, 0, 0, 0, 0, 0, 0, 0, 0, 0, 0]\n[0, 0, 0, 0, 0, 0, 0, 0, 0, 0, 0, 0, 0, 0, 7]\n[0, 0, 0, 6, 0, 0, 0, 0, 0, 0, 0, 0, 0, 0, 1]]", fillcolor="#e58139d5"] ;
40 -> 41 ;
42 [label="gini = 0.0\nsamples = 3\nvalue = [[0, 0, 0, 0, 5, 0, 0, 0, 0, 0, 0, 0, 0, 0, 0]\n[0, 0, 0, 0, 0, 0, 0, 0, 0, 0, 0, 0, 0, 0, 5]\n[0, 0, 0, 5, 0, 0, 0, 0, 0, 0, 0, 0, 0, 0, 0]]", fillcolor="#e58139ff"] ;
41 -> 42 ;
43 [label="X[8] <= 82.866\ngini = 0.167\nsamples = 2\nvalue = [[0, 0, 0, 0, 2, 0, 0, 0, 0, 0, 0, 0, 0, 0, 0]\n[0, 0, 0, 0, 0, 0, 0, 0, 0, 0, 0, 0, 0, 0, 2]\n[0, 0, 0, 1, 0, 0, 0, 0, 0, 0, 0, 0, 0, 0, 1]]", fillcolor="#e58139a9"] ;
41 -> 43 ;
44 [label="gini = 0.0\nsamples = 1\nvalue = [[0, 0, 0, 0, 1, 0, 0, 0, 0, 0, 0, 0, 0, 0, 0]\n[0, 0, 0, 0, 0, 0, 0, 0, 0, 0, 0, 0, 0, 0, 1]\n[0, 0, 0, 1, 0, 0, 0, 0, 0, 0, 0, 0, 0, 0, 0]]", fillcolor="#e58139ff"] ;
43 -> 44 ;
45 [label="gini = 0.0\nsamples = 1\nvalue = [[0, 0, 0, 0, 1, 0, 0, 0, 0, 0, 0, 0, 0, 0, 0]\n[0, 0, 0, 0, 0, 0, 0, 0, 0, 0, 0, 0, 0, 0, 1]\n[0, 0, 0, 0, 0, 0, 0, 0, 0, 0, 0, 0, 0, 0, 1]]", fillcolor="#e58139ff"] ;
43 -> 45 ;
46 [label="gini = 0.0\nsamples = 1\nvalue = [[0, 0, 1, 0, 0, 0, 0, 0, 0, 0, 0, 0, 0, 0, 0]\n[0, 0, 0, 0, 0, 0, 0, 0, 0, 0, 0, 0, 0, 0, 1]\n[0, 0, 0, 1, 0, 0, 0, 0, 0, 0, 0, 0, 0, 0, 0]]", fillcolor="#e58139ff"] ;
40 -> 46 ;
47 [label="X[11] <= 38.157\ngini = 0.073\nsamples = 4\nvalue = [[0, 0, 0, 0, 8, 0, 0, 0, 0, 0, 0, 0, 0, 0, 0]\n[0, 0, 0, 7, 0, 0, 0, 0, 0, 0, 0, 0, 0, 0, 1]\n[0, 0, 0, 8, 0, 0, 0, 0, 0, 0, 0, 0, 0, 0, 0]]", fillcolor="#e58139da"] ;
35 -> 47 ;
48 [label="gini = 0.0\nsamples = 3\nvalue = [[0, 0, 0, 0, 7, 0, 0, 0, 0, 0, 0, 0, 0, 0, 0]\n[0, 0, 0, 7, 0, 0, 0, 0, 0, 0, 0, 0, 0, 0, 0]\n[0, 0, 0, 7, 0, 0, 0, 0, 0, 0, 0, 0, 0, 0, 0]]", fillcolor="#e58139ff"] ;
47 -> 48 ;
49 [label="gini = 0.0\nsamples = 1\nvalue = [[0, 0, 0, 0, 1, 0, 0, 0, 0, 0, 0, 0, 0, 0, 0]\n[0, 0, 0, 0, 0, 0, 0, 0, 0, 0, 0, 0, 0, 0, 1]\n[0, 0, 0, 1, 0, 0, 0, 0, 0, 0, 0, 0, 0, 0, 0]]", fillcolor="#e58139ff"] ;
47 -> 49 ;
50 [label="X[5] <= 31.708\ngini = 0.18\nsamples = 27\nvalue = [[0, 0, 0, 0, 43, 0, 0, 0, 0, 0, 0, 0, 0, 0, 0]\n[0, 0, 0, 1, 0, 1, 0, 0, 0, 0, 0, 0, 0, 0, 41]\n[0, 0, 0, 31, 0, 0, 0, 0, 0, 0, 0, 2, 2, 1, 7]]", fillcolor="#e58139a3"] ;
6 -> 50 ;
51 [label="X[6] <= 241.792\ngini = 0.167\nsamples = 25\nvalue = [[0, 0, 0, 0, 38, 0, 0, 0, 0, 0, 0, 0, 0, 0, 0]\n[0, 0, 0, 1, 0, 1, 0, 0, 0, 0, 0, 0, 0, 0, 36]\n[0, 0, 0, 29, 0, 0, 0, 0, 0, 0, 0, 2, 2, 1, 4]]", fillcolor="#e58139a9"] ;
50 -> 51 ;
52 [label="X[14] <= 179.923\ngini = 0.22\nsamples = 6\nvalue = [[0, 0, 0, 0, 10, 0, 0, 0, 0, 0, 0, 0, 0, 0, 0]\n[0, 0, 0, 0, 0, 0, 0, 0, 0, 0, 0, 0, 0, 0, 10]\n[0, 0, 0, 5, 0, 0, 0, 0, 0, 0, 0, 2, 1, 0, 2]]", fillcolor="#e581398e"] ;
51 -> 52 ;
53 [label="X[13] <= 0.0\ngini = 0.136\nsamples = 4\nvalue = [[0, 0, 0, 0, 7, 0, 0, 0, 0, 0, 0, 0, 0, 0, 0]\n[0, 0, 0, 0, 0, 0, 0, 0, 0, 0, 0, 0, 0, 0, 7]\n[0, 0, 0, 5, 0, 0, 0, 0, 0, 0, 0, 0, 0, 0, 2]]", fillcolor="#e58139b9"] ;
52 -> 53 ;
54 [label="gini = 0.0\nsamples = 1\nvalue = [[0, 0, 0, 0, 2, 0, 0, 0, 0, 0, 0, 0, 0, 0, 0]\n[0, 0, 0, 0, 0, 0, 0, 0, 0, 0, 0, 0, 0, 0, 2]\n[0, 0, 0, 0, 0, 0, 0, 0, 0, 0, 0, 0, 0, 0, 2]]", fillcolor="#e58139ff"] ;
53 -> 54 ;
55 [label="gini = 0.0\nsamples = 3\nvalue = [[0, 0, 0, 0, 5, 0, 0, 0, 0, 0, 0, 0, 0, 0, 0]\n[0, 0, 0, 0, 0, 0, 0, 0, 0, 0, 0, 0, 0, 0, 5]\n[0, 0, 0, 5, 0, 0, 0, 0, 0, 0, 0, 0, 0, 0, 0]]", fillcolor="#e58139ff"] ;
53 -> 55 ;
56 [label="X[9] <= 2.114\ngini = 0.148\nsamples = 2\nvalue = [[0, 0, 0, 0, 3, 0, 0, 0, 0, 0, 0, 0, 0, 0, 0]\n[0, 0, 0, 0, 0, 0, 0, 0, 0, 0, 0, 0, 0, 0, 3]\n[0, 0, 0, 0, 0, 0, 0, 0, 0, 0, 0, 2, 1, 0, 0]]", fillcolor="#e58139b3"] ;
52 -> 56 ;
57 [label="gini = 0.0\nsamples = 1\nvalue = [[0, 0, 0, 0, 1, 0, 0, 0, 0, 0, 0, 0, 0, 0, 0]\n[0, 0, 0, 0, 0, 0, 0, 0, 0, 0, 0, 0, 0, 0, 1]\n[0, 0, 0, 0, 0, 0, 0, 0, 0, 0, 0, 0, 1, 0, 0]]", fillcolor="#e58139ff"] ;
56 -> 57 ;
58 [label="gini = 0.0\nsamples = 1\nvalue = [[0, 0, 0, 0, 2, 0, 0, 0, 0, 0, 0, 0, 0, 0, 0]\n[0, 0, 0, 0, 0, 0, 0, 0, 0, 0, 0, 0, 0, 0, 2]\n[0, 0, 0, 0, 0, 0, 0, 0, 0, 0, 0, 2, 0, 0, 0]]", fillcolor="#e58139ff"] ;
56 -> 58 ;
59 [label="X[13] <= 0.014\ngini = 0.131\nsamples = 19\nvalue = [[0, 0, 0, 0, 28, 0, 0, 0, 0, 0, 0, 0, 0, 0, 0]\n[0, 0, 0, 1, 0, 1, 0, 0, 0, 0, 0, 0, 0, 0, 26]\n[0, 0, 0, 24, 0, 0, 0, 0, 0, 0, 0, 0, 1, 1, 2]]", fillcolor="#e58139bc"] ;
51 -> 59 ;
60 [label="X[0] <= 17.0\ngini = 0.073\nsamples = 17\nvalue = [[0, 0, 0, 0, 26, 0, 0, 0, 0, 0, 0, 0, 0, 0, 0]\n[0, 0, 0, 0, 0, 1, 0, 0, 0, 0, 0, 0, 0, 0, 25]\n[0, 0, 0, 24, 0, 0, 0, 0, 0, 0, 0, 0, 1, 0, 1]]", fillcolor="#e58139d9"] ;
59 -> 60 ;
61 [label="X[18] <= 90.035\ngini = 0.029\nsamples = 14\nvalue = [[0, 0, 0, 0, 22, 0, 0, 0, 0, 0, 0, 0, 0, 0, 0]\n[0, 0, 0, 0, 0, 0, 0, 0, 0, 0, 0, 0, 0, 0, 22]\n[0, 0, 0, 21, 0, 0, 0, 0, 0, 0, 0, 0, 1, 0, 0]]", fillcolor="#e58139f0"] ;
60 -> 61 ;
62 [label="gini = 0.0\nsamples = 1\nvalue = [[0, 0, 0, 0, 1, 0, 0, 0, 0, 0, 0, 0, 0, 0, 0]\n[0, 0, 0, 0, 0, 0, 0, 0, 0, 0, 0, 0, 0, 0, 1]\n[0, 0, 0, 0, 0, 0, 0, 0, 0, 0, 0, 0, 1, 0, 0]]", fillcolor="#e58139ff"] ;
61 -> 62 ;
63 [label="gini = 0.0\nsamples = 13\nvalue = [[0, 0, 0, 0, 21, 0, 0, 0, 0, 0, 0, 0, 0, 0, 0]\n[0, 0, 0, 0, 0, 0, 0, 0, 0, 0, 0, 0, 0, 0, 21]\n[0, 0, 0, 21, 0, 0, 0, 0, 0, 0, 0, 0, 0, 0, 0]]", fillcolor="#e58139ff"] ;
61 -> 63 ;
64 [label="X[13] <= 0.0\ngini = 0.25\nsamples = 3\nvalue = [[0, 0, 0, 0, 4, 0, 0, 0, 0, 0, 0, 0, 0, 0, 0]\n[0, 0, 0, 0, 0, 1, 0, 0, 0, 0, 0, 0, 0, 0, 3]\n[0, 0, 0, 3, 0, 0, 0, 0, 0, 0, 0, 0, 0, 0, 1]]", fillcolor="#e581397e"] ;
60 -> 64 ;
65 [label="gini = 0.0\nsamples = 1\nvalue = [[0, 0, 0, 0, 2, 0, 0, 0, 0, 0, 0, 0, 0, 0, 0]\n[0, 0, 0, 0, 0, 0, 0, 0, 0, 0, 0, 0, 0, 0, 2]\n[0, 0, 0, 2, 0, 0, 0, 0, 0, 0, 0, 0, 0, 0, 0]]", fillcolor="#e58139ff"] ;
64 -> 65 ;
66 [label="X[18] <= 93.125\ngini = 0.333\nsamples = 2\nvalue = [[0, 0, 0, 0, 2, 0, 0, 0, 0, 0, 0, 0, 0, 0, 0]\n[0, 0, 0, 0, 0, 1, 0, 0, 0, 0, 0, 0, 0, 0, 1]\n[0, 0, 0, 1, 0, 0, 0, 0, 0, 0, 0, 0, 0, 0, 1]]", fillcolor="#e5813954"] ;
64 -> 66 ;
67 [label="gini = 0.0\nsamples = 1\nvalue = [[0, 0, 0, 0, 1, 0, 0, 0, 0, 0, 0, 0, 0, 0, 0]\n[0, 0, 0, 0, 0, 1, 0, 0, 0, 0, 0, 0, 0, 0, 0]\n[0, 0, 0, 0, 0, 0, 0, 0, 0, 0, 0, 0, 0, 0, 1]]", fillcolor="#e58139ff"] ;
66 -> 67 ;
68 [label="gini = 0.0\nsamples = 1\nvalue = [[0, 0, 0, 0, 1, 0, 0, 0, 0, 0, 0, 0, 0, 0, 0]\n[0, 0, 0, 0, 0, 0, 0, 0, 0, 0, 0, 0, 0, 0, 1]\n[0, 0, 0, 1, 0, 0, 0, 0, 0, 0, 0, 0, 0, 0, 0]]", fillcolor="#e58139ff"] ;
66 -> 68 ;
69 [label="X[14] <= 179.975\ngini = 0.333\nsamples = 2\nvalue = [[0, 0, 0, 0, 2, 0, 0, 0, 0, 0, 0, 0, 0, 0, 0]\n[0, 0, 0, 1, 0, 0, 0, 0, 0, 0, 0, 0, 0, 0, 1]\n[0, 0, 0, 0, 0, 0, 0, 0, 0, 0, 0, 0, 0, 1, 1]]", fillcolor="#e5813954"] ;
59 -> 69 ;
70 [label="gini = 0.0\nsamples = 1\nvalue = [[0, 0, 0, 0, 1, 0, 0, 0, 0, 0, 0, 0, 0, 0, 0]\n[0, 0, 0, 0, 0, 0, 0, 0, 0, 0, 0, 0, 0, 0, 1]\n[0, 0, 0, 0, 0, 0, 0, 0, 0, 0, 0, 0, 0, 0, 1]]", fillcolor="#e58139ff"] ;
69 -> 70 ;
71 [label="gini = 0.0\nsamples = 1\nvalue = [[0, 0, 0, 0, 1, 0, 0, 0, 0, 0, 0, 0, 0, 0, 0]\n[0, 0, 0, 1, 0, 0, 0, 0, 0, 0, 0, 0, 0, 0, 0]\n[0, 0, 0, 0, 0, 0, 0, 0, 0, 0, 0, 0, 0, 1, 0]]", fillcolor="#e58139ff"] ;
69 -> 71 ;
72 [label="X[6] <= 710.323\ngini = 0.16\nsamples = 2\nvalue = [[0, 0, 0, 0, 5, 0, 0, 0, 0, 0, 0, 0, 0, 0, 0]\n[0, 0, 0, 0, 0, 0, 0, 0, 0, 0, 0, 0, 0, 0, 5]\n[0, 0, 0, 2, 0, 0, 0, 0, 0, 0, 0, 0, 0, 0, 3]]", fillcolor="#e58139ad"] ;
50 -> 72 ;
73 [label="gini = 0.0\nsamples = 1\nvalue = [[0, 0, 0, 0, 2, 0, 0, 0, 0, 0, 0, 0, 0, 0, 0]\n[0, 0, 0, 0, 0, 0, 0, 0, 0, 0, 0, 0, 0, 0, 2]\n[0, 0, 0, 2, 0, 0, 0, 0, 0, 0, 0, 0, 0, 0, 0]]", fillcolor="#e58139ff"] ;
72 -> 73 ;
74 [label="gini = 0.0\nsamples = 1\nvalue = [[0, 0, 0, 0, 3, 0, 0, 0, 0, 0, 0, 0, 0, 0, 0]\n[0, 0, 0, 0, 0, 0, 0, 0, 0, 0, 0, 0, 0, 0, 3]\n[0, 0, 0, 0, 0, 0, 0, 0, 0, 0, 0, 0, 0, 0, 3]]", fillcolor="#e58139ff"] ;
72 -> 74 ;
75 [label="X[18] <= 92.519\ngini = 0.431\nsamples = 105\nvalue = [[2, 1, 11, 0, 164, 0, 0, 0, 0, 0, 0, 0, 0, 0, 0]\n[1, 2, 0, 22, 0, 4, 0, 0, 0, 22, 1, 2, 3, 0, 121]\n[0, 1, 2, 100, 0, 1, 3, 3, 0, 24, 1, 0, 17, 3, 23]]", fillcolor="#e5813921"] ;
5 -> 75 ;
76 [label="X[9] <= 2.817\ngini = 0.408\nsamples = 93\nvalue = [[2, 1, 3, 0, 150, 0, 0, 0, 0, 0, 0, 0, 0, 0, 0]\n[1, 2, 0, 18, 0, 4, 0, 0, 0, 22, 1, 0, 1, 0, 107]\n[0, 0, 2, 85, 0, 1, 3, 3, 0, 23, 1, 0, 12, 3, 23]]", fillcolor="#e581392d"] ;
75 -> 76 ;
77 [label="X[17] <= 0.005\ngini = 0.456\nsamples = 54\nvalue = [[2, 0, 3, 0, 86, 0, 0, 0, 0, 0, 0, 0, 0, 0, 0]\n[0, 2, 0, 14, 0, 3, 0, 0, 0, 17, 0, 0, 0, 0, 55]\n[0, 0, 2, 45, 0, 1, 3, 2, 0, 11, 0, 0, 4, 3, 20]]", fillcolor="#e5813915"] ;
76 -> 77 ;
78 [label="X[12] <= 68.765\ngini = 0.469\nsamples = 25\nvalue = [[2, 0, 2, 0, 39, 0, 0, 0, 0, 0, 0, 0, 0, 0, 0]\n[0, 0, 0, 8, 0, 2, 0, 0, 0, 2, 0, 0, 0, 0, 31]\n[0, 0, 0, 9, 0, 1, 3, 2, 0, 6, 0, 0, 4, 3, 15]]", fillcolor="#e581390e"] ;
77 -> 78 ;
79 [label="X[16] <= 89.98\ngini = 0.448\nsamples = 24\nvalue = [[2, 0, 2, 0, 37, 0, 0, 0, 0, 0, 0, 0, 0, 0, 0]\n[0, 0, 0, 8, 0, 0, 0, 0, 0, 2, 0, 0, 0, 0, 31]\n[0, 0, 0, 9, 0, 1, 3, 0, 0, 6, 0, 0, 4, 3, 15]]", fillcolor="#e5813919"] ;
78 -> 79 ;
80 [label="X[11] <= 31.371\ngini = 0.369\nsamples = 15\nvalue = [[2, 0, 1, 0, 25, 0, 0, 0, 0, 0, 0, 0, 0, 0, 0]\n[0, 0, 0, 1, 0, 0, 0, 0, 0, 2, 0, 0, 0, 0, 25]\n[0, 0, 0, 3, 0, 1, 2, 0, 0, 6, 0, 0, 1, 2, 13]]", fillcolor="#e5813941"] ;
79 -> 80 ;
81 [label="X[15] <= 76.333\ngini = 0.333\nsamples = 2\nvalue = [[0, 0, 1, 0, 1, 0, 0, 0, 0, 0, 0, 0, 0, 0, 0]\n[0, 0, 0, 1, 0, 0, 0, 0, 0, 1, 0, 0, 0, 0, 0]\n[0, 0, 0, 2, 0, 0, 0, 0, 0, 0, 0, 0, 0, 0, 0]]", fillcolor="#e5813954"] ;
80 -> 81 ;
82 [label="gini = 0.0\nsamples = 1\nvalue = [[0, 0, 1, 0, 0, 0, 0, 0, 0, 0, 0, 0, 0, 0, 0]\n[0, 0, 0, 1, 0, 0, 0, 0, 0, 0, 0, 0, 0, 0, 0]\n[0, 0, 0, 1, 0, 0, 0, 0, 0, 0, 0, 0, 0, 0, 0]]", fillcolor="#e58139ff"] ;
81 -> 82 ;
83 [label="gini = 0.0\nsamples = 1\nvalue = [[0, 0, 0, 0, 1, 0, 0, 0, 0, 0, 0, 0, 0, 0, 0]\n[0, 0, 0, 0, 0, 0, 0, 0, 0, 1, 0, 0, 0, 0, 0]\n[0, 0, 0, 1, 0, 0, 0, 0, 0, 0, 0, 0, 0, 0, 0]]", fillcolor="#e58139ff"] ;
81 -> 83 ;
84 [label="X[10] <= 184.518\ngini = 0.299\nsamples = 13\nvalue = [[2, 0, 0, 0, 24, 0, 0, 0, 0, 0, 0, 0, 0, 0, 0]\n[0, 0, 0, 0, 0, 0, 0, 0, 0, 1, 0, 0, 0, 0, 25]\n[0, 0, 0, 1, 0, 1, 2, 0, 0, 6, 0, 0, 1, 2, 13]]", fillcolor="#e5813965"] ;
80 -> 84 ;
85 [label="X[18] <= 91.818\ngini = 0.263\nsamples = 12\nvalue = [[0, 0, 0, 0, 24, 0, 0, 0, 0, 0, 0, 0, 0, 0, 0]\n[0, 0, 0, 0, 0, 0, 0, 0, 0, 1, 0, 0, 0, 0, 23]\n[0, 0, 0, 1, 0, 1, 2, 0, 0, 6, 0, 0, 1, 2, 11]]", fillcolor="#e5813978"] ;
84 -> 85 ;
86 [label="X[16] <= 89.971\ngini = 0.228\nsamples = 11\nvalue = [[0, 0, 0, 0, 23, 0, 0, 0, 0, 0, 0, 0, 0, 0, 0]\n[0, 0, 0, 0, 0, 0, 0, 0, 0, 0, 0, 0, 0, 0, 23]\n[0, 0, 0, 0, 0, 1, 2, 0, 0, 6, 0, 0, 1, 2, 11]]", fillcolor="#e581398a"] ;
85 -> 86 ;
87 [label="X[13] <= 0.0\ngini = 0.193\nsamples = 9\nvalue = [[0, 0, 0, 0, 18, 0, 0, 0, 0, 0, 0, 0, 0, 0, 0]\n[0, 0, 0, 0, 0, 0, 0, 0, 0, 0, 0, 0, 0, 0, 18]\n[0, 0, 0, 0, 0, 1, 2, 0, 0, 3, 0, 0, 1, 0, 11]]", fillcolor="#e581399c"] ;
86 -> 87 ;
88 [label="gini = 0.0\nsamples = 3\nvalue = [[0, 0, 0, 0, 6, 0, 0, 0, 0, 0, 0, 0, 0, 0, 0]\n[0, 0, 0, 0, 0, 0, 0, 0, 0, 0, 0, 0, 0, 0, 6]\n[0, 0, 0, 0, 0, 0, 0, 0, 0, 0, 0, 0, 0, 0, 6]]", fillcolor="#e58139ff"] ;
87 -> 88 ;
89 [label="X[10] <= 129.612\ngini = 0.241\nsamples = 6\nvalue = [[0, 0, 0, 0, 12, 0, 0, 0, 0, 0, 0, 0, 0, 0, 0]\n[0, 0, 0, 0, 0, 0, 0, 0, 0, 0, 0, 0, 0, 0, 12]\n[0, 0, 0, 0, 0, 1, 2, 0, 0, 3, 0, 0, 1, 0, 5]]", fillcolor="#e5813983"] ;
87 -> 89 ;
90 [label="X[15] <= 84.349\ngini = 0.093\nsamples = 3\nvalue = [[0, 0, 0, 0, 6, 0, 0, 0, 0, 0, 0, 0, 0, 0, 0]\n[0, 0, 0, 0, 0, 0, 0, 0, 0, 0, 0, 0, 0, 0, 6]\n[0, 0, 0, 0, 0, 0, 0, 0, 0, 0, 0, 0, 1, 0, 5]]", fillcolor="#e58139cf"] ;
89 -> 90 ;
91 [label="gini = 0.0\nsamples = 2\nvalue = [[0, 0, 0, 0, 5, 0, 0, 0, 0, 0, 0, 0, 0, 0, 0]\n[0, 0, 0, 0, 0, 0, 0, 0, 0, 0, 0, 0, 0, 0, 5]\n[0, 0, 0, 0, 0, 0, 0, 0, 0, 0, 0, 0, 0, 0, 5]]", fillcolor="#e58139ff"] ;
90 -> 91 ;
92 [label="gini = 0.0\nsamples = 1\nvalue = [[0, 0, 0, 0, 1, 0, 0, 0, 0, 0, 0, 0, 0, 0, 0]\n[0, 0, 0, 0, 0, 0, 0, 0, 0, 0, 0, 0, 0, 0, 1]\n[0, 0, 0, 0, 0, 0, 0, 0, 0, 0, 0, 0, 1, 0, 0]]", fillcolor="#e58139ff"] ;
90 -> 92 ;
93 [label="X[0] <= 13.0\ngini = 0.204\nsamples = 3\nvalue = [[0, 0, 0, 0, 6, 0, 0, 0, 0, 0, 0, 0, 0, 0, 0]\n[0, 0, 0, 0, 0, 0, 0, 0, 0, 0, 0, 0, 0, 0, 6]\n[0, 0, 0, 0, 0, 1, 2, 0, 0, 3, 0, 0, 0, 0, 0]]", fillcolor="#e5813996"] ;
89 -> 93 ;
94 [label="gini = 0.0\nsamples = 1\nvalue = [[0, 0, 0, 0, 3, 0, 0, 0, 0, 0, 0, 0, 0, 0, 0]\n[0, 0, 0, 0, 0, 0, 0, 0, 0, 0, 0, 0, 0, 0, 3]\n[0, 0, 0, 0, 0, 0, 0, 0, 0, 3, 0, 0, 0, 0, 0]]", fillcolor="#e58139ff"] ;
93 -> 94 ;
95 [label="X[9] <= 1.638\ngini = 0.148\nsamples = 2\nvalue = [[0, 0, 0, 0, 3, 0, 0, 0, 0, 0, 0, 0, 0, 0, 0]\n[0, 0, 0, 0, 0, 0, 0, 0, 0, 0, 0, 0, 0, 0, 3]\n[0, 0, 0, 0, 0, 1, 2, 0, 0, 0, 0, 0, 0, 0, 0]]", fillcolor="#e58139b3"] ;
93 -> 95 ;
96 [label="gini = 0.0\nsamples = 1\nvalue = [[0, 0, 0, 0, 1, 0, 0, 0, 0, 0, 0, 0, 0, 0, 0]\n[0, 0, 0, 0, 0, 0, 0, 0, 0, 0, 0, 0, 0, 0, 1]\n[0, 0, 0, 0, 0, 1, 0, 0, 0, 0, 0, 0, 0, 0, 0]]", fillcolor="#e58139ff"] ;
95 -> 96 ;
97 [label="gini = 0.0\nsamples = 1\nvalue = [[0, 0, 0, 0, 2, 0, 0, 0, 0, 0, 0, 0, 0, 0, 0]\n[0, 0, 0, 0, 0, 0, 0, 0, 0, 0, 0, 0, 0, 0, 2]\n[0, 0, 0, 0, 0, 0, 2, 0, 0, 0, 0, 0, 0, 0, 0]]", fillcolor="#e58139ff"] ;
95 -> 97 ;
98 [label="X[6] <= 355.866\ngini = 0.16\nsamples = 2\nvalue = [[0, 0, 0, 0, 5, 0, 0, 0, 0, 0, 0, 0, 0, 0, 0]\n[0, 0, 0, 0, 0, 0, 0, 0, 0, 0, 0, 0, 0, 0, 5]\n[0, 0, 0, 0, 0, 0, 0, 0, 0, 3, 0, 0, 0, 2, 0]]", fillcolor="#e58139ad"] ;
86 -> 98 ;
99 [label="gini = 0.0\nsamples = 1\nvalue = [[0, 0, 0, 0, 3, 0, 0, 0, 0, 0, 0, 0, 0, 0, 0]\n[0, 0, 0, 0, 0, 0, 0, 0, 0, 0, 0, 0, 0, 0, 3]\n[0, 0, 0, 0, 0, 0, 0, 0, 0, 3, 0, 0, 0, 0, 0]]", fillcolor="#e58139ff"] ;
98 -> 99 ;
100 [label="gini = 0.0\nsamples = 1\nvalue = [[0, 0, 0, 0, 2, 0, 0, 0, 0, 0, 0, 0, 0, 0, 0]\n[0, 0, 0, 0, 0, 0, 0, 0, 0, 0, 0, 0, 0, 0, 2]\n[0, 0, 0, 0, 0, 0, 0, 0, 0, 0, 0, 0, 0, 2, 0]]", fillcolor="#e58139ff"] ;
98 -> 100 ;
101 [label="gini = 0.0\nsamples = 1\nvalue = [[0, 0, 0, 0, 1, 0, 0, 0, 0, 0, 0, 0, 0, 0, 0]\n[0, 0, 0, 0, 0, 0, 0, 0, 0, 1, 0, 0, 0, 0, 0]\n[0, 0, 0, 1, 0, 0, 0, 0, 0, 0, 0, 0, 0, 0, 0]]", fillcolor="#e58139ff"] ;
85 -> 101 ;
102 [label="gini = 0.0\nsamples = 1\nvalue = [[2, 0, 0, 0, 0, 0, 0, 0, 0, 0, 0, 0, 0, 0, 0]\n[0, 0, 0, 0, 0, 0, 0, 0, 0, 0, 0, 0, 0, 0, 2]\n[0, 0, 0, 0, 0, 0, 0, 0, 0, 0, 0, 0, 0, 0, 2]]", fillcolor="#e58139ff"] ;
84 -> 102 ;
103 [label="X[7] <= 105.809\ngini = 0.446\nsamples = 9\nvalue = [[0, 0, 1, 0, 12, 0, 0, 0, 0, 0, 0, 0, 0, 0, 0]\n[0, 0, 0, 7, 0, 0, 0, 0, 0, 0, 0, 0, 0, 0, 6]\n[0, 0, 0, 6, 0, 0, 1, 0, 0, 0, 0, 0, 3, 1, 2]]", fillcolor="#e581391a"] ;
79 -> 103 ;
104 [label="gini = 0.0\nsamples = 1\nvalue = [[0, 0, 0, 0, 3, 0, 0, 0, 0, 0, 0, 0, 0, 0, 0]\n[0, 0, 0, 3, 0, 0, 0, 0, 0, 0, 0, 0, 0, 0, 0]\n[0, 0, 0, 0, 0, 0, 0, 0, 0, 0, 0, 0, 3, 0, 0]]", fillcolor="#e58139ff"] ;
103 -> 104 ;
105 [label="X[17] <= 0.0\ngini = 0.413\nsamples = 8\nvalue = [[0, 0, 1, 0, 9, 0, 0, 0, 0, 0, 0, 0, 0, 0, 0]\n[0, 0, 0, 4, 0, 0, 0, 0, 0, 0, 0, 0, 0, 0, 6]\n[0, 0, 0, 6, 0, 0, 1, 0, 0, 0, 0, 0, 0, 1, 2]]", fillcolor="#e581392a"] ;
103 -> 105 ;
106 [label="X[10] <= 143.334\ngini = 0.167\nsamples = 2\nvalue = [[0, 0, 1, 0, 1, 0, 0, 0, 0, 0, 0, 0, 0, 0, 0]\n[0, 0, 0, 0, 0, 0, 0, 0, 0, 0, 0, 0, 0, 0, 2]\n[0, 0, 0, 0, 0, 0, 0, 0, 0, 0, 0, 0, 0, 0, 2]]", fillcolor="#e58139a9"] ;
105 -> 106 ;
107 [label="gini = 0.0\nsamples = 1\nvalue = [[0, 0, 0, 0, 1, 0, 0, 0, 0, 0, 0, 0, 0, 0, 0]\n[0, 0, 0, 0, 0, 0, 0, 0, 0, 0, 0, 0, 0, 0, 1]\n[0, 0, 0, 0, 0, 0, 0, 0, 0, 0, 0, 0, 0, 0, 1]]", fillcolor="#e58139ff"] ;
106 -> 107 ;
108 [label="gini = 0.0\nsamples = 1\nvalue = [[0, 0, 1, 0, 0, 0, 0, 0, 0, 0, 0, 0, 0, 0, 0]\n[0, 0, 0, 0, 0, 0, 0, 0, 0, 0, 0, 0, 0, 0, 1]\n[0, 0, 0, 0, 0, 0, 0, 0, 0, 0, 0, 0, 0, 0, 1]]", fillcolor="#e58139ff"] ;
106 -> 108 ;
109 [label="X[16] <= 90.005\ngini = 0.302\nsamples = 6\nvalue = [[0, 0, 0, 0, 8, 0, 0, 0, 0, 0, 0, 0, 0, 0, 0]\n[0, 0, 0, 4, 0, 0, 0, 0, 0, 0, 0, 0, 0, 0, 4]\n[0, 0, 0, 6, 0, 0, 1, 0, 0, 0, 0, 0, 0, 1, 0]]", fillcolor="#e5813964"] ;
105 -> 109 ;
110 [label="X[14] <= 179.952\ngini = 0.293\nsamples = 4\nvalue = [[0, 0, 0, 0, 5, 0, 0, 0, 0, 0, 0, 0, 0, 0, 0]\n[0, 0, 0, 4, 0, 0, 0, 0, 0, 0, 0, 0, 0, 0, 1]\n[0, 0, 0, 3, 0, 0, 1, 0, 0, 0, 0, 0, 0, 1, 0]]", fillcolor="#e5813968"] ;
109 -> 110 ;
111 [label="gini = 0.0\nsamples = 1\nvalue = [[0, 0, 0, 0, 1, 0, 0, 0, 0, 0, 0, 0, 0, 0, 0]\n[0, 0, 0, 1, 0, 0, 0, 0, 0, 0, 0, 0, 0, 0, 0]\n[0, 0, 0, 0, 0, 0, 1, 0, 0, 0, 0, 0, 0, 0, 0]]", fillcolor="#e58139ff"] ;
110 -> 111 ;
112 [label="X[17] <= 0.0\ngini = 0.25\nsamples = 3\nvalue = [[0, 0, 0, 0, 4, 0, 0, 0, 0, 0, 0, 0, 0, 0, 0]\n[0, 0, 0, 3, 0, 0, 0, 0, 0, 0, 0, 0, 0, 0, 1]\n[0, 0, 0, 3, 0, 0, 0, 0, 0, 0, 0, 0, 0, 1, 0]]", fillcolor="#e581397e"] ;
110 -> 112 ;
113 [label="gini = 0.0\nsamples = 1\nvalue = [[0, 0, 0, 0, 1, 0, 0, 0, 0, 0, 0, 0, 0, 0, 0]\n[0, 0, 0, 1, 0, 0, 0, 0, 0, 0, 0, 0, 0, 0, 0]\n[0, 0, 0, 0, 0, 0, 0, 0, 0, 0, 0, 0, 0, 1, 0]]", fillcolor="#e58139ff"] ;
112 -> 113 ;
114 [label="X[11] <= 45.742\ngini = 0.148\nsamples = 2\nvalue = [[0, 0, 0, 0, 3, 0, 0, 0, 0, 0, 0, 0, 0, 0, 0]\n[0, 0, 0, 2, 0, 0, 0, 0, 0, 0, 0, 0, 0, 0, 1]\n[0, 0, 0, 3, 0, 0, 0, 0, 0, 0, 0, 0, 0, 0, 0]]", fillcolor="#e58139b3"] ;
112 -> 114 ;
115 [label="gini = 0.0\nsamples = 1\nvalue = [[0, 0, 0, 0, 1, 0, 0, 0, 0, 0, 0, 0, 0, 0, 0]\n[0, 0, 0, 0, 0, 0, 0, 0, 0, 0, 0, 0, 0, 0, 1]\n[0, 0, 0, 1, 0, 0, 0, 0, 0, 0, 0, 0, 0, 0, 0]]", fillcolor="#e58139ff"] ;
114 -> 115 ;
116 [label="gini = 0.0\nsamples = 1\nvalue = [[0, 0, 0, 0, 2, 0, 0, 0, 0, 0, 0, 0, 0, 0, 0]\n[0, 0, 0, 2, 0, 0, 0, 0, 0, 0, 0, 0, 0, 0, 0]\n[0, 0, 0, 2, 0, 0, 0, 0, 0, 0, 0, 0, 0, 0, 0]]", fillcolor="#e58139ff"] ;
114 -> 116 ;
117 [label="gini = 0.0\nsamples = 2\nvalue = [[0, 0, 0, 0, 3, 0, 0, 0, 0, 0, 0, 0, 0, 0, 0]\n[0, 0, 0, 0, 0, 0, 0, 0, 0, 0, 0, 0, 0, 0, 3]\n[0, 0, 0, 3, 0, 0, 0, 0, 0, 0, 0, 0, 0, 0, 0]]", fillcolor="#e58139ff"] ;
109 -> 117 ;
118 [label="gini = 0.0\nsamples = 1\nvalue = [[0, 0, 0, 0, 2, 0, 0, 0, 0, 0, 0, 0, 0, 0, 0]\n[0, 0, 0, 0, 0, 2, 0, 0, 0, 0, 0, 0, 0, 0, 0]\n[0, 0, 0, 0, 0, 0, 0, 2, 0, 0, 0, 0, 0, 0, 0]]", fillcolor="#e58139ff"] ;
78 -> 118 ;
119 [label="X[19] <= 32.645\ngini = 0.363\nsamples = 29\nvalue = [[0, 0, 1, 0, 47, 0, 0, 0, 0, 0, 0, 0, 0, 0, 0]\n[0, 2, 0, 6, 0, 1, 0, 0, 0, 15, 0, 0, 0, 0, 24]\n[0, 0, 2, 36, 0, 0, 0, 0, 0, 5, 0, 0, 0, 0, 5]]", fillcolor="#e5813944"] ;
77 -> 119 ;
120 [label="X[18] <= 91.095\ngini = 0.327\nsamples = 13\nvalue = [[0, 0, 1, 0, 18, 0, 0, 0, 0, 0, 0, 0, 0, 0, 0]\n[0, 2, 0, 0, 0, 1, 0, 0, 0, 0, 0, 0, 0, 0, 16]\n[0, 0, 2, 11, 0, 0, 0, 0, 0, 3, 0, 0, 0, 0, 3]]", fillcolor="#e5813957"] ;
119 -> 120 ;
121 [label="X[7] <= 157.336\ngini = 0.237\nsamples = 11\nvalue = [[0, 0, 1, 0, 15, 0, 0, 0, 0, 0, 0, 0, 0, 0, 0]\n[0, 0, 0, 0, 0, 1, 0, 0, 0, 0, 0, 0, 0, 0, 15]\n[0, 0, 0, 11, 0, 0, 0, 0, 0, 2, 0, 0, 0, 0, 3]]", fillcolor="#e5813985"] ;
120 -> 121 ;
122 [label="X[11] <= 48.056\ngini = 0.184\nsamples = 10\nvalue = [[0, 0, 0, 0, 15, 0, 0, 0, 0, 0, 0, 0, 0, 0, 0]\n[0, 0, 0, 0, 0, 1, 0, 0, 0, 0, 0, 0, 0, 0, 14]\n[0, 0, 0, 11, 0, 0, 0, 0, 0, 2, 0, 0, 0, 0, 2]]", fillcolor="#e58139a1"] ;
121 -> 122 ;
123 [label="X[16] <= 89.971\ngini = 0.055\nsamples = 7\nvalue = [[0, 0, 0, 0, 11, 0, 0, 0, 0, 0, 0, 0, 0, 0, 0]\n[0, 0, 0, 0, 0, 0, 0, 0, 0, 0, 0, 0, 0, 0, 11]\n[0, 0, 0, 10, 0, 0, 0, 0, 0, 1, 0, 0, 0, 0, 0]]", fillcolor="#e58139e3"] ;
122 -> 123 ;
124 [label="gini = 0.0\nsamples = 6\nvalue = [[0, 0, 0, 0, 10, 0, 0, 0, 0, 0, 0, 0, 0, 0, 0]\n[0, 0, 0, 0, 0, 0, 0, 0, 0, 0, 0, 0, 0, 0, 10]\n[0, 0, 0, 10, 0, 0, 0, 0, 0, 0, 0, 0, 0, 0, 0]]", fillcolor="#e58139ff"] ;
123 -> 124 ;
125 [label="gini = 0.0\nsamples = 1\nvalue = [[0, 0, 0, 0, 1, 0, 0, 0, 0, 0, 0, 0, 0, 0, 0]\n[0, 0, 0, 0, 0, 0, 0, 0, 0, 0, 0, 0, 0, 0, 1]\n[0, 0, 0, 0, 0, 0, 0, 0, 0, 1, 0, 0, 0, 0, 0]]", fillcolor="#e58139ff"] ;
123 -> 125 ;
126 [label="X[12] <= 9.023\ngini = 0.333\nsamples = 3\nvalue = [[0, 0, 0, 0, 4, 0, 0, 0, 0, 0, 0, 0, 0, 0, 0]\n[0, 0, 0, 0, 0, 1, 0, 0, 0, 0, 0, 0, 0, 0, 3]\n[0, 0, 0, 1, 0, 0, 0, 0, 0, 1, 0, 0, 0, 0, 2]]", fillcolor="#e5813954"] ;
122 -> 126 ;
127 [label="gini = 0.0\nsamples = 1\nvalue = [[0, 0, 0, 0, 1, 0, 0, 0, 0, 0, 0, 0, 0, 0, 0]\n[0, 0, 0, 0, 0, 1, 0, 0, 0, 0, 0, 0, 0, 0, 0]\n[0, 0, 0, 1, 0, 0, 0, 0, 0, 0, 0, 0, 0, 0, 0]]", fillcolor="#e58139ff"] ;
126 -> 127 ;
128 [label="X[11] <= 54.399\ngini = 0.148\nsamples = 2\nvalue = [[0, 0, 0, 0, 3, 0, 0, 0, 0, 0, 0, 0, 0, 0, 0]\n[0, 0, 0, 0, 0, 0, 0, 0, 0, 0, 0, 0, 0, 0, 3]\n[0, 0, 0, 0, 0, 0, 0, 0, 0, 1, 0, 0, 0, 0, 2]]", fillcolor="#e58139b3"] ;
126 -> 128 ;
129 [label="gini = 0.0\nsamples = 1\nvalue = [[0, 0, 0, 0, 2, 0, 0, 0, 0, 0, 0, 0, 0, 0, 0]\n[0, 0, 0, 0, 0, 0, 0, 0, 0, 0, 0, 0, 0, 0, 2]\n[0, 0, 0, 0, 0, 0, 0, 0, 0, 0, 0, 0, 0, 0, 2]]", fillcolor="#e58139ff"] ;
128 -> 129 ;
130 [label="gini = 0.0\nsamples = 1\nvalue = [[0, 0, 0, 0, 1, 0, 0, 0, 0, 0, 0, 0, 0, 0, 0]\n[0, 0, 0, 0, 0, 0, 0, 0, 0, 0, 0, 0, 0, 0, 1]\n[0, 0, 0, 0, 0, 0, 0, 0, 0, 1, 0, 0, 0, 0, 0]]", fillcolor="#e58139ff"] ;
128 -> 130 ;
131 [label="gini = 0.0\nsamples = 1\nvalue = [[0, 0, 1, 0, 0, 0, 0, 0, 0, 0, 0, 0, 0, 0, 0]\n[0, 0, 0, 0, 0, 0, 0, 0, 0, 0, 0, 0, 0, 0, 1]\n[0, 0, 0, 0, 0, 0, 0, 0, 0, 0, 0, 0, 0, 0, 1]]", fillcolor="#e58139ff"] ;
121 -> 131 ;
132 [label="X[7] <= 179.708\ngini = 0.296\nsamples = 2\nvalue = [[0, 0, 0, 0, 3, 0, 0, 0, 0, 0, 0, 0, 0, 0, 0]\n[0, 2, 0, 0, 0, 0, 0, 0, 0, 0, 0, 0, 0, 0, 1]\n[0, 0, 2, 0, 0, 0, 0, 0, 0, 1, 0, 0, 0, 0, 0]]", fillcolor="#e5813967"] ;
120 -> 132 ;
133 [label="gini = 0.0\nsamples = 1\nvalue = [[0, 0, 0, 0, 1, 0, 0, 0, 0, 0, 0, 0, 0, 0, 0]\n[0, 0, 0, 0, 0, 0, 0, 0, 0, 0, 0, 0, 0, 0, 1]\n[0, 0, 0, 0, 0, 0, 0, 0, 0, 1, 0, 0, 0, 0, 0]]", fillcolor="#e58139ff"] ;
132 -> 133 ;
134 [label="gini = 0.0\nsamples = 1\nvalue = [[0, 0, 0, 0, 2, 0, 0, 0, 0, 0, 0, 0, 0, 0, 0]\n[0, 2, 0, 0, 0, 0, 0, 0, 0, 0, 0, 0, 0, 0, 0]\n[0, 0, 2, 0, 0, 0, 0, 0, 0, 0, 0, 0, 0, 0, 0]]", fillcolor="#e58139ff"] ;
132 -> 134 ;
135 [label="X[16] <= 89.992\ngini = 0.287\nsamples = 16\nvalue = [[0, 0, 0, 0, 29, 0, 0, 0, 0, 0, 0, 0, 0, 0, 0]\n[0, 0, 0, 6, 0, 0, 0, 0, 0, 15, 0, 0, 0, 0, 8]\n[0, 0, 0, 25, 0, 0, 0, 0, 0, 2, 0, 0, 0, 0, 2]]", fillcolor="#e581396b"] ;
119 -> 135 ;
136 [label="X[9] <= 2.505\ngini = 0.267\nsamples = 13\nvalue = [[0, 0, 0, 0, 23, 0, 0, 0, 0, 0, 0, 0, 0, 0, 0]\n[0, 0, 0, 6, 0, 0, 0, 0, 0, 15, 0, 0, 0, 0, 2]\n[0, 0, 0, 19, 0, 0, 0, 0, 0, 2, 0, 0, 0, 0, 2]]", fillcolor="#e5813976"] ;
135 -> 136 ;
137 [label="X[14] <= 179.876\ngini = 0.163\nsamples = 10\nvalue = [[0, 0, 0, 0, 18, 0, 0, 0, 0, 0, 0, 0, 0, 0, 0]\n[0, 0, 0, 2, 0, 0, 0, 0, 0, 15, 0, 0, 0, 0, 1]\n[0, 0, 0, 16, 0, 0, 0, 0, 0, 2, 0, 0, 0, 0, 0]]", fillcolor="#e58139ab"] ;
136 -> 137 ;
138 [label="gini = 0.0\nsamples = 1\nvalue = [[0, 0, 0, 0, 2, 0, 0, 0, 0, 0, 0, 0, 0, 0, 0]\n[0, 0, 0, 2, 0, 0, 0, 0, 0, 0, 0, 0, 0, 0, 0]\n[0, 0, 0, 0, 0, 0, 0, 0, 0, 2, 0, 0, 0, 0, 0]]", fillcolor="#e58139ff"] ;
137 -> 138 ;
139 [label="X[17] <= 0.008\ngini = 0.039\nsamples = 9\nvalue = [[0, 0, 0, 0, 16, 0, 0, 0, 0, 0, 0, 0, 0, 0, 0]\n[0, 0, 0, 0, 0, 0, 0, 0, 0, 15, 0, 0, 0, 0, 1]\n[0, 0, 0, 16, 0, 0, 0, 0, 0, 0, 0, 0, 0, 0, 0]]", fillcolor="#e58139eb"] ;
137 -> 139 ;
140 [label="gini = 0.0\nsamples = 4\nvalue = [[0, 0, 0, 0, 8, 0, 0, 0, 0, 0, 0, 0, 0, 0, 0]\n[0, 0, 0, 0, 0, 0, 0, 0, 0, 8, 0, 0, 0, 0, 0]\n[0, 0, 0, 8, 0, 0, 0, 0, 0, 0, 0, 0, 0, 0, 0]]", fillcolor="#e58139ff"] ;
139 -> 140 ;
141 [label="X[10] <= 145.993\ngini = 0.073\nsamples = 5\nvalue = [[0, 0, 0, 0, 8, 0, 0, 0, 0, 0, 0, 0, 0, 0, 0]\n[0, 0, 0, 0, 0, 0, 0, 0, 0, 7, 0, 0, 0, 0, 1]\n[0, 0, 0, 8, 0, 0, 0, 0, 0, 0, 0, 0, 0, 0, 0]]", fillcolor="#e58139da"] ;
139 -> 141 ;
142 [label="gini = 0.0\nsamples = 3\nvalue = [[0, 0, 0, 0, 5, 0, 0, 0, 0, 0, 0, 0, 0, 0, 0]\n[0, 0, 0, 0, 0, 0, 0, 0, 0, 5, 0, 0, 0, 0, 0]\n[0, 0, 0, 5, 0, 0, 0, 0, 0, 0, 0, 0, 0, 0, 0]]", fillcolor="#e58139ff"] ;
141 -> 142 ;
143 [label="X[16] <= 89.952\ngini = 0.148\nsamples = 2\nvalue = [[0, 0, 0, 0, 3, 0, 0, 0, 0, 0, 0, 0, 0, 0, 0]\n[0, 0, 0, 0, 0, 0, 0, 0, 0, 2, 0, 0, 0, 0, 1]\n[0, 0, 0, 3, 0, 0, 0, 0, 0, 0, 0, 0, 0, 0, 0]]", fillcolor="#e58139b3"] ;
141 -> 143 ;
144 [label="gini = 0.0\nsamples = 1\nvalue = [[0, 0, 0, 0, 1, 0, 0, 0, 0, 0, 0, 0, 0, 0, 0]\n[0, 0, 0, 0, 0, 0, 0, 0, 0, 0, 0, 0, 0, 0, 1]\n[0, 0, 0, 1, 0, 0, 0, 0, 0, 0, 0, 0, 0, 0, 0]]", fillcolor="#e58139ff"] ;
143 -> 144 ;
145 [label="gini = 0.0\nsamples = 1\nvalue = [[0, 0, 0, 0, 2, 0, 0, 0, 0, 0, 0, 0, 0, 0, 0]\n[0, 0, 0, 0, 0, 0, 0, 0, 0, 2, 0, 0, 0, 0, 0]\n[0, 0, 0, 2, 0, 0, 0, 0, 0, 0, 0, 0, 0, 0, 0]]", fillcolor="#e58139ff"] ;
143 -> 145 ;
146 [label="X[6] <= 323.831\ngini = 0.267\nsamples = 3\nvalue = [[0, 0, 0, 0, 5, 0, 0, 0, 0, 0, 0, 0, 0, 0, 0]\n[0, 0, 0, 4, 0, 0, 0, 0, 0, 0, 0, 0, 0, 0, 1]\n[0, 0, 0, 3, 0, 0, 0, 0, 0, 0, 0, 0, 0, 0, 2]]", fillcolor="#e5813976"] ;
136 -> 146 ;
147 [label="X[17] <= 0.01\ngini = 0.148\nsamples = 2\nvalue = [[0, 0, 0, 0, 3, 0, 0, 0, 0, 0, 0, 0, 0, 0, 0]\n[0, 0, 0, 2, 0, 0, 0, 0, 0, 0, 0, 0, 0, 0, 1]\n[0, 0, 0, 3, 0, 0, 0, 0, 0, 0, 0, 0, 0, 0, 0]]", fillcolor="#e58139b3"] ;
146 -> 147 ;
148 [label="gini = 0.0\nsamples = 1\nvalue = [[0, 0, 0, 0, 1, 0, 0, 0, 0, 0, 0, 0, 0, 0, 0]\n[0, 0, 0, 0, 0, 0, 0, 0, 0, 0, 0, 0, 0, 0, 1]\n[0, 0, 0, 1, 0, 0, 0, 0, 0, 0, 0, 0, 0, 0, 0]]", fillcolor="#e58139ff"] ;
147 -> 148 ;
149 [label="gini = 0.0\nsamples = 1\nvalue = [[0, 0, 0, 0, 2, 0, 0, 0, 0, 0, 0, 0, 0, 0, 0]\n[0, 0, 0, 2, 0, 0, 0, 0, 0, 0, 0, 0, 0, 0, 0]\n[0, 0, 0, 2, 0, 0, 0, 0, 0, 0, 0, 0, 0, 0, 0]]", fillcolor="#e58139ff"] ;
147 -> 149 ;
150 [label="gini = 0.0\nsamples = 1\nvalue = [[0, 0, 0, 0, 2, 0, 0, 0, 0, 0, 0, 0, 0, 0, 0]\n[0, 0, 0, 2, 0, 0, 0, 0, 0, 0, 0, 0, 0, 0, 0]\n[0, 0, 0, 0, 0, 0, 0, 0, 0, 0, 0, 0, 0, 0, 2]]", fillcolor="#e58139ff"] ;
146 -> 150 ;
151 [label="gini = 0.0\nsamples = 3\nvalue = [[0, 0, 0, 0, 6, 0, 0, 0, 0, 0, 0, 0, 0, 0, 0]\n[0, 0, 0, 0, 0, 0, 0, 0, 0, 0, 0, 0, 0, 0, 6]\n[0, 0, 0, 6, 0, 0, 0, 0, 0, 0, 0, 0, 0, 0, 0]]", fillcolor="#e58139ff"] ;
135 -> 151 ;
152 [label="X[19] <= 48.135\ngini = 0.316\nsamples = 39\nvalue = [[0, 1, 0, 0, 64, 0, 0, 0, 0, 0, 0, 0, 0, 0, 0]\n[1, 0, 0, 4, 0, 1, 0, 0, 0, 5, 1, 0, 1, 0, 52]\n[0, 0, 0, 40, 0, 0, 0, 1, 0, 12, 1, 0, 8, 0, 3]]", fillcolor="#e581395c"] ;
76 -> 152 ;
153 [label="X[18] <= 90.001\ngini = 0.306\nsamples = 37\nvalue = [[0, 1, 0, 0, 58, 0, 0, 0, 0, 0, 0, 0, 0, 0, 0]\n[1, 0, 0, 4, 0, 1, 0, 0, 0, 5, 1, 0, 1, 0, 46]\n[0, 0, 0, 40, 0, 0, 0, 1, 0, 7, 1, 0, 8, 0, 2]]", fillcolor="#e5813962"] ;
152 -> 153 ;
154 [label="X[18] <= 89.99\ngini = 0.389\nsamples = 4\nvalue = [[0, 0, 0, 0, 6, 0, 0, 0, 0, 0, 0, 0, 0, 0, 0]\n[1, 0, 0, 0, 0, 1, 0, 0, 0, 0, 0, 0, 0, 0, 4]\n[0, 0, 0, 1, 0, 0, 0, 1, 0, 3, 0, 0, 0, 0, 1]]", fillcolor="#e5813937"] ;
153 -> 154 ;
155 [label="X[20] <= 1.756\ngini = 0.444\nsamples = 3\nvalue = [[0, 0, 0, 0, 3, 0, 0, 0, 0, 0, 0, 0, 0, 0, 0]\n[1, 0, 0, 0, 0, 1, 0, 0, 0, 0, 0, 0, 0, 0, 1]\n[0, 0, 0, 1, 0, 0, 0, 1, 0, 0, 0, 0, 0, 0, 1]]", fillcolor="#e581391a"] ;
154 -> 155 ;
156 [label="gini = 0.0\nsamples = 1\nvalue = [[0, 0, 0, 0, 1, 0, 0, 0, 0, 0, 0, 0, 0, 0, 0]\n[0, 0, 0, 0, 0, 1, 0, 0, 0, 0, 0, 0, 0, 0, 0]\n[0, 0, 0, 1, 0, 0, 0, 0, 0, 0, 0, 0, 0, 0, 0]]", fillcolor="#e58139ff"] ;
155 -> 156 ;
157 [label="X[8] <= 111.792\ngini = 0.333\nsamples = 2\nvalue = [[0, 0, 0, 0, 2, 0, 0, 0, 0, 0, 0, 0, 0, 0, 0]\n[1, 0, 0, 0, 0, 0, 0, 0, 0, 0, 0, 0, 0, 0, 1]\n[0, 0, 0, 0, 0, 0, 0, 1, 0, 0, 0, 0, 0, 0, 1]]", fillcolor="#e5813954"] ;
155 -> 157 ;
158 [label="gini = 0.0\nsamples = 1\nvalue = [[0, 0, 0, 0, 1, 0, 0, 0, 0, 0, 0, 0, 0, 0, 0]\n[0, 0, 0, 0, 0, 0, 0, 0, 0, 0, 0, 0, 0, 0, 1]\n[0, 0, 0, 0, 0, 0, 0, 1, 0, 0, 0, 0, 0, 0, 0]]", fillcolor="#e58139ff"] ;
157 -> 158 ;
159 [label="gini = 0.0\nsamples = 1\nvalue = [[0, 0, 0, 0, 1, 0, 0, 0, 0, 0, 0, 0, 0, 0, 0]\n[1, 0, 0, 0, 0, 0, 0, 0, 0, 0, 0, 0, 0, 0, 0]\n[0, 0, 0, 0, 0, 0, 0, 0, 0, 0, 0, 0, 0, 0, 1]]", fillcolor="#e58139ff"] ;
157 -> 159 ;
160 [label="gini = 0.0\nsamples = 1\nvalue = [[0, 0, 0, 0, 3, 0, 0, 0, 0, 0, 0, 0, 0, 0, 0]\n[0, 0, 0, 0, 0, 0, 0, 0, 0, 0, 0, 0, 0, 0, 3]\n[0, 0, 0, 0, 0, 0, 0, 0, 0, 3, 0, 0, 0, 0, 0]]", fillcolor="#e58139ff"] ;
154 -> 160 ;
161 [label="X[10] <= 112.907\ngini = 0.274\nsamples = 33\nvalue = [[0, 1, 0, 0, 52, 0, 0, 0, 0, 0, 0, 0, 0, 0, 0]\n[0, 0, 0, 4, 0, 0, 0, 0, 0, 5, 1, 0, 1, 0, 42]\n[0, 0, 0, 39, 0, 0, 0, 0, 0, 4, 1, 0, 8, 0, 1]]", fillcolor="#e5813972"] ;
153 -> 161 ;
162 [label="X[12] <= 16.753\ngini = 0.32\nsamples = 3\nvalue = [[0, 1, 0, 0, 4, 0, 0, 0, 0, 0, 0, 0, 0, 0, 0]\n[0, 0, 0, 0, 0, 0, 0, 0, 0, 0, 0, 0, 1, 0, 4]\n[0, 0, 0, 0, 0, 0, 0, 0, 0, 0, 0, 0, 4, 0, 1]]", fillcolor="#e581395a"] ;
161 -> 162 ;
163 [label="X[17] <= 0.011\ngini = 0.125\nsamples = 2\nvalue = [[0, 0, 0, 0, 4, 0, 0, 0, 0, 0, 0, 0, 0, 0, 0]\n[0, 0, 0, 0, 0, 0, 0, 0, 0, 0, 0, 0, 1, 0, 3]\n[0, 0, 0, 0, 0, 0, 0, 0, 0, 0, 0, 0, 4, 0, 0]]", fillcolor="#e58139bf"] ;
162 -> 163 ;
164 [label="gini = 0.0\nsamples = 1\nvalue = [[0, 0, 0, 0, 1, 0, 0, 0, 0, 0, 0, 0, 0, 0, 0]\n[0, 0, 0, 0, 0, 0, 0, 0, 0, 0, 0, 0, 1, 0, 0]\n[0, 0, 0, 0, 0, 0, 0, 0, 0, 0, 0, 0, 1, 0, 0]]", fillcolor="#e58139ff"] ;
163 -> 164 ;
165 [label="gini = 0.0\nsamples = 1\nvalue = [[0, 0, 0, 0, 3, 0, 0, 0, 0, 0, 0, 0, 0, 0, 0]\n[0, 0, 0, 0, 0, 0, 0, 0, 0, 0, 0, 0, 0, 0, 3]\n[0, 0, 0, 0, 0, 0, 0, 0, 0, 0, 0, 0, 3, 0, 0]]", fillcolor="#e58139ff"] ;
163 -> 165 ;
166 [label="gini = 0.0\nsamples = 1\nvalue = [[0, 1, 0, 0, 0, 0, 0, 0, 0, 0, 0, 0, 0, 0, 0]\n[0, 0, 0, 0, 0, 0, 0, 0, 0, 0, 0, 0, 0, 0, 1]\n[0, 0, 0, 0, 0, 0, 0, 0, 0, 0, 0, 0, 0, 0, 1]]", fillcolor="#e58139ff"] ;
162 -> 166 ;
167 [label="X[6] <= 1060.175\ngini = 0.227\nsamples = 30\nvalue = [[0, 0, 0, 0, 48, 0, 0, 0, 0, 0, 0, 0, 0, 0, 0]\n[0, 0, 0, 4, 0, 0, 0, 0, 0, 5, 1, 0, 0, 0, 38]\n[0, 0, 0, 39, 0, 0, 0, 0, 0, 4, 1, 0, 4, 0, 0]]", fillcolor="#e581398a"] ;
161 -> 167 ;
168 [label="X[16] <= 89.996\ngini = 0.206\nsamples = 29\nvalue = [[0, 0, 0, 0, 45, 0, 0, 0, 0, 0, 0, 0, 0, 0, 0]\n[0, 0, 0, 1, 0, 0, 0, 0, 0, 5, 1, 0, 0, 0, 38]\n[0, 0, 0, 36, 0, 0, 0, 0, 0, 4, 1, 0, 4, 0, 0]]", fillcolor="#e5813995"] ;
167 -> 168 ;
169 [label="X[20] <= 1.363\ngini = 0.186\nsamples = 28\nvalue = [[0, 0, 0, 0, 44, 0, 0, 0, 0, 0, 0, 0, 0, 0, 0]\n[0, 0, 0, 1, 0, 0, 0, 0, 0, 5, 0, 0, 0, 0, 38]\n[0, 0, 0, 36, 0, 0, 0, 0, 0, 3, 1, 0, 4, 0, 0]]", fillcolor="#e581399f"] ;
168 -> 169 ;
170 [label="X[5] <= 6.288\ngini = 0.119\nsamples = 19\nvalue = [[0, 0, 0, 0, 30, 0, 0, 0, 0, 0, 0, 0, 0, 0, 0]\n[0, 0, 0, 0, 0, 0, 0, 0, 0, 4, 0, 0, 0, 0, 26]\n[0, 0, 0, 28, 0, 0, 0, 0, 0, 1, 0, 0, 1, 0, 0]]", fillcolor="#e58139c2"] ;
169 -> 170 ;
171 [label="X[13] <= 0.012\ngini = 0.172\nsamples = 10\nvalue = [[0, 0, 0, 0, 15, 0, 0, 0, 0, 0, 0, 0, 0, 0, 0]\n[0, 0, 0, 0, 0, 0, 0, 0, 0, 4, 0, 0, 0, 0, 11]\n[0, 0, 0, 14, 0, 0, 0, 0, 0, 0, 0, 0, 1, 0, 0]]", fillcolor="#e58139a7"] ;
170 -> 171 ;
172 [label="X[8] <= 92.061\ngini = 0.136\nsamples = 9\nvalue = [[0, 0, 0, 0, 14, 0, 0, 0, 0, 0, 0, 0, 0, 0, 0]\n[0, 0, 0, 0, 0, 0, 0, 0, 0, 4, 0, 0, 0, 0, 10]\n[0, 0, 0, 14, 0, 0, 0, 0, 0, 0, 0, 0, 0, 0, 0]]", fillcolor="#e58139b9"] ;
171 -> 172 ;
173 [label="X[19] <= 23.178\ngini = 0.055\nsamples = 7\nvalue = [[0, 0, 0, 0, 11, 0, 0, 0, 0, 0, 0, 0, 0, 0, 0]\n[0, 0, 0, 0, 0, 0, 0, 0, 0, 1, 0, 0, 0, 0, 10]\n[0, 0, 0, 11, 0, 0, 0, 0, 0, 0, 0, 0, 0, 0, 0]]", fillcolor="#e58139e3"] ;
172 -> 173 ;
174 [label="X[17] <= 0.004\ngini = 0.148\nsamples = 2\nvalue = [[0, 0, 0, 0, 3, 0, 0, 0, 0, 0, 0, 0, 0, 0, 0]\n[0, 0, 0, 0, 0, 0, 0, 0, 0, 1, 0, 0, 0, 0, 2]\n[0, 0, 0, 3, 0, 0, 0, 0, 0, 0, 0, 0, 0, 0, 0]]", fillcolor="#e58139b3"] ;
173 -> 174 ;
175 [label="gini = 0.0\nsamples = 1\nvalue = [[0, 0, 0, 0, 2, 0, 0, 0, 0, 0, 0, 0, 0, 0, 0]\n[0, 0, 0, 0, 0, 0, 0, 0, 0, 0, 0, 0, 0, 0, 2]\n[0, 0, 0, 2, 0, 0, 0, 0, 0, 0, 0, 0, 0, 0, 0]]", fillcolor="#e58139ff"] ;
174 -> 175 ;
176 [label="gini = 0.0\nsamples = 1\nvalue = [[0, 0, 0, 0, 1, 0, 0, 0, 0, 0, 0, 0, 0, 0, 0]\n[0, 0, 0, 0, 0, 0, 0, 0, 0, 1, 0, 0, 0, 0, 0]\n[0, 0, 0, 1, 0, 0, 0, 0, 0, 0, 0, 0, 0, 0, 0]]", fillcolor="#e58139ff"] ;
174 -> 176 ;
177 [label="gini = 0.0\nsamples = 5\nvalue = [[0, 0, 0, 0, 8, 0, 0, 0, 0, 0, 0, 0, 0, 0, 0]\n[0, 0, 0, 0, 0, 0, 0, 0, 0, 0, 0, 0, 0, 0, 8]\n[0, 0, 0, 8, 0, 0, 0, 0, 0, 0, 0, 0, 0, 0, 0]]", fillcolor="#e58139ff"] ;
173 -> 177 ;
178 [label="gini = 0.0\nsamples = 2\nvalue = [[0, 0, 0, 0, 3, 0, 0, 0, 0, 0, 0, 0, 0, 0, 0]\n[0, 0, 0, 0, 0, 0, 0, 0, 0, 3, 0, 0, 0, 0, 0]\n[0, 0, 0, 3, 0, 0, 0, 0, 0, 0, 0, 0, 0, 0, 0]]", fillcolor="#e58139ff"] ;
172 -> 178 ;
179 [label="gini = 0.0\nsamples = 1\nvalue = [[0, 0, 0, 0, 1, 0, 0, 0, 0, 0, 0, 0, 0, 0, 0]\n[0, 0, 0, 0, 0, 0, 0, 0, 0, 0, 0, 0, 0, 0, 1]\n[0, 0, 0, 0, 0, 0, 0, 0, 0, 0, 0, 0, 1, 0, 0]]", fillcolor="#e58139ff"] ;
171 -> 179 ;
180 [label="X[6] <= 363.37\ngini = 0.041\nsamples = 9\nvalue = [[0, 0, 0, 0, 15, 0, 0, 0, 0, 0, 0, 0, 0, 0, 0]\n[0, 0, 0, 0, 0, 0, 0, 0, 0, 0, 0, 0, 0, 0, 15]\n[0, 0, 0, 14, 0, 0, 0, 0, 0, 1, 0, 0, 0, 0, 0]]", fillcolor="#e58139ea"] ;
170 -> 180 ;
181 [label="X[8] <= 102.082\ngini = 0.167\nsamples = 2\nvalue = [[0, 0, 0, 0, 2, 0, 0, 0, 0, 0, 0, 0, 0, 0, 0]\n[0, 0, 0, 0, 0, 0, 0, 0, 0, 0, 0, 0, 0, 0, 2]\n[0, 0, 0, 1, 0, 0, 0, 0, 0, 1, 0, 0, 0, 0, 0]]", fillcolor="#e58139a9"] ;
180 -> 181 ;
182 [label="gini = 0.0\nsamples = 1\nvalue = [[0, 0, 0, 0, 1, 0, 0, 0, 0, 0, 0, 0, 0, 0, 0]\n[0, 0, 0, 0, 0, 0, 0, 0, 0, 0, 0, 0, 0, 0, 1]\n[0, 0, 0, 1, 0, 0, 0, 0, 0, 0, 0, 0, 0, 0, 0]]", fillcolor="#e58139ff"] ;
181 -> 182 ;
183 [label="gini = 0.0\nsamples = 1\nvalue = [[0, 0, 0, 0, 1, 0, 0, 0, 0, 0, 0, 0, 0, 0, 0]\n[0, 0, 0, 0, 0, 0, 0, 0, 0, 0, 0, 0, 0, 0, 1]\n[0, 0, 0, 0, 0, 0, 0, 0, 0, 1, 0, 0, 0, 0, 0]]", fillcolor="#e58139ff"] ;
181 -> 183 ;
184 [label="gini = 0.0\nsamples = 7\nvalue = [[0, 0, 0, 0, 13, 0, 0, 0, 0, 0, 0, 0, 0, 0, 0]\n[0, 0, 0, 0, 0, 0, 0, 0, 0, 0, 0, 0, 0, 0, 13]\n[0, 0, 0, 13, 0, 0, 0, 0, 0, 0, 0, 0, 0, 0, 0]]", fillcolor="#e58139ff"] ;
180 -> 184 ;
185 [label="X[20] <= 36.314\ngini = 0.286\nsamples = 9\nvalue = [[0, 0, 0, 0, 14, 0, 0, 0, 0, 0, 0, 0, 0, 0, 0]\n[0, 0, 0, 1, 0, 0, 0, 0, 0, 1, 0, 0, 0, 0, 12]\n[0, 0, 0, 8, 0, 0, 0, 0, 0, 2, 1, 0, 3, 0, 0]]", fillcolor="#e581396c"] ;
169 -> 185 ;
186 [label="X[7] <= 169.388\ngini = 0.313\nsamples = 5\nvalue = [[0, 0, 0, 0, 7, 0, 0, 0, 0, 0, 0, 0, 0, 0, 0]\n[0, 0, 0, 0, 0, 0, 0, 0, 0, 1, 0, 0, 0, 0, 6]\n[0, 0, 0, 1, 0, 0, 0, 0, 0, 2, 1, 0, 3, 0, 0]]", fillcolor="#e581395e"] ;
185 -> 186 ;
187 [label="X[10] <= 161.422\ngini = 0.204\nsamples = 4\nvalue = [[0, 0, 0, 0, 6, 0, 0, 0, 0, 0, 0, 0, 0, 0, 0]\n[0, 0, 0, 0, 0, 0, 0, 0, 0, 0, 0, 0, 0, 0, 6]\n[0, 0, 0, 0, 0, 0, 0, 0, 0, 2, 1, 0, 3, 0, 0]]", fillcolor="#e5813996"] ;
186 -> 187 ;
188 [label="X[13] <= 0.002\ngini = 0.148\nsamples = 2\nvalue = [[0, 0, 0, 0, 3, 0, 0, 0, 0, 0, 0, 0, 0, 0, 0]\n[0, 0, 0, 0, 0, 0, 0, 0, 0, 0, 0, 0, 0, 0, 3]\n[0, 0, 0, 0, 0, 0, 0, 0, 0, 2, 1, 0, 0, 0, 0]]", fillcolor="#e58139b3"] ;
187 -> 188 ;
189 [label="gini = 0.0\nsamples = 1\nvalue = [[0, 0, 0, 0, 2, 0, 0, 0, 0, 0, 0, 0, 0, 0, 0]\n[0, 0, 0, 0, 0, 0, 0, 0, 0, 0, 0, 0, 0, 0, 2]\n[0, 0, 0, 0, 0, 0, 0, 0, 0, 2, 0, 0, 0, 0, 0]]", fillcolor="#e58139ff"] ;
188 -> 189 ;
190 [label="gini = 0.0\nsamples = 1\nvalue = [[0, 0, 0, 0, 1, 0, 0, 0, 0, 0, 0, 0, 0, 0, 0]\n[0, 0, 0, 0, 0, 0, 0, 0, 0, 0, 0, 0, 0, 0, 1]\n[0, 0, 0, 0, 0, 0, 0, 0, 0, 0, 1, 0, 0, 0, 0]]", fillcolor="#e58139ff"] ;
188 -> 190 ;
191 [label="gini = 0.0\nsamples = 2\nvalue = [[0, 0, 0, 0, 3, 0, 0, 0, 0, 0, 0, 0, 0, 0, 0]\n[0, 0, 0, 0, 0, 0, 0, 0, 0, 0, 0, 0, 0, 0, 3]\n[0, 0, 0, 0, 0, 0, 0, 0, 0, 0, 0, 0, 3, 0, 0]]", fillcolor="#e58139ff"] ;
187 -> 191 ;
192 [label="gini = 0.0\nsamples = 1\nvalue = [[0, 0, 0, 0, 1, 0, 0, 0, 0, 0, 0, 0, 0, 0, 0]\n[0, 0, 0, 0, 0, 0, 0, 0, 0, 1, 0, 0, 0, 0, 0]\n[0, 0, 0, 1, 0, 0, 0, 0, 0, 0, 0, 0, 0, 0, 0]]", fillcolor="#e58139ff"] ;
186 -> 192 ;
193 [label="X[8] <= 115.404\ngini = 0.082\nsamples = 4\nvalue = [[0, 0, 0, 0, 7, 0, 0, 0, 0, 0, 0, 0, 0, 0, 0]\n[0, 0, 0, 1, 0, 0, 0, 0, 0, 0, 0, 0, 0, 0, 6]\n[0, 0, 0, 7, 0, 0, 0, 0, 0, 0, 0, 0, 0, 0, 0]]", fillcolor="#e58139d5"] ;
185 -> 193 ;
194 [label="gini = 0.0\nsamples = 1\nvalue = [[0, 0, 0, 0, 1, 0, 0, 0, 0, 0, 0, 0, 0, 0, 0]\n[0, 0, 0, 1, 0, 0, 0, 0, 0, 0, 0, 0, 0, 0, 0]\n[0, 0, 0, 1, 0, 0, 0, 0, 0, 0, 0, 0, 0, 0, 0]]", fillcolor="#e58139ff"] ;
193 -> 194 ;
195 [label="gini = 0.0\nsamples = 3\nvalue = [[0, 0, 0, 0, 6, 0, 0, 0, 0, 0, 0, 0, 0, 0, 0]\n[0, 0, 0, 0, 0, 0, 0, 0, 0, 0, 0, 0, 0, 0, 6]\n[0, 0, 0, 6, 0, 0, 0, 0, 0, 0, 0, 0, 0, 0, 0]]", fillcolor="#e58139ff"] ;
193 -> 195 ;
196 [label="gini = 0.0\nsamples = 1\nvalue = [[0, 0, 0, 0, 1, 0, 0, 0, 0, 0, 0, 0, 0, 0, 0]\n[0, 0, 0, 0, 0, 0, 0, 0, 0, 0, 1, 0, 0, 0, 0]\n[0, 0, 0, 0, 0, 0, 0, 0, 0, 1, 0, 0, 0, 0, 0]]", fillcolor="#e58139ff"] ;
168 -> 196 ;
197 [label="gini = 0.0\nsamples = 1\nvalue = [[0, 0, 0, 0, 3, 0, 0, 0, 0, 0, 0, 0, 0, 0, 0]\n[0, 0, 0, 3, 0, 0, 0, 0, 0, 0, 0, 0, 0, 0, 0]\n[0, 0, 0, 3, 0, 0, 0, 0, 0, 0, 0, 0, 0, 0, 0]]", fillcolor="#e58139ff"] ;
167 -> 197 ;
198 [label="X[0] <= 8.5\ngini = 0.093\nsamples = 2\nvalue = [[0, 0, 0, 0, 6, 0, 0, 0, 0, 0, 0, 0, 0, 0, 0]\n[0, 0, 0, 0, 0, 0, 0, 0, 0, 0, 0, 0, 0, 0, 6]\n[0, 0, 0, 0, 0, 0, 0, 0, 0, 5, 0, 0, 0, 0, 1]]", fillcolor="#e58139cf"] ;
152 -> 198 ;
199 [label="gini = 0.0\nsamples = 1\nvalue = [[0, 0, 0, 0, 1, 0, 0, 0, 0, 0, 0, 0, 0, 0, 0]\n[0, 0, 0, 0, 0, 0, 0, 0, 0, 0, 0, 0, 0, 0, 1]\n[0, 0, 0, 0, 0, 0, 0, 0, 0, 0, 0, 0, 0, 0, 1]]", fillcolor="#e58139ff"] ;
198 -> 199 ;
200 [label="gini = 0.0\nsamples = 1\nvalue = [[0, 0, 0, 0, 5, 0, 0, 0, 0, 0, 0, 0, 0, 0, 0]\n[0, 0, 0, 0, 0, 0, 0, 0, 0, 0, 0, 0, 0, 0, 5]\n[0, 0, 0, 0, 0, 0, 0, 0, 0, 5, 0, 0, 0, 0, 0]]", fillcolor="#e58139ff"] ;
198 -> 200 ;
201 [label="X[10] <= 187.136\ngini = 0.496\nsamples = 12\nvalue = [[0, 0, 8, 0, 14, 0, 0, 0, 0, 0, 0, 0, 0, 0, 0]\n[0, 0, 0, 4, 0, 0, 0, 0, 0, 0, 0, 2, 2, 0, 14]\n[0, 1, 0, 15, 0, 0, 0, 0, 0, 1, 0, 0, 5, 0, 0]]", fillcolor="#e5813900"] ;
75 -> 201 ;
202 [label="X[11] <= 51.246\ngini = 0.372\nsamples = 9\nvalue = [[0, 0, 8, 0, 8, 0, 0, 0, 0, 0, 0, 0, 0, 0, 0]\n[0, 0, 0, 0, 0, 0, 0, 0, 0, 0, 0, 0, 2, 0, 14]\n[0, 0, 0, 12, 0, 0, 0, 0, 0, 1, 0, 0, 3, 0, 0]]", fillcolor="#e581393f"] ;
201 -> 202 ;
203 [label="X[20] <= 0.539\ngini = 0.458\nsamples = 3\nvalue = [[0, 0, 2, 0, 2, 0, 0, 0, 0, 0, 0, 0, 0, 0, 0]\n[0, 0, 0, 0, 0, 0, 0, 0, 0, 0, 0, 0, 2, 0, 2]\n[0, 0, 0, 0, 0, 0, 0, 0, 0, 1, 0, 0, 3, 0, 0]]", fillcolor="#e5813913"] ;
202 -> 203 ;
204 [label="X[19] <= 32.081\ngini = 0.167\nsamples = 2\nvalue = [[0, 0, 0, 0, 2, 0, 0, 0, 0, 0, 0, 0, 0, 0, 0]\n[0, 0, 0, 0, 0, 0, 0, 0, 0, 0, 0, 0, 0, 0, 2]\n[0, 0, 0, 0, 0, 0, 0, 0, 0, 1, 0, 0, 1, 0, 0]]", fillcolor="#e58139a9"] ;
203 -> 204 ;
205 [label="gini = 0.0\nsamples = 1\nvalue = [[0, 0, 0, 0, 1, 0, 0, 0, 0, 0, 0, 0, 0, 0, 0]\n[0, 0, 0, 0, 0, 0, 0, 0, 0, 0, 0, 0, 0, 0, 1]\n[0, 0, 0, 0, 0, 0, 0, 0, 0, 0, 0, 0, 1, 0, 0]]", fillcolor="#e58139ff"] ;
204 -> 205 ;
206 [label="gini = 0.0\nsamples = 1\nvalue = [[0, 0, 0, 0, 1, 0, 0, 0, 0, 0, 0, 0, 0, 0, 0]\n[0, 0, 0, 0, 0, 0, 0, 0, 0, 0, 0, 0, 0, 0, 1]\n[0, 0, 0, 0, 0, 0, 0, 0, 0, 1, 0, 0, 0, 0, 0]]", fillcolor="#e58139ff"] ;
204 -> 206 ;
207 [label="gini = 0.0\nsamples = 1\nvalue = [[0, 0, 2, 0, 0, 0, 0, 0, 0, 0, 0, 0, 0, 0, 0]\n[0, 0, 0, 0, 0, 0, 0, 0, 0, 0, 0, 0, 2, 0, 0]\n[0, 0, 0, 0, 0, 0, 0, 0, 0, 0, 0, 0, 2, 0, 0]]", fillcolor="#e58139ff"] ;
203 -> 207 ;
208 [label="X[11] <= 55.918\ngini = 0.167\nsamples = 6\nvalue = [[0, 0, 6, 0, 6, 0, 0, 0, 0, 0, 0, 0, 0, 0, 0]\n[0, 0, 0, 0, 0, 0, 0, 0, 0, 0, 0, 0, 0, 0, 12]\n[0, 0, 0, 12, 0, 0, 0, 0, 0, 0, 0, 0, 0, 0, 0]]", fillcolor="#e58139a9"] ;
202 -> 208 ;
209 [label="gini = 0.0\nsamples = 1\nvalue = [[0, 0, 0, 0, 3, 0, 0, 0, 0, 0, 0, 0, 0, 0, 0]\n[0, 0, 0, 0, 0, 0, 0, 0, 0, 0, 0, 0, 0, 0, 3]\n[0, 0, 0, 3, 0, 0, 0, 0, 0, 0, 0, 0, 0, 0, 0]]", fillcolor="#e58139ff"] ;
208 -> 209 ;
210 [label="X[5] <= 0.785\ngini = 0.148\nsamples = 5\nvalue = [[0, 0, 6, 0, 3, 0, 0, 0, 0, 0, 0, 0, 0, 0, 0]\n[0, 0, 0, 0, 0, 0, 0, 0, 0, 0, 0, 0, 0, 0, 9]\n[0, 0, 0, 9, 0, 0, 0, 0, 0, 0, 0, 0, 0, 0, 0]]", fillcolor="#e58139b3"] ;
208 -> 210 ;
211 [label="gini = 0.0\nsamples = 2\nvalue = [[0, 0, 0, 0, 3, 0, 0, 0, 0, 0, 0, 0, 0, 0, 0]\n[0, 0, 0, 0, 0, 0, 0, 0, 0, 0, 0, 0, 0, 0, 3]\n[0, 0, 0, 3, 0, 0, 0, 0, 0, 0, 0, 0, 0, 0, 0]]", fillcolor="#e58139ff"] ;
210 -> 211 ;
212 [label="gini = 0.0\nsamples = 3\nvalue = [[0, 0, 6, 0, 0, 0, 0, 0, 0, 0, 0, 0, 0, 0, 0]\n[0, 0, 0, 0, 0, 0, 0, 0, 0, 0, 0, 0, 0, 0, 6]\n[0, 0, 0, 6, 0, 0, 0, 0, 0, 0, 0, 0, 0, 0, 0]]", fillcolor="#e58139ff"] ;
210 -> 212 ;
213 [label="X[18] <= 134.642\ngini = 0.352\nsamples = 3\nvalue = [[0, 0, 0, 0, 6, 0, 0, 0, 0, 0, 0, 0, 0, 0, 0]\n[0, 0, 0, 4, 0, 0, 0, 0, 0, 0, 0, 2, 0, 0, 0]\n[0, 1, 0, 3, 0, 0, 0, 0, 0, 0, 0, 0, 2, 0, 0]]", fillcolor="#e581394a"] ;
201 -> 213 ;
214 [label="gini = 0.0\nsamples = 1\nvalue = [[0, 0, 0, 0, 2, 0, 0, 0, 0, 0, 0, 0, 0, 0, 0]\n[0, 0, 0, 0, 0, 0, 0, 0, 0, 0, 0, 2, 0, 0, 0]\n[0, 0, 0, 0, 0, 0, 0, 0, 0, 0, 0, 0, 2, 0, 0]]", fillcolor="#e58139ff"] ;
213 -> 214 ;
215 [label="X[5] <= 0.297\ngini = 0.125\nsamples = 2\nvalue = [[0, 0, 0, 0, 4, 0, 0, 0, 0, 0, 0, 0, 0, 0, 0]\n[0, 0, 0, 4, 0, 0, 0, 0, 0, 0, 0, 0, 0, 0, 0]\n[0, 1, 0, 3, 0, 0, 0, 0, 0, 0, 0, 0, 0, 0, 0]]", fillcolor="#e58139bf"] ;
213 -> 215 ;
216 [label="gini = 0.0\nsamples = 1\nvalue = [[0, 0, 0, 0, 3, 0, 0, 0, 0, 0, 0, 0, 0, 0, 0]\n[0, 0, 0, 3, 0, 0, 0, 0, 0, 0, 0, 0, 0, 0, 0]\n[0, 0, 0, 3, 0, 0, 0, 0, 0, 0, 0, 0, 0, 0, 0]]", fillcolor="#e58139ff"] ;
215 -> 216 ;
217 [label="gini = 0.0\nsamples = 1\nvalue = [[0, 0, 0, 0, 1, 0, 0, 0, 0, 0, 0, 0, 0, 0, 0]\n[0, 0, 0, 1, 0, 0, 0, 0, 0, 0, 0, 0, 0, 0, 0]\n[0, 1, 0, 0, 0, 0, 0, 0, 0, 0, 0, 0, 0, 0, 0]]", fillcolor="#e58139ff"] ;
215 -> 217 ;
218 [label="X[11] <= 133.75\ngini = 0.284\nsamples = 151\nvalue = [[0, 0, 21, 0, 192, 0, 0, 0, 0, 0, 0, 0, 0, 0, 0]\n[0, 0, 0, 15, 0, 2, 0, 0, 2, 18, 0, 0, 0, 1, 175]\n[0, 0, 0, 167, 1, 0, 0, 5, 0, 7, 0, 0, 2, 0, 31]]", fillcolor="#e581396d"] ;
4 -> 218 ;
219 [label="X[7] <= 212.578\ngini = 0.255\nsamples = 124\nvalue = [[0, 0, 14, 0, 161, 0, 0, 0, 0, 0, 0, 0, 0, 0, 0]\n[0, 0, 0, 13, 0, 2, 0, 0, 2, 16, 0, 0, 0, 1, 141]\n[0, 0, 0, 147, 1, 0, 0, 3, 0, 3, 0, 0, 2, 0, 19]]", fillcolor="#e581397c"] ;
218 -> 219 ;
220 [label="X[0] <= 14.5\ngini = 0.241\nsamples = 118\nvalue = [[0, 0, 8, 0, 158, 0, 0, 0, 0, 0, 0, 0, 0, 0, 0]\n[0, 0, 0, 13, 0, 2, 0, 0, 2, 14, 0, 0, 0, 1, 134]\n[0, 0, 0, 138, 1, 0, 0, 3, 0, 3, 0, 0, 2, 0, 19]]", fillcolor="#e5813983"] ;
219 -> 220 ;
221 [label="X[9] <= 1.997\ngini = 0.203\nsamples = 101\nvalue = [[0, 0, 6, 0, 136, 0, 0, 0, 0, 0, 0, 0, 0, 0, 0]\n[0, 0, 0, 11, 0, 2, 0, 0, 2, 6, 0, 0, 0, 1, 120]\n[0, 0, 0, 122, 0, 0, 0, 0, 0, 3, 0, 0, 2, 0, 15]]", fillcolor="#e5813997"] ;
220 -> 221 ;
222 [label="X[7] <= 90.944\ngini = 0.376\nsamples = 13\nvalue = [[0, 0, 1, 0, 14, 0, 0, 0, 0, 0, 0, 0, 0, 0, 0]\n[0, 0, 0, 4, 0, 1, 0, 0, 0, 0, 0, 0, 0, 0, 10]\n[0, 0, 0, 9, 0, 0, 0, 0, 0, 0, 0, 0, 1, 0, 5]]", fillcolor="#e581393d"] ;
221 -> 222 ;
223 [label="X[13] <= 0.035\ngini = 0.255\nsamples = 8\nvalue = [[0, 0, 0, 0, 9, 0, 0, 0, 0, 0, 0, 0, 0, 0, 0]\n[0, 0, 0, 0, 0, 1, 0, 0, 0, 0, 0, 0, 0, 0, 8]\n[0, 0, 0, 5, 0, 0, 0, 0, 0, 0, 0, 0, 1, 0, 3]]", fillcolor="#e581397c"] ;
222 -> 223 ;
224 [label="X[18] <= 90.406\ngini = 0.125\nsamples = 3\nvalue = [[0, 0, 0, 0, 4, 0, 0, 0, 0, 0, 0, 0, 0, 0, 0]\n[0, 0, 0, 0, 0, 0, 0, 0, 0, 0, 0, 0, 0, 0, 4]\n[0, 0, 0, 1, 0, 0, 0, 0, 0, 0, 0, 0, 0, 0, 3]]", fillcolor="#e58139bf"] ;
223 -> 224 ;
225 [label="gini = 0.0\nsamples = 1\nvalue = [[0, 0, 0, 0, 1, 0, 0, 0, 0, 0, 0, 0, 0, 0, 0]\n[0, 0, 0, 0, 0, 0, 0, 0, 0, 0, 0, 0, 0, 0, 1]\n[0, 0, 0, 1, 0, 0, 0, 0, 0, 0, 0, 0, 0, 0, 0]]", fillcolor="#e58139ff"] ;
224 -> 225 ;
226 [label="gini = 0.0\nsamples = 2\nvalue = [[0, 0, 0, 0, 3, 0, 0, 0, 0, 0, 0, 0, 0, 0, 0]\n[0, 0, 0, 0, 0, 0, 0, 0, 0, 0, 0, 0, 0, 0, 3]\n[0, 0, 0, 0, 0, 0, 0, 0, 0, 0, 0, 0, 0, 0, 3]]", fillcolor="#e58139ff"] ;
224 -> 226 ;
227 [label="X[20] <= 69.371\ngini = 0.213\nsamples = 5\nvalue = [[0, 0, 0, 0, 5, 0, 0, 0, 0, 0, 0, 0, 0, 0, 0]\n[0, 0, 0, 0, 0, 1, 0, 0, 0, 0, 0, 0, 0, 0, 4]\n[0, 0, 0, 4, 0, 0, 0, 0, 0, 0, 0, 0, 1, 0, 0]]", fillcolor="#e5813991"] ;
223 -> 227 ;
228 [label="X[12] <= 29.71\ngini = 0.125\nsamples = 4\nvalue = [[0, 0, 0, 0, 4, 0, 0, 0, 0, 0, 0, 0, 0, 0, 0]\n[0, 0, 0, 0, 0, 1, 0, 0, 0, 0, 0, 0, 0, 0, 3]\n[0, 0, 0, 4, 0, 0, 0, 0, 0, 0, 0, 0, 0, 0, 0]]", fillcolor="#e58139bf"] ;
227 -> 228 ;
229 [label="X[9] <= 0.935\ngini = 0.167\nsamples = 2\nvalue = [[0, 0, 0, 0, 2, 0, 0, 0, 0, 0, 0, 0, 0, 0, 0]\n[0, 0, 0, 0, 0, 1, 0, 0, 0, 0, 0, 0, 0, 0, 1]\n[0, 0, 0, 2, 0, 0, 0, 0, 0, 0, 0, 0, 0, 0, 0]]", fillcolor="#e58139a9"] ;
228 -> 229 ;
230 [label="gini = 0.0\nsamples = 1\nvalue = [[0, 0, 0, 0, 1, 0, 0, 0, 0, 0, 0, 0, 0, 0, 0]\n[0, 0, 0, 0, 0, 0, 0, 0, 0, 0, 0, 0, 0, 0, 1]\n[0, 0, 0, 1, 0, 0, 0, 0, 0, 0, 0, 0, 0, 0, 0]]", fillcolor="#e58139ff"] ;
229 -> 230 ;
231 [label="gini = 0.0\nsamples = 1\nvalue = [[0, 0, 0, 0, 1, 0, 0, 0, 0, 0, 0, 0, 0, 0, 0]\n[0, 0, 0, 0, 0, 1, 0, 0, 0, 0, 0, 0, 0, 0, 0]\n[0, 0, 0, 1, 0, 0, 0, 0, 0, 0, 0, 0, 0, 0, 0]]", fillcolor="#e58139ff"] ;
229 -> 231 ;
232 [label="gini = 0.0\nsamples = 2\nvalue = [[0, 0, 0, 0, 2, 0, 0, 0, 0, 0, 0, 0, 0, 0, 0]\n[0, 0, 0, 0, 0, 0, 0, 0, 0, 0, 0, 0, 0, 0, 2]\n[0, 0, 0, 2, 0, 0, 0, 0, 0, 0, 0, 0, 0, 0, 0]]", fillcolor="#e58139ff"] ;
228 -> 232 ;
233 [label="gini = 0.0\nsamples = 1\nvalue = [[0, 0, 0, 0, 1, 0, 0, 0, 0, 0, 0, 0, 0, 0, 0]\n[0, 0, 0, 0, 0, 0, 0, 0, 0, 0, 0, 0, 0, 0, 1]\n[0, 0, 0, 0, 0, 0, 0, 0, 0, 0, 0, 0, 1, 0, 0]]", fillcolor="#e58139ff"] ;
227 -> 233 ;
234 [label="X[12] <= 19.335\ngini = 0.389\nsamples = 5\nvalue = [[0, 0, 1, 0, 5, 0, 0, 0, 0, 0, 0, 0, 0, 0, 0]\n[0, 0, 0, 4, 0, 0, 0, 0, 0, 0, 0, 0, 0, 0, 2]\n[0, 0, 0, 4, 0, 0, 0, 0, 0, 0, 0, 0, 0, 0, 2]]", fillcolor="#e5813937"] ;
222 -> 234 ;
235 [label="X[9] <= 1.832\ngini = 0.125\nsamples = 3\nvalue = [[0, 0, 0, 0, 4, 0, 0, 0, 0, 0, 0, 0, 0, 0, 0]\n[0, 0, 0, 4, 0, 0, 0, 0, 0, 0, 0, 0, 0, 0, 0]\n[0, 0, 0, 3, 0, 0, 0, 0, 0, 0, 0, 0, 0, 0, 1]]", fillcolor="#e58139bf"] ;
234 -> 235 ;
236 [label="gini = 0.0\nsamples = 1\nvalue = [[0, 0, 0, 0, 1, 0, 0, 0, 0, 0, 0, 0, 0, 0, 0]\n[0, 0, 0, 1, 0, 0, 0, 0, 0, 0, 0, 0, 0, 0, 0]\n[0, 0, 0, 0, 0, 0, 0, 0, 0, 0, 0, 0, 0, 0, 1]]", fillcolor="#e58139ff"] ;
235 -> 236 ;
237 [label="gini = 0.0\nsamples = 2\nvalue = [[0, 0, 0, 0, 3, 0, 0, 0, 0, 0, 0, 0, 0, 0, 0]\n[0, 0, 0, 3, 0, 0, 0, 0, 0, 0, 0, 0, 0, 0, 0]\n[0, 0, 0, 3, 0, 0, 0, 0, 0, 0, 0, 0, 0, 0, 0]]", fillcolor="#e58139ff"] ;
235 -> 237 ;
238 [label="X[20] <= 65.0\ngini = 0.333\nsamples = 2\nvalue = [[0, 0, 1, 0, 1, 0, 0, 0, 0, 0, 0, 0, 0, 0, 0]\n[0, 0, 0, 0, 0, 0, 0, 0, 0, 0, 0, 0, 0, 0, 2]\n[0, 0, 0, 1, 0, 0, 0, 0, 0, 0, 0, 0, 0, 0, 1]]", fillcolor="#e5813954"] ;
234 -> 238 ;
239 [label="gini = 0.0\nsamples = 1\nvalue = [[0, 0, 1, 0, 0, 0, 0, 0, 0, 0, 0, 0, 0, 0, 0]\n[0, 0, 0, 0, 0, 0, 0, 0, 0, 0, 0, 0, 0, 0, 1]\n[0, 0, 0, 0, 0, 0, 0, 0, 0, 0, 0, 0, 0, 0, 1]]", fillcolor="#e58139ff"] ;
238 -> 239 ;
240 [label="gini = 0.0\nsamples = 1\nvalue = [[0, 0, 0, 0, 1, 0, 0, 0, 0, 0, 0, 0, 0, 0, 0]\n[0, 0, 0, 0, 0, 0, 0, 0, 0, 0, 0, 0, 0, 0, 1]\n[0, 0, 0, 1, 0, 0, 0, 0, 0, 0, 0, 0, 0, 0, 0]]", fillcolor="#e58139ff"] ;
238 -> 240 ;
241 [label="X[12] <= 132.308\ngini = 0.174\nsamples = 88\nvalue = [[0, 0, 5, 0, 122, 0, 0, 0, 0, 0, 0, 0, 0, 0, 0]\n[0, 0, 0, 7, 0, 1, 0, 0, 2, 6, 0, 0, 0, 1, 110]\n[0, 0, 0, 113, 0, 0, 0, 0, 0, 3, 0, 0, 1, 0, 10]]", fillcolor="#e58139a6"] ;
221 -> 241 ;
242 [label="X[13] <= 89.895\ngini = 0.165\nsamples = 84\nvalue = [[0, 0, 5, 0, 114, 0, 0, 0, 0, 0, 0, 0, 0, 0, 0]\n[0, 0, 0, 7, 0, 1, 0, 0, 2, 3, 0, 0, 0, 0, 106]\n[0, 0, 0, 105, 0, 0, 0, 0, 0, 3, 0, 0, 1, 0, 10]]", fillcolor="#e58139aa"] ;
241 -> 242 ;
243 [label="X[6] <= 130.268\ngini = 0.157\nsamples = 81\nvalue = [[0, 0, 5, 0, 109, 0, 0, 0, 0, 0, 0, 0, 0, 0, 0]\n[0, 0, 0, 7, 0, 1, 0, 0, 0, 3, 0, 0, 0, 0, 103]\n[0, 0, 0, 101, 0, 0, 0, 0, 0, 3, 0, 0, 1, 0, 9]]", fillcolor="#e58139ae"] ;
242 -> 243 ;
244 [label="gini = 0.0\nsamples = 1\nvalue = [[0, 0, 0, 0, 1, 0, 0, 0, 0, 0, 0, 0, 0, 0, 0]\n[0, 0, 0, 0, 0, 0, 0, 0, 0, 1, 0, 0, 0, 0, 0]\n[0, 0, 0, 1, 0, 0, 0, 0, 0, 0, 0, 0, 0, 0, 0]]", fillcolor="#e58139ff"] ;
243 -> 244 ;
245 [label="X[7] <= 87.072\ngini = 0.153\nsamples = 80\nvalue = [[0, 0, 5, 0, 108, 0, 0, 0, 0, 0, 0, 0, 0, 0, 0]\n[0, 0, 0, 7, 0, 1, 0, 0, 0, 2, 0, 0, 0, 0, 103]\n[0, 0, 0, 100, 0, 0, 0, 0, 0, 3, 0, 0, 1, 0, 9]]", fillcolor="#e58139b0"] ;
243 -> 245 ;
246 [label="X[12] <= 30.288\ngini = 0.375\nsamples = 3\nvalue = [[0, 0, 1, 0, 3, 0, 0, 0, 0, 0, 0, 0, 0, 0, 0]\n[0, 0, 0, 1, 0, 0, 0, 0, 0, 0, 0, 0, 0, 0, 3]\n[0, 0, 0, 3, 0, 0, 0, 0, 0, 0, 0, 0, 1, 0, 0]]", fillcolor="#e581393e"] ;
245 -> 246 ;
247 [label="gini = 0.0\nsamples = 2\nvalue = [[0, 0, 0, 0, 3, 0, 0, 0, 0, 0, 0, 0, 0, 0, 0]\n[0, 0, 0, 0, 0, 0, 0, 0, 0, 0, 0, 0, 0, 0, 3]\n[0, 0, 0, 3, 0, 0, 0, 0, 0, 0, 0, 0, 0, 0, 0]]", fillcolor="#e58139ff"] ;
246 -> 247 ;
248 [label="gini = 0.0\nsamples = 1\nvalue = [[0, 0, 1, 0, 0, 0, 0, 0, 0, 0, 0, 0, 0, 0, 0]\n[0, 0, 0, 1, 0, 0, 0, 0, 0, 0, 0, 0, 0, 0, 0]\n[0, 0, 0, 0, 0, 0, 0, 0, 0, 0, 0, 0, 1, 0, 0]]", fillcolor="#e58139ff"] ;
246 -> 248 ;
249 [label="X[5] <= 16.967\ngini = 0.142\nsamples = 77\nvalue = [[0, 0, 4, 0, 105, 0, 0, 0, 0, 0, 0, 0, 0, 0, 0]\n[0, 0, 0, 6, 0, 1, 0, 0, 0, 2, 0, 0, 0, 0, 100]\n[0, 0, 0, 97, 0, 0, 0, 0, 0, 3, 0, 0, 0, 0, 9]]", fillcolor="#e58139b6"] ;
245 -> 249 ;
250 [label="X[10] <= 30.542\ngini = 0.134\nsamples = 73\nvalue = [[0, 0, 4, 0, 98, 0, 0, 0, 0, 0, 0, 0, 0, 0, 0]\n[0, 0, 0, 3, 0, 1, 0, 0, 0, 2, 0, 0, 0, 0, 96]\n[0, 0, 0, 90, 0, 0, 0, 0, 0, 3, 0, 0, 0, 0, 9]]", fillcolor="#e58139ba"] ;
249 -> 250 ;
251 [label="gini = 0.0\nsamples = 1\nvalue = [[0, 0, 1, 0, 0, 0, 0, 0, 0, 0, 0, 0, 0, 0, 0]\n[0, 0, 0, 0, 0, 0, 0, 0, 0, 0, 0, 0, 0, 0, 1]\n[0, 0, 0, 1, 0, 0, 0, 0, 0, 0, 0, 0, 0, 0, 0]]", fillcolor="#e58139ff"] ;
250 -> 251 ;
252 [label="X[6] <= 358.758\ngini = 0.129\nsamples = 72\nvalue = [[0, 0, 3, 0, 98, 0, 0, 0, 0, 0, 0, 0, 0, 0, 0]\n[0, 0, 0, 3, 0, 1, 0, 0, 0, 2, 0, 0, 0, 0, 95]\n[0, 0, 0, 89, 0, 0, 0, 0, 0, 3, 0, 0, 0, 0, 9]]", fillcolor="#e58139bd"] ;
250 -> 252 ;
253 [label="X[9] <= 78.569\ngini = 0.102\nsamples = 42\nvalue = [[0, 0, 2, 0, 60, 0, 0, 0, 0, 0, 0, 0, 0, 0, 0]\n[0, 0, 0, 0, 0, 1, 0, 0, 0, 1, 0, 0, 0, 0, 60]\n[0, 0, 0, 56, 0, 0, 0, 0, 0, 3, 0, 0, 0, 0, 3]]", fillcolor="#e58139cb"] ;
252 -> 253 ;
254 [label="X[9] <= 3.081\ngini = 0.079\nsamples = 37\nvalue = [[0, 0, 2, 0, 55, 0, 0, 0, 0, 0, 0, 0, 0, 0, 0]\n[0, 0, 0, 0, 0, 1, 0, 0, 0, 1, 0, 0, 0, 0, 55]\n[0, 0, 0, 54, 0, 0, 0, 0, 0, 2, 0, 0, 0, 0, 1]]", fillcolor="#e58139d6"] ;
253 -> 254 ;
255 [label="X[11] <= 37.698\ngini = 0.062\nsamples = 18\nvalue = [[0, 0, 0, 0, 31, 0, 0, 0, 0, 0, 0, 0, 0, 0, 0]\n[0, 0, 0, 0, 0, 1, 0, 0, 0, 1, 0, 0, 0, 0, 29]\n[0, 0, 0, 30, 0, 0, 0, 0, 0, 0, 0, 0, 0, 0, 1]]", fillcolor="#e58139df"] ;
254 -> 255 ;
256 [label="gini = 0.0\nsamples = 1\nvalue = [[0, 0, 0, 0, 1, 0, 0, 0, 0, 0, 0, 0, 0, 0, 0]\n[0, 0, 0, 0, 0, 0, 0, 0, 0, 1, 0, 0, 0, 0, 0]\n[0, 0, 0, 1, 0, 0, 0, 0, 0, 0, 0, 0, 0, 0, 0]]", fillcolor="#e58139ff"] ;
255 -> 256 ;
257 [label="X[20] <= 3.988\ngini = 0.043\nsamples = 17\nvalue = [[0, 0, 0, 0, 30, 0, 0, 0, 0, 0, 0, 0, 0, 0, 0]\n[0, 0, 0, 0, 0, 1, 0, 0, 0, 0, 0, 0, 0, 0, 29]\n[0, 0, 0, 29, 0, 0, 0, 0, 0, 0, 0, 0, 0, 0, 1]]", fillcolor="#e58139e9"] ;
255 -> 257 ;
258 [label="X[15] <= 86.219\ngini = 0.029\nsamples = 12\nvalue = [[0, 0, 0, 0, 22, 0, 0, 0, 0, 0, 0, 0, 0, 0, 0]\n[0, 0, 0, 0, 0, 0, 0, 0, 0, 0, 0, 0, 0, 0, 22]\n[0, 0, 0, 21, 0, 0, 0, 0, 0, 0, 0, 0, 0, 0, 1]]", fillcolor="#e58139f0"] ;
257 -> 258 ;
259 [label="gini = 0.0\nsamples = 8\nvalue = [[0, 0, 0, 0, 17, 0, 0, 0, 0, 0, 0, 0, 0, 0, 0]\n[0, 0, 0, 0, 0, 0, 0, 0, 0, 0, 0, 0, 0, 0, 17]\n[0, 0, 0, 17, 0, 0, 0, 0, 0, 0, 0, 0, 0, 0, 0]]", fillcolor="#e58139ff"] ;
258 -> 259 ;
260 [label="X[15] <= 86.281\ngini = 0.107\nsamples = 4\nvalue = [[0, 0, 0, 0, 5, 0, 0, 0, 0, 0, 0, 0, 0, 0, 0]\n[0, 0, 0, 0, 0, 0, 0, 0, 0, 0, 0, 0, 0, 0, 5]\n[0, 0, 0, 4, 0, 0, 0, 0, 0, 0, 0, 0, 0, 0, 1]]", fillcolor="#e58139c8"] ;
258 -> 260 ;
261 [label="gini = 0.0\nsamples = 1\nvalue = [[0, 0, 0, 0, 1, 0, 0, 0, 0, 0, 0, 0, 0, 0, 0]\n[0, 0, 0, 0, 0, 0, 0, 0, 0, 0, 0, 0, 0, 0, 1]\n[0, 0, 0, 0, 0, 0, 0, 0, 0, 0, 0, 0, 0, 0, 1]]", fillcolor="#e58139ff"] ;
260 -> 261 ;
262 [label="gini = 0.0\nsamples = 3\nvalue = [[0, 0, 0, 0, 4, 0, 0, 0, 0, 0, 0, 0, 0, 0, 0]\n[0, 0, 0, 0, 0, 0, 0, 0, 0, 0, 0, 0, 0, 0, 4]\n[0, 0, 0, 4, 0, 0, 0, 0, 0, 0, 0, 0, 0, 0, 0]]", fillcolor="#e58139ff"] ;
260 -> 262 ;
263 [label="X[9] <= 2.577\ngini = 0.073\nsamples = 5\nvalue = [[0, 0, 0, 0, 8, 0, 0, 0, 0, 0, 0, 0, 0, 0, 0]\n[0, 0, 0, 0, 0, 1, 0, 0, 0, 0, 0, 0, 0, 0, 7]\n[0, 0, 0, 8, 0, 0, 0, 0, 0, 0, 0, 0, 0, 0, 0]]", fillcolor="#e58139da"] ;
257 -> 263 ;
264 [label="gini = 0.0\nsamples = 2\nvalue = [[0, 0, 0, 0, 4, 0, 0, 0, 0, 0, 0, 0, 0, 0, 0]\n[0, 0, 0, 0, 0, 0, 0, 0, 0, 0, 0, 0, 0, 0, 4]\n[0, 0, 0, 4, 0, 0, 0, 0, 0, 0, 0, 0, 0, 0, 0]]", fillcolor="#e58139ff"] ;
263 -> 264 ;
265 [label="X[7] <= 112.449\ngini = 0.125\nsamples = 3\nvalue = [[0, 0, 0, 0, 4, 0, 0, 0, 0, 0, 0, 0, 0, 0, 0]\n[0, 0, 0, 0, 0, 1, 0, 0, 0, 0, 0, 0, 0, 0, 3]\n[0, 0, 0, 4, 0, 0, 0, 0, 0, 0, 0, 0, 0, 0, 0]]", fillcolor="#e58139bf"] ;
263 -> 265 ;
266 [label="gini = 0.0\nsamples = 1\nvalue = [[0, 0, 0, 0, 1, 0, 0, 0, 0, 0, 0, 0, 0, 0, 0]\n[0, 0, 0, 0, 0, 1, 0, 0, 0, 0, 0, 0, 0, 0, 0]\n[0, 0, 0, 1, 0, 0, 0, 0, 0, 0, 0, 0, 0, 0, 0]]", fillcolor="#e58139ff"] ;
265 -> 266 ;
267 [label="gini = 0.0\nsamples = 2\nvalue = [[0, 0, 0, 0, 3, 0, 0, 0, 0, 0, 0, 0, 0, 0, 0]\n[0, 0, 0, 0, 0, 0, 0, 0, 0, 0, 0, 0, 0, 0, 3]\n[0, 0, 0, 3, 0, 0, 0, 0, 0, 0, 0, 0, 0, 0, 0]]", fillcolor="#e58139ff"] ;
265 -> 267 ;
268 [label="X[0] <= 13.0\ngini = 0.095\nsamples = 19\nvalue = [[0, 0, 2, 0, 24, 0, 0, 0, 0, 0, 0, 0, 0, 0, 0]\n[0, 0, 0, 0, 0, 0, 0, 0, 0, 0, 0, 0, 0, 0, 26]\n[0, 0, 0, 24, 0, 0, 0, 0, 0, 2, 0, 0, 0, 0, 0]]", fillcolor="#e58139ce"] ;
254 -> 268 ;
269 [label="X[5] <= 0.039\ngini = 0.075\nsamples = 18\nvalue = [[0, 0, 2, 0, 23, 0, 0, 0, 0, 0, 0, 0, 0, 0, 0]\n[0, 0, 0, 0, 0, 0, 0, 0, 0, 0, 0, 0, 0, 0, 25]\n[0, 0, 0, 24, 0, 0, 0, 0, 0, 1, 0, 0, 0, 0, 0]]", fillcolor="#e58139d9"] ;
268 -> 269 ;
270 [label="gini = 0.0\nsamples = 1\nvalue = [[0, 0, 1, 0, 0, 0, 0, 0, 0, 0, 0, 0, 0, 0, 0]\n[0, 0, 0, 0, 0, 0, 0, 0, 0, 0, 0, 0, 0, 0, 1]\n[0, 0, 0, 1, 0, 0, 0, 0, 0, 0, 0, 0, 0, 0, 0]]", fillcolor="#e58139ff"] ;
269 -> 270 ;
271 [label="X[19] <= 45.178\ngini = 0.053\nsamples = 17\nvalue = [[0, 0, 1, 0, 23, 0, 0, 0, 0, 0, 0, 0, 0, 0, 0]\n[0, 0, 0, 0, 0, 0, 0, 0, 0, 0, 0, 0, 0, 0, 24]\n[0, 0, 0, 23, 0, 0, 0, 0, 0, 1, 0, 0, 0, 0, 0]]", fillcolor="#e58139e4"] ;
269 -> 271 ;
272 [label="gini = 0.0\nsamples = 1\nvalue = [[0, 0, 1, 0, 0, 0, 0, 0, 0, 0, 0, 0, 0, 0, 0]\n[0, 0, 0, 0, 0, 0, 0, 0, 0, 0, 0, 0, 0, 0, 1]\n[0, 0, 0, 1, 0, 0, 0, 0, 0, 0, 0, 0, 0, 0, 0]]", fillcolor="#e58139ff"] ;
271 -> 272 ;
273 [label="X[10] <= 99.416\ngini = 0.028\nsamples = 16\nvalue = [[0, 0, 0, 0, 23, 0, 0, 0, 0, 0, 0, 0, 0, 0, 0]\n[0, 0, 0, 0, 0, 0, 0, 0, 0, 0, 0, 0, 0, 0, 23]\n[0, 0, 0, 22, 0, 0, 0, 0, 0, 1, 0, 0, 0, 0, 0]]", fillcolor="#e58139f1"] ;
271 -> 273 ;
274 [label="gini = 0.0\nsamples = 10\nvalue = [[0, 0, 0, 0, 14, 0, 0, 0, 0, 0, 0, 0, 0, 0, 0]\n[0, 0, 0, 0, 0, 0, 0, 0, 0, 0, 0, 0, 0, 0, 14]\n[0, 0, 0, 14, 0, 0, 0, 0, 0, 0, 0, 0, 0, 0, 0]]", fillcolor="#e58139ff"] ;
273 -> 274 ;
275 [label="X[5] <= 0.126\ngini = 0.066\nsamples = 6\nvalue = [[0, 0, 0, 0, 9, 0, 0, 0, 0, 0, 0, 0, 0, 0, 0]\n[0, 0, 0, 0, 0, 0, 0, 0, 0, 0, 0, 0, 0, 0, 9]\n[0, 0, 0, 8, 0, 0, 0, 0, 0, 1, 0, 0, 0, 0, 0]]", fillcolor="#e58139dd"] ;
273 -> 275 ;
276 [label="gini = 0.0\nsamples = 1\nvalue = [[0, 0, 0, 0, 1, 0, 0, 0, 0, 0, 0, 0, 0, 0, 0]\n[0, 0, 0, 0, 0, 0, 0, 0, 0, 0, 0, 0, 0, 0, 1]\n[0, 0, 0, 0, 0, 0, 0, 0, 0, 1, 0, 0, 0, 0, 0]]", fillcolor="#e58139ff"] ;
275 -> 276 ;
277 [label="gini = 0.0\nsamples = 5\nvalue = [[0, 0, 0, 0, 8, 0, 0, 0, 0, 0, 0, 0, 0, 0, 0]\n[0, 0, 0, 0, 0, 0, 0, 0, 0, 0, 0, 0, 0, 0, 8]\n[0, 0, 0, 8, 0, 0, 0, 0, 0, 0, 0, 0, 0, 0, 0]]", fillcolor="#e58139ff"] ;
275 -> 277 ;
278 [label="gini = 0.0\nsamples = 1\nvalue = [[0, 0, 0, 0, 1, 0, 0, 0, 0, 0, 0, 0, 0, 0, 0]\n[0, 0, 0, 0, 0, 0, 0, 0, 0, 0, 0, 0, 0, 0, 1]\n[0, 0, 0, 0, 0, 0, 0, 0, 0, 1, 0, 0, 0, 0, 0]]", fillcolor="#e58139ff"] ;
268 -> 278 ;
279 [label="X[9] <= 94.032\ngini = 0.213\nsamples = 5\nvalue = [[0, 0, 0, 0, 5, 0, 0, 0, 0, 0, 0, 0, 0, 0, 0]\n[0, 0, 0, 0, 0, 0, 0, 0, 0, 0, 0, 0, 0, 0, 5]\n[0, 0, 0, 2, 0, 0, 0, 0, 0, 1, 0, 0, 0, 0, 2]]", fillcolor="#e5813991"] ;
253 -> 279 ;
280 [label="gini = 0.0\nsamples = 2\nvalue = [[0, 0, 0, 0, 2, 0, 0, 0, 0, 0, 0, 0, 0, 0, 0]\n[0, 0, 0, 0, 0, 0, 0, 0, 0, 0, 0, 0, 0, 0, 2]\n[0, 0, 0, 0, 0, 0, 0, 0, 0, 0, 0, 0, 0, 0, 2]]", fillcolor="#e58139ff"] ;
279 -> 280 ;
281 [label="X[9] <= 97.178\ngini = 0.148\nsamples = 3\nvalue = [[0, 0, 0, 0, 3, 0, 0, 0, 0, 0, 0, 0, 0, 0, 0]\n[0, 0, 0, 0, 0, 0, 0, 0, 0, 0, 0, 0, 0, 0, 3]\n[0, 0, 0, 2, 0, 0, 0, 0, 0, 1, 0, 0, 0, 0, 0]]", fillcolor="#e58139b3"] ;
279 -> 281 ;
282 [label="gini = 0.0\nsamples = 1\nvalue = [[0, 0, 0, 0, 1, 0, 0, 0, 0, 0, 0, 0, 0, 0, 0]\n[0, 0, 0, 0, 0, 0, 0, 0, 0, 0, 0, 0, 0, 0, 1]\n[0, 0, 0, 0, 0, 0, 0, 0, 0, 1, 0, 0, 0, 0, 0]]", fillcolor="#e58139ff"] ;
281 -> 282 ;
283 [label="gini = 0.0\nsamples = 2\nvalue = [[0, 0, 0, 0, 2, 0, 0, 0, 0, 0, 0, 0, 0, 0, 0]\n[0, 0, 0, 0, 0, 0, 0, 0, 0, 0, 0, 0, 0, 0, 2]\n[0, 0, 0, 2, 0, 0, 0, 0, 0, 0, 0, 0, 0, 0, 0]]", fillcolor="#e58139ff"] ;
281 -> 283 ;
284 [label="X[6] <= 361.789\ngini = 0.166\nsamples = 30\nvalue = [[0, 0, 1, 0, 38, 0, 0, 0, 0, 0, 0, 0, 0, 0, 0]\n[0, 0, 0, 3, 0, 0, 0, 0, 0, 1, 0, 0, 0, 0, 35]\n[0, 0, 0, 33, 0, 0, 0, 0, 0, 0, 0, 0, 0, 0, 6]]", fillcolor="#e58139aa"] ;
252 -> 284 ;
285 [label="gini = 0.0\nsamples = 2\nvalue = [[0, 0, 0, 0, 2, 0, 0, 0, 0, 0, 0, 0, 0, 0, 0]\n[0, 0, 0, 0, 0, 0, 0, 0, 0, 0, 0, 0, 0, 0, 2]\n[0, 0, 0, 0, 0, 0, 0, 0, 0, 0, 0, 0, 0, 0, 2]]", fillcolor="#e58139ff"] ;
284 -> 285 ;
286 [label="X[5] <= 4.737\ngini = 0.148\nsamples = 28\nvalue = [[0, 0, 1, 0, 36, 0, 0, 0, 0, 0, 0, 0, 0, 0, 0]\n[0, 0, 0, 3, 0, 0, 0, 0, 0, 1, 0, 0, 0, 0, 33]\n[0, 0, 0, 33, 0, 0, 0, 0, 0, 0, 0, 0, 0, 0, 4]]", fillcolor="#e58139b3"] ;
284 -> 286 ;
287 [label="X[10] <= 194.348\ngini = 0.07\nsamples = 13\nvalue = [[0, 0, 1, 0, 17, 0, 0, 0, 0, 0, 0, 0, 0, 0, 0]\n[0, 0, 0, 0, 0, 0, 0, 0, 0, 1, 0, 0, 0, 0, 17]\n[0, 0, 0, 18, 0, 0, 0, 0, 0, 0, 0, 0, 0, 0, 0]]", fillcolor="#e58139db"] ;
286 -> 287 ;
288 [label="X[5] <= 0.128\ngini = 0.037\nsamples = 12\nvalue = [[0, 0, 0, 0, 17, 0, 0, 0, 0, 0, 0, 0, 0, 0, 0]\n[0, 0, 0, 0, 0, 0, 0, 0, 0, 1, 0, 0, 0, 0, 16]\n[0, 0, 0, 17, 0, 0, 0, 0, 0, 0, 0, 0, 0, 0, 0]]", fillcolor="#e58139ec"] ;
287 -> 288 ;
289 [label="X[10] <= 124.733\ngini = 0.148\nsamples = 2\nvalue = [[0, 0, 0, 0, 3, 0, 0, 0, 0, 0, 0, 0, 0, 0, 0]\n[0, 0, 0, 0, 0, 0, 0, 0, 0, 1, 0, 0, 0, 0, 2]\n[0, 0, 0, 3, 0, 0, 0, 0, 0, 0, 0, 0, 0, 0, 0]]", fillcolor="#e58139b3"] ;
288 -> 289 ;
290 [label="gini = 0.0\nsamples = 1\nvalue = [[0, 0, 0, 0, 1, 0, 0, 0, 0, 0, 0, 0, 0, 0, 0]\n[0, 0, 0, 0, 0, 0, 0, 0, 0, 1, 0, 0, 0, 0, 0]\n[0, 0, 0, 1, 0, 0, 0, 0, 0, 0, 0, 0, 0, 0, 0]]", fillcolor="#e58139ff"] ;
289 -> 290 ;
291 [label="gini = 0.0\nsamples = 1\nvalue = [[0, 0, 0, 0, 2, 0, 0, 0, 0, 0, 0, 0, 0, 0, 0]\n[0, 0, 0, 0, 0, 0, 0, 0, 0, 0, 0, 0, 0, 0, 2]\n[0, 0, 0, 2, 0, 0, 0, 0, 0, 0, 0, 0, 0, 0, 0]]", fillcolor="#e58139ff"] ;
289 -> 291 ;
292 [label="gini = 0.0\nsamples = 10\nvalue = [[0, 0, 0, 0, 14, 0, 0, 0, 0, 0, 0, 0, 0, 0, 0]\n[0, 0, 0, 0, 0, 0, 0, 0, 0, 0, 0, 0, 0, 0, 14]\n[0, 0, 0, 14, 0, 0, 0, 0, 0, 0, 0, 0, 0, 0, 0]]", fillcolor="#e58139ff"] ;
288 -> 292 ;
293 [label="gini = 0.0\nsamples = 1\nvalue = [[0, 0, 1, 0, 0, 0, 0, 0, 0, 0, 0, 0, 0, 0, 0]\n[0, 0, 0, 0, 0, 0, 0, 0, 0, 0, 0, 0, 0, 0, 1]\n[0, 0, 0, 1, 0, 0, 0, 0, 0, 0, 0, 0, 0, 0, 0]]", fillcolor="#e58139ff"] ;
287 -> 293 ;
294 [label="X[10] <= 115.098\ngini = 0.199\nsamples = 15\nvalue = [[0, 0, 0, 0, 19, 0, 0, 0, 0, 0, 0, 0, 0, 0, 0]\n[0, 0, 0, 3, 0, 0, 0, 0, 0, 0, 0, 0, 0, 0, 16]\n[0, 0, 0, 15, 0, 0, 0, 0, 0, 0, 0, 0, 0, 0, 4]]", fillcolor="#e5813998"] ;
286 -> 294 ;
295 [label="X[10] <= 68.992\ngini = 0.267\nsamples = 4\nvalue = [[0, 0, 0, 0, 5, 0, 0, 0, 0, 0, 0, 0, 0, 0, 0]\n[0, 0, 0, 1, 0, 0, 0, 0, 0, 0, 0, 0, 0, 0, 4]\n[0, 0, 0, 2, 0, 0, 0, 0, 0, 0, 0, 0, 0, 0, 3]]", fillcolor="#e5813976"] ;
294 -> 295 ;
296 [label="gini = 0.0\nsamples = 1\nvalue = [[0, 0, 0, 0, 2, 0, 0, 0, 0, 0, 0, 0, 0, 0, 0]\n[0, 0, 0, 0, 0, 0, 0, 0, 0, 0, 0, 0, 0, 0, 2]\n[0, 0, 0, 2, 0, 0, 0, 0, 0, 0, 0, 0, 0, 0, 0]]", fillcolor="#e58139ff"] ;
295 -> 296 ;
297 [label="X[6] <= 431.328\ngini = 0.148\nsamples = 3\nvalue = [[0, 0, 0, 0, 3, 0, 0, 0, 0, 0, 0, 0, 0, 0, 0]\n[0, 0, 0, 1, 0, 0, 0, 0, 0, 0, 0, 0, 0, 0, 2]\n[0, 0, 0, 0, 0, 0, 0, 0, 0, 0, 0, 0, 0, 0, 3]]", fillcolor="#e58139b3"] ;
295 -> 297 ;
298 [label="gini = 0.0\nsamples = 2\nvalue = [[0, 0, 0, 0, 2, 0, 0, 0, 0, 0, 0, 0, 0, 0, 0]\n[0, 0, 0, 0, 0, 0, 0, 0, 0, 0, 0, 0, 0, 0, 2]\n[0, 0, 0, 0, 0, 0, 0, 0, 0, 0, 0, 0, 0, 0, 2]]", fillcolor="#e58139ff"] ;
297 -> 298 ;
299 [label="gini = 0.0\nsamples = 1\nvalue = [[0, 0, 0, 0, 1, 0, 0, 0, 0, 0, 0, 0, 0, 0, 0]\n[0, 0, 0, 1, 0, 0, 0, 0, 0, 0, 0, 0, 0, 0, 0]\n[0, 0, 0, 0, 0, 0, 0, 0, 0, 0, 0, 0, 0, 0, 1]]", fillcolor="#e58139ff"] ;
297 -> 299 ;
300 [label="X[7] <= 117.526\ngini = 0.126\nsamples = 11\nvalue = [[0, 0, 0, 0, 14, 0, 0, 0, 0, 0, 0, 0, 0, 0, 0]\n[0, 0, 0, 2, 0, 0, 0, 0, 0, 0, 0, 0, 0, 0, 12]\n[0, 0, 0, 13, 0, 0, 0, 0, 0, 0, 0, 0, 0, 0, 1]]", fillcolor="#e58139be"] ;
294 -> 300 ;
301 [label="gini = 0.0\nsamples = 1\nvalue = [[0, 0, 0, 0, 1, 0, 0, 0, 0, 0, 0, 0, 0, 0, 0]\n[0, 0, 0, 1, 0, 0, 0, 0, 0, 0, 0, 0, 0, 0, 0]\n[0, 0, 0, 1, 0, 0, 0, 0, 0, 0, 0, 0, 0, 0, 0]]", fillcolor="#e58139ff"] ;
300 -> 301 ;
302 [label="X[5] <= 5.434\ngini = 0.095\nsamples = 10\nvalue = [[0, 0, 0, 0, 13, 0, 0, 0, 0, 0, 0, 0, 0, 0, 0]\n[0, 0, 0, 1, 0, 0, 0, 0, 0, 0, 0, 0, 0, 0, 12]\n[0, 0, 0, 12, 0, 0, 0, 0, 0, 0, 0, 0, 0, 0, 1]]", fillcolor="#e58139ce"] ;
300 -> 302 ;
303 [label="gini = 0.0\nsamples = 1\nvalue = [[0, 0, 0, 0, 1, 0, 0, 0, 0, 0, 0, 0, 0, 0, 0]\n[0, 0, 0, 0, 0, 0, 0, 0, 0, 0, 0, 0, 0, 0, 1]\n[0, 0, 0, 0, 0, 0, 0, 0, 0, 0, 0, 0, 0, 0, 1]]", fillcolor="#e58139ff"] ;
302 -> 303 ;
304 [label="X[11] <= 60.267\ngini = 0.051\nsamples = 9\nvalue = [[0, 0, 0, 0, 12, 0, 0, 0, 0, 0, 0, 0, 0, 0, 0]\n[0, 0, 0, 1, 0, 0, 0, 0, 0, 0, 0, 0, 0, 0, 11]\n[0, 0, 0, 12, 0, 0, 0, 0, 0, 0, 0, 0, 0, 0, 0]]", fillcolor="#e58139e5"] ;
302 -> 304 ;
305 [label="gini = 0.0\nsamples = 6\nvalue = [[0, 0, 0, 0, 9, 0, 0, 0, 0, 0, 0, 0, 0, 0, 0]\n[0, 0, 0, 0, 0, 0, 0, 0, 0, 0, 0, 0, 0, 0, 9]\n[0, 0, 0, 9, 0, 0, 0, 0, 0, 0, 0, 0, 0, 0, 0]]", fillcolor="#e58139ff"] ;
304 -> 305 ;
306 [label="X[11] <= 64.966\ngini = 0.148\nsamples = 3\nvalue = [[0, 0, 0, 0, 3, 0, 0, 0, 0, 0, 0, 0, 0, 0, 0]\n[0, 0, 0, 1, 0, 0, 0, 0, 0, 0, 0, 0, 0, 0, 2]\n[0, 0, 0, 3, 0, 0, 0, 0, 0, 0, 0, 0, 0, 0, 0]]", fillcolor="#e58139b3"] ;
304 -> 306 ;
307 [label="gini = 0.0\nsamples = 1\nvalue = [[0, 0, 0, 0, 1, 0, 0, 0, 0, 0, 0, 0, 0, 0, 0]\n[0, 0, 0, 1, 0, 0, 0, 0, 0, 0, 0, 0, 0, 0, 0]\n[0, 0, 0, 1, 0, 0, 0, 0, 0, 0, 0, 0, 0, 0, 0]]", fillcolor="#e58139ff"] ;
306 -> 307 ;
308 [label="gini = 0.0\nsamples = 2\nvalue = [[0, 0, 0, 0, 2, 0, 0, 0, 0, 0, 0, 0, 0, 0, 0]\n[0, 0, 0, 0, 0, 0, 0, 0, 0, 0, 0, 0, 0, 0, 2]\n[0, 0, 0, 2, 0, 0, 0, 0, 0, 0, 0, 0, 0, 0, 0]]", fillcolor="#e58139ff"] ;
306 -> 308 ;
309 [label="X[8] <= 123.571\ngini = 0.163\nsamples = 4\nvalue = [[0, 0, 0, 0, 7, 0, 0, 0, 0, 0, 0, 0, 0, 0, 0]\n[0, 0, 0, 3, 0, 0, 0, 0, 0, 0, 0, 0, 0, 0, 4]\n[0, 0, 0, 7, 0, 0, 0, 0, 0, 0, 0, 0, 0, 0, 0]]", fillcolor="#e58139ab"] ;
249 -> 309 ;
310 [label="gini = 0.0\nsamples = 2\nvalue = [[0, 0, 0, 0, 4, 0, 0, 0, 0, 0, 0, 0, 0, 0, 0]\n[0, 0, 0, 0, 0, 0, 0, 0, 0, 0, 0, 0, 0, 0, 4]\n[0, 0, 0, 4, 0, 0, 0, 0, 0, 0, 0, 0, 0, 0, 0]]", fillcolor="#e58139ff"] ;
309 -> 310 ;
311 [label="gini = 0.0\nsamples = 2\nvalue = [[0, 0, 0, 0, 3, 0, 0, 0, 0, 0, 0, 0, 0, 0, 0]\n[0, 0, 0, 3, 0, 0, 0, 0, 0, 0, 0, 0, 0, 0, 0]\n[0, 0, 0, 3, 0, 0, 0, 0, 0, 0, 0, 0, 0, 0, 0]]", fillcolor="#e58139ff"] ;
309 -> 311 ;
312 [label="X[17] <= 89.936\ngini = 0.267\nsamples = 3\nvalue = [[0, 0, 0, 0, 5, 0, 0, 0, 0, 0, 0, 0, 0, 0, 0]\n[0, 0, 0, 0, 0, 0, 0, 0, 2, 0, 0, 0, 0, 0, 3]\n[0, 0, 0, 4, 0, 0, 0, 0, 0, 0, 0, 0, 0, 0, 1]]", fillcolor="#e5813976"] ;
242 -> 312 ;
313 [label="gini = 0.0\nsamples = 1\nvalue = [[0, 0, 0, 0, 2, 0, 0, 0, 0, 0, 0, 0, 0, 0, 0]\n[0, 0, 0, 0, 0, 0, 0, 0, 2, 0, 0, 0, 0, 0, 0]\n[0, 0, 0, 2, 0, 0, 0, 0, 0, 0, 0, 0, 0, 0, 0]]", fillcolor="#e58139ff"] ;
312 -> 313 ;
314 [label="X[12] <= 96.197\ngini = 0.148\nsamples = 2\nvalue = [[0, 0, 0, 0, 3, 0, 0, 0, 0, 0, 0, 0, 0, 0, 0]\n[0, 0, 0, 0, 0, 0, 0, 0, 0, 0, 0, 0, 0, 0, 3]\n[0, 0, 0, 2, 0, 0, 0, 0, 0, 0, 0, 0, 0, 0, 1]]", fillcolor="#e58139b3"] ;
312 -> 314 ;
315 [label="gini = 0.0\nsamples = 1\nvalue = [[0, 0, 0, 0, 1, 0, 0, 0, 0, 0, 0, 0, 0, 0, 0]\n[0, 0, 0, 0, 0, 0, 0, 0, 0, 0, 0, 0, 0, 0, 1]\n[0, 0, 0, 0, 0, 0, 0, 0, 0, 0, 0, 0, 0, 0, 1]]", fillcolor="#e58139ff"] ;
314 -> 315 ;
316 [label="gini = 0.0\nsamples = 1\nvalue = [[0, 0, 0, 0, 2, 0, 0, 0, 0, 0, 0, 0, 0, 0, 0]\n[0, 0, 0, 0, 0, 0, 0, 0, 0, 0, 0, 0, 0, 0, 2]\n[0, 0, 0, 2, 0, 0, 0, 0, 0, 0, 0, 0, 0, 0, 0]]", fillcolor="#e58139ff"] ;
314 -> 316 ;
317 [label="X[10] <= 150.985\ngini = 0.198\nsamples = 4\nvalue = [[0, 0, 0, 0, 8, 0, 0, 0, 0, 0, 0, 0, 0, 0, 0]\n[0, 0, 0, 0, 0, 0, 0, 0, 0, 3, 0, 0, 0, 1, 4]\n[0, 0, 0, 8, 0, 0, 0, 0, 0, 0, 0, 0, 0, 0, 0]]", fillcolor="#e5813999"] ;
241 -> 317 ;
318 [label="X[13] <= 0.047\ngini = 0.125\nsamples = 2\nvalue = [[0, 0, 0, 0, 4, 0, 0, 0, 0, 0, 0, 0, 0, 0, 0]\n[0, 0, 0, 0, 0, 0, 0, 0, 0, 3, 0, 0, 0, 1, 0]\n[0, 0, 0, 4, 0, 0, 0, 0, 0, 0, 0, 0, 0, 0, 0]]", fillcolor="#e58139bf"] ;
317 -> 318 ;
319 [label="gini = 0.0\nsamples = 1\nvalue = [[0, 0, 0, 0, 3, 0, 0, 0, 0, 0, 0, 0, 0, 0, 0]\n[0, 0, 0, 0, 0, 0, 0, 0, 0, 3, 0, 0, 0, 0, 0]\n[0, 0, 0, 3, 0, 0, 0, 0, 0, 0, 0, 0, 0, 0, 0]]", fillcolor="#e58139ff"] ;
318 -> 319 ;
320 [label="gini = 0.0\nsamples = 1\nvalue = [[0, 0, 0, 0, 1, 0, 0, 0, 0, 0, 0, 0, 0, 0, 0]\n[0, 0, 0, 0, 0, 0, 0, 0, 0, 0, 0, 0, 0, 1, 0]\n[0, 0, 0, 1, 0, 0, 0, 0, 0, 0, 0, 0, 0, 0, 0]]", fillcolor="#e58139ff"] ;
318 -> 320 ;
321 [label="gini = 0.0\nsamples = 2\nvalue = [[0, 0, 0, 0, 4, 0, 0, 0, 0, 0, 0, 0, 0, 0, 0]\n[0, 0, 0, 0, 0, 0, 0, 0, 0, 0, 0, 0, 0, 0, 4]\n[0, 0, 0, 4, 0, 0, 0, 0, 0, 0, 0, 0, 0, 0, 0]]", fillcolor="#e58139ff"] ;
317 -> 321 ;
322 [label="X[19] <= 31.875\ngini = 0.402\nsamples = 17\nvalue = [[0, 0, 2, 0, 22, 0, 0, 0, 0, 0, 0, 0, 0, 0, 0]\n[0, 0, 0, 2, 0, 0, 0, 0, 0, 8, 0, 0, 0, 0, 14]\n[0, 0, 0, 16, 1, 0, 0, 3, 0, 0, 0, 0, 0, 0, 4]]", fillcolor="#e5813930"] ;
220 -> 322 ;
323 [label="X[13] <= 0.018\ngini = 0.304\nsamples = 12\nvalue = [[0, 0, 2, 0, 15, 0, 0, 0, 0, 0, 0, 0, 0, 0, 0]\n[0, 0, 0, 0, 0, 0, 0, 0, 0, 8, 0, 0, 0, 0, 9]\n[0, 0, 0, 15, 0, 0, 0, 2, 0, 0, 0, 0, 0, 0, 0]]", fillcolor="#e5813962"] ;
322 -> 323 ;
324 [label="gini = 0.0\nsamples = 2\nvalue = [[0, 0, 0, 0, 2, 0, 0, 0, 0, 0, 0, 0, 0, 0, 0]\n[0, 0, 0, 0, 0, 0, 0, 0, 0, 0, 0, 0, 0, 0, 2]\n[0, 0, 0, 0, 0, 0, 0, 2, 0, 0, 0, 0, 0, 0, 0]]", fillcolor="#e58139ff"] ;
323 -> 324 ;
325 [label="X[5] <= 2.435\ngini = 0.243\nsamples = 10\nvalue = [[0, 0, 2, 0, 13, 0, 0, 0, 0, 0, 0, 0, 0, 0, 0]\n[0, 0, 0, 0, 0, 0, 0, 0, 0, 8, 0, 0, 0, 0, 7]\n[0, 0, 0, 15, 0, 0, 0, 0, 0, 0, 0, 0, 0, 0, 0]]", fillcolor="#e5813982"] ;
323 -> 325 ;
326 [label="X[5] <= 0.308\ngini = 0.187\nsamples = 7\nvalue = [[0, 0, 1, 0, 10, 0, 0, 0, 0, 0, 0, 0, 0, 0, 0]\n[0, 0, 0, 0, 0, 0, 0, 0, 0, 8, 0, 0, 0, 0, 3]\n[0, 0, 0, 11, 0, 0, 0, 0, 0, 0, 0, 0, 0, 0, 0]]", fillcolor="#e581399f"] ;
325 -> 326 ;
327 [label="X[16] <= 89.822\ngini = 0.167\nsamples = 2\nvalue = [[0, 0, 1, 0, 1, 0, 0, 0, 0, 0, 0, 0, 0, 0, 0]\n[0, 0, 0, 0, 0, 0, 0, 0, 0, 0, 0, 0, 0, 0, 2]\n[0, 0, 0, 2, 0, 0, 0, 0, 0, 0, 0, 0, 0, 0, 0]]", fillcolor="#e58139a9"] ;
326 -> 327 ;
328 [label="gini = 0.0\nsamples = 1\nvalue = [[0, 0, 0, 0, 1, 0, 0, 0, 0, 0, 0, 0, 0, 0, 0]\n[0, 0, 0, 0, 0, 0, 0, 0, 0, 0, 0, 0, 0, 0, 1]\n[0, 0, 0, 1, 0, 0, 0, 0, 0, 0, 0, 0, 0, 0, 0]]", fillcolor="#e58139ff"] ;
327 -> 328 ;
329 [label="gini = 0.0\nsamples = 1\nvalue = [[0, 0, 1, 0, 0, 0, 0, 0, 0, 0, 0, 0, 0, 0, 0]\n[0, 0, 0, 0, 0, 0, 0, 0, 0, 0, 0, 0, 0, 0, 1]\n[0, 0, 0, 1, 0, 0, 0, 0, 0, 0, 0, 0, 0, 0, 0]]", fillcolor="#e58139ff"] ;
327 -> 329 ;
330 [label="X[8] <= 20.71\ngini = 0.066\nsamples = 5\nvalue = [[0, 0, 0, 0, 9, 0, 0, 0, 0, 0, 0, 0, 0, 0, 0]\n[0, 0, 0, 0, 0, 0, 0, 0, 0, 8, 0, 0, 0, 0, 1]\n[0, 0, 0, 9, 0, 0, 0, 0, 0, 0, 0, 0, 0, 0, 0]]", fillcolor="#e58139dd"] ;
326 -> 330 ;
331 [label="gini = 0.0\nsamples = 1\nvalue = [[0, 0, 0, 0, 1, 0, 0, 0, 0, 0, 0, 0, 0, 0, 0]\n[0, 0, 0, 0, 0, 0, 0, 0, 0, 0, 0, 0, 0, 0, 1]\n[0, 0, 0, 1, 0, 0, 0, 0, 0, 0, 0, 0, 0, 0, 0]]", fillcolor="#e58139ff"] ;
330 -> 331 ;
332 [label="gini = 0.0\nsamples = 4\nvalue = [[0, 0, 0, 0, 8, 0, 0, 0, 0, 0, 0, 0, 0, 0, 0]\n[0, 0, 0, 0, 0, 0, 0, 0, 0, 8, 0, 0, 0, 0, 0]\n[0, 0, 0, 8, 0, 0, 0, 0, 0, 0, 0, 0, 0, 0, 0]]", fillcolor="#e58139ff"] ;
330 -> 332 ;
333 [label="X[9] <= 1.241\ngini = 0.125\nsamples = 3\nvalue = [[0, 0, 1, 0, 3, 0, 0, 0, 0, 0, 0, 0, 0, 0, 0]\n[0, 0, 0, 0, 0, 0, 0, 0, 0, 0, 0, 0, 0, 0, 4]\n[0, 0, 0, 4, 0, 0, 0, 0, 0, 0, 0, 0, 0, 0, 0]]", fillcolor="#e58139bf"] ;
325 -> 333 ;
334 [label="gini = 0.0\nsamples = 2\nvalue = [[0, 0, 0, 0, 3, 0, 0, 0, 0, 0, 0, 0, 0, 0, 0]\n[0, 0, 0, 0, 0, 0, 0, 0, 0, 0, 0, 0, 0, 0, 3]\n[0, 0, 0, 3, 0, 0, 0, 0, 0, 0, 0, 0, 0, 0, 0]]", fillcolor="#e58139ff"] ;
333 -> 334 ;
335 [label="gini = 0.0\nsamples = 1\nvalue = [[0, 0, 1, 0, 0, 0, 0, 0, 0, 0, 0, 0, 0, 0, 0]\n[0, 0, 0, 0, 0, 0, 0, 0, 0, 0, 0, 0, 0, 0, 1]\n[0, 0, 0, 1, 0, 0, 0, 0, 0, 0, 0, 0, 0, 0, 0]]", fillcolor="#e58139ff"] ;
333 -> 335 ;
336 [label="X[13] <= 0.036\ngini = 0.34\nsamples = 5\nvalue = [[0, 0, 0, 0, 7, 0, 0, 0, 0, 0, 0, 0, 0, 0, 0]\n[0, 0, 0, 2, 0, 0, 0, 0, 0, 0, 0, 0, 0, 0, 5]\n[0, 0, 0, 1, 1, 0, 0, 1, 0, 0, 0, 0, 0, 0, 4]]", fillcolor="#e5813950"] ;
322 -> 336 ;
337 [label="X[12] <= 20.898\ngini = 0.24\nsamples = 4\nvalue = [[0, 0, 0, 0, 5, 0, 0, 0, 0, 0, 0, 0, 0, 0, 0]\n[0, 0, 0, 0, 0, 0, 0, 0, 0, 0, 0, 0, 0, 0, 5]\n[0, 0, 0, 1, 1, 0, 0, 1, 0, 0, 0, 0, 0, 0, 2]]", fillcolor="#e5813984"] ;
336 -> 337 ;
338 [label="X[16] <= 89.455\ngini = 0.222\nsamples = 3\nvalue = [[0, 0, 0, 0, 3, 0, 0, 0, 0, 0, 0, 0, 0, 0, 0]\n[0, 0, 0, 0, 0, 0, 0, 0, 0, 0, 0, 0, 0, 0, 3]\n[0, 0, 0, 1, 1, 0, 0, 1, 0, 0, 0, 0, 0, 0, 0]]", fillcolor="#e581398d"] ;
337 -> 338 ;
339 [label="gini = 0.0\nsamples = 1\nvalue = [[0, 0, 0, 0, 1, 0, 0, 0, 0, 0, 0, 0, 0, 0, 0]\n[0, 0, 0, 0, 0, 0, 0, 0, 0, 0, 0, 0, 0, 0, 1]\n[0, 0, 0, 1, 0, 0, 0, 0, 0, 0, 0, 0, 0, 0, 0]]", fillcolor="#e58139ff"] ;
338 -> 339 ;
340 [label="X[9] <= 1.728\ngini = 0.167\nsamples = 2\nvalue = [[0, 0, 0, 0, 2, 0, 0, 0, 0, 0, 0, 0, 0, 0, 0]\n[0, 0, 0, 0, 0, 0, 0, 0, 0, 0, 0, 0, 0, 0, 2]\n[0, 0, 0, 0, 1, 0, 0, 1, 0, 0, 0, 0, 0, 0, 0]]", fillcolor="#e58139a9"] ;
338 -> 340 ;
341 [label="gini = 0.0\nsamples = 1\nvalue = [[0, 0, 0, 0, 1, 0, 0, 0, 0, 0, 0, 0, 0, 0, 0]\n[0, 0, 0, 0, 0, 0, 0, 0, 0, 0, 0, 0, 0, 0, 1]\n[0, 0, 0, 0, 1, 0, 0, 0, 0, 0, 0, 0, 0, 0, 0]]", fillcolor="#e58139ff"] ;
340 -> 341 ;
342 [label="gini = 0.0\nsamples = 1\nvalue = [[0, 0, 0, 0, 1, 0, 0, 0, 0, 0, 0, 0, 0, 0, 0]\n[0, 0, 0, 0, 0, 0, 0, 0, 0, 0, 0, 0, 0, 0, 1]\n[0, 0, 0, 0, 0, 0, 0, 1, 0, 0, 0, 0, 0, 0, 0]]", fillcolor="#e58139ff"] ;
340 -> 342 ;
343 [label="gini = 0.0\nsamples = 1\nvalue = [[0, 0, 0, 0, 2, 0, 0, 0, 0, 0, 0, 0, 0, 0, 0]\n[0, 0, 0, 0, 0, 0, 0, 0, 0, 0, 0, 0, 0, 0, 2]\n[0, 0, 0, 0, 0, 0, 0, 0, 0, 0, 0, 0, 0, 0, 2]]", fillcolor="#e58139ff"] ;
337 -> 343 ;
344 [label="gini = 0.0\nsamples = 1\nvalue = [[0, 0, 0, 0, 2, 0, 0, 0, 0, 0, 0, 0, 0, 0, 0]\n[0, 0, 0, 2, 0, 0, 0, 0, 0, 0, 0, 0, 0, 0, 0]\n[0, 0, 0, 0, 0, 0, 0, 0, 0, 0, 0, 0, 0, 0, 2]]", fillcolor="#e58139ff"] ;
336 -> 344 ;
345 [label="X[11] <= 92.074\ngini = 0.263\nsamples = 6\nvalue = [[0, 0, 6, 0, 3, 0, 0, 0, 0, 0, 0, 0, 0, 0, 0]\n[0, 0, 0, 0, 0, 0, 0, 0, 0, 2, 0, 0, 0, 0, 7]\n[0, 0, 0, 9, 0, 0, 0, 0, 0, 0, 0, 0, 0, 0, 0]]", fillcolor="#e5813978"] ;
219 -> 345 ;
346 [label="X[16] <= 89.989\ngini = 0.163\nsamples = 4\nvalue = [[0, 0, 6, 0, 1, 0, 0, 0, 0, 0, 0, 0, 0, 0, 0]\n[0, 0, 0, 0, 0, 0, 0, 0, 0, 1, 0, 0, 0, 0, 6]\n[0, 0, 0, 7, 0, 0, 0, 0, 0, 0, 0, 0, 0, 0, 0]]", fillcolor="#e58139ab"] ;
345 -> 346 ;
347 [label="gini = 0.0\nsamples = 1\nvalue = [[0, 0, 0, 0, 1, 0, 0, 0, 0, 0, 0, 0, 0, 0, 0]\n[0, 0, 0, 0, 0, 0, 0, 0, 0, 0, 0, 0, 0, 0, 1]\n[0, 0, 0, 1, 0, 0, 0, 0, 0, 0, 0, 0, 0, 0, 0]]", fillcolor="#e58139ff"] ;
346 -> 347 ;
348 [label="X[19] <= 81.43\ngini = 0.093\nsamples = 3\nvalue = [[0, 0, 6, 0, 0, 0, 0, 0, 0, 0, 0, 0, 0, 0, 0]\n[0, 0, 0, 0, 0, 0, 0, 0, 0, 1, 0, 0, 0, 0, 5]\n[0, 0, 0, 6, 0, 0, 0, 0, 0, 0, 0, 0, 0, 0, 0]]", fillcolor="#e58139cf"] ;
346 -> 348 ;
349 [label="gini = 0.0\nsamples = 1\nvalue = [[0, 0, 1, 0, 0, 0, 0, 0, 0, 0, 0, 0, 0, 0, 0]\n[0, 0, 0, 0, 0, 0, 0, 0, 0, 1, 0, 0, 0, 0, 0]\n[0, 0, 0, 1, 0, 0, 0, 0, 0, 0, 0, 0, 0, 0, 0]]", fillcolor="#e58139ff"] ;
348 -> 349 ;
350 [label="gini = 0.0\nsamples = 2\nvalue = [[0, 0, 5, 0, 0, 0, 0, 0, 0, 0, 0, 0, 0, 0, 0]\n[0, 0, 0, 0, 0, 0, 0, 0, 0, 0, 0, 0, 0, 0, 5]\n[0, 0, 0, 5, 0, 0, 0, 0, 0, 0, 0, 0, 0, 0, 0]]", fillcolor="#e58139ff"] ;
348 -> 350 ;
351 [label="X[9] <= 50.929\ngini = 0.167\nsamples = 2\nvalue = [[0, 0, 0, 0, 2, 0, 0, 0, 0, 0, 0, 0, 0, 0, 0]\n[0, 0, 0, 0, 0, 0, 0, 0, 0, 1, 0, 0, 0, 0, 1]\n[0, 0, 0, 2, 0, 0, 0, 0, 0, 0, 0, 0, 0, 0, 0]]", fillcolor="#e58139a9"] ;
345 -> 351 ;
352 [label="gini = 0.0\nsamples = 1\nvalue = [[0, 0, 0, 0, 1, 0, 0, 0, 0, 0, 0, 0, 0, 0, 0]\n[0, 0, 0, 0, 0, 0, 0, 0, 0, 1, 0, 0, 0, 0, 0]\n[0, 0, 0, 1, 0, 0, 0, 0, 0, 0, 0, 0, 0, 0, 0]]", fillcolor="#e58139ff"] ;
351 -> 352 ;
353 [label="gini = 0.0\nsamples = 1\nvalue = [[0, 0, 0, 0, 1, 0, 0, 0, 0, 0, 0, 0, 0, 0, 0]\n[0, 0, 0, 0, 0, 0, 0, 0, 0, 0, 0, 0, 0, 0, 1]\n[0, 0, 0, 1, 0, 0, 0, 0, 0, 0, 0, 0, 0, 0, 0]]", fillcolor="#e58139ff"] ;
351 -> 353 ;
354 [label="X[14] <= 179.588\ngini = 0.368\nsamples = 27\nvalue = [[0, 0, 7, 0, 31, 0, 0, 0, 0, 0, 0, 0, 0, 0, 0]\n[0, 0, 0, 2, 0, 0, 0, 0, 0, 2, 0, 0, 0, 0, 34]\n[0, 0, 0, 20, 0, 0, 0, 2, 0, 4, 0, 0, 0, 0, 12]]", fillcolor="#e5813942"] ;
218 -> 354 ;
355 [label="X[20] <= 89.711\ngini = 0.262\nsamples = 10\nvalue = [[0, 0, 0, 0, 14, 0, 0, 0, 0, 0, 0, 0, 0, 0, 0]\n[0, 0, 0, 1, 0, 0, 0, 0, 0, 0, 0, 0, 0, 0, 13]\n[0, 0, 0, 3, 0, 0, 0, 1, 0, 3, 0, 0, 0, 0, 7]]", fillcolor="#e5813978"] ;
354 -> 355 ;
356 [label="X[9] <= 147.578\ngini = 0.082\nsamples = 4\nvalue = [[0, 0, 0, 0, 7, 0, 0, 0, 0, 0, 0, 0, 0, 0, 0]\n[0, 0, 0, 1, 0, 0, 0, 0, 0, 0, 0, 0, 0, 0, 6]\n[0, 0, 0, 0, 0, 0, 0, 0, 0, 0, 0, 0, 0, 0, 7]]", fillcolor="#e58139d5"] ;
355 -> 356 ;
357 [label="gini = 0.0\nsamples = 2\nvalue = [[0, 0, 0, 0, 5, 0, 0, 0, 0, 0, 0, 0, 0, 0, 0]\n[0, 0, 0, 0, 0, 0, 0, 0, 0, 0, 0, 0, 0, 0, 5]\n[0, 0, 0, 0, 0, 0, 0, 0, 0, 0, 0, 0, 0, 0, 5]]", fillcolor="#e58139ff"] ;
356 -> 357 ;
358 [label="X[15] <= 104.568\ngini = 0.167\nsamples = 2\nvalue = [[0, 0, 0, 0, 2, 0, 0, 0, 0, 0, 0, 0, 0, 0, 0]\n[0, 0, 0, 1, 0, 0, 0, 0, 0, 0, 0, 0, 0, 0, 1]\n[0, 0, 0, 0, 0, 0, 0, 0, 0, 0, 0, 0, 0, 0, 2]]", fillcolor="#e58139a9"] ;
356 -> 358 ;
359 [label="gini = 0.0\nsamples = 1\nvalue = [[0, 0, 0, 0, 1, 0, 0, 0, 0, 0, 0, 0, 0, 0, 0]\n[0, 0, 0, 0, 0, 0, 0, 0, 0, 0, 0, 0, 0, 0, 1]\n[0, 0, 0, 0, 0, 0, 0, 0, 0, 0, 0, 0, 0, 0, 1]]", fillcolor="#e58139ff"] ;
358 -> 359 ;
360 [label="gini = 0.0\nsamples = 1\nvalue = [[0, 0, 0, 0, 1, 0, 0, 0, 0, 0, 0, 0, 0, 0, 0]\n[0, 0, 0, 1, 0, 0, 0, 0, 0, 0, 0, 0, 0, 0, 0]\n[0, 0, 0, 0, 0, 0, 0, 0, 0, 0, 0, 0, 0, 0, 1]]", fillcolor="#e58139ff"] ;
358 -> 360 ;
361 [label="X[12] <= 167.076\ngini = 0.204\nsamples = 6\nvalue = [[0, 0, 0, 0, 7, 0, 0, 0, 0, 0, 0, 0, 0, 0, 0]\n[0, 0, 0, 0, 0, 0, 0, 0, 0, 0, 0, 0, 0, 0, 7]\n[0, 0, 0, 3, 0, 0, 0, 1, 0, 3, 0, 0, 0, 0, 0]]", fillcolor="#e5813996"] ;
355 -> 361 ;
362 [label="X[5] <= 4.237\ngini = 0.125\nsamples = 4\nvalue = [[0, 0, 0, 0, 4, 0, 0, 0, 0, 0, 0, 0, 0, 0, 0]\n[0, 0, 0, 0, 0, 0, 0, 0, 0, 0, 0, 0, 0, 0, 4]\n[0, 0, 0, 3, 0, 0, 0, 1, 0, 0, 0, 0, 0, 0, 0]]", fillcolor="#e58139bf"] ;
361 -> 362 ;
363 [label="gini = 0.0\nsamples = 1\nvalue = [[0, 0, 0, 0, 1, 0, 0, 0, 0, 0, 0, 0, 0, 0, 0]\n[0, 0, 0, 0, 0, 0, 0, 0, 0, 0, 0, 0, 0, 0, 1]\n[0, 0, 0, 0, 0, 0, 0, 1, 0, 0, 0, 0, 0, 0, 0]]", fillcolor="#e58139ff"] ;
362 -> 363 ;
364 [label="gini = 0.0\nsamples = 3\nvalue = [[0, 0, 0, 0, 3, 0, 0, 0, 0, 0, 0, 0, 0, 0, 0]\n[0, 0, 0, 0, 0, 0, 0, 0, 0, 0, 0, 0, 0, 0, 3]\n[0, 0, 0, 3, 0, 0, 0, 0, 0, 0, 0, 0, 0, 0, 0]]", fillcolor="#e58139ff"] ;
362 -> 364 ;
365 [label="gini = 0.0\nsamples = 2\nvalue = [[0, 0, 0, 0, 3, 0, 0, 0, 0, 0, 0, 0, 0, 0, 0]\n[0, 0, 0, 0, 0, 0, 0, 0, 0, 0, 0, 0, 0, 0, 3]\n[0, 0, 0, 0, 0, 0, 0, 0, 0, 3, 0, 0, 0, 0, 0]]", fillcolor="#e58139ff"] ;
361 -> 365 ;
366 [label="X[10] <= 147.829\ngini = 0.363\nsamples = 17\nvalue = [[0, 0, 7, 0, 17, 0, 0, 0, 0, 0, 0, 0, 0, 0, 0]\n[0, 0, 0, 1, 0, 0, 0, 0, 0, 2, 0, 0, 0, 0, 21]\n[0, 0, 0, 17, 0, 0, 0, 1, 0, 1, 0, 0, 0, 0, 5]]", fillcolor="#e5813944"] ;
354 -> 366 ;
367 [label="X[11] <= 138.732\ngini = 0.293\nsamples = 4\nvalue = [[0, 0, 4, 0, 1, 0, 0, 0, 0, 0, 0, 0, 0, 0, 0]\n[0, 0, 0, 0, 0, 0, 0, 0, 0, 0, 0, 0, 0, 0, 5]\n[0, 0, 0, 1, 0, 0, 0, 1, 0, 0, 0, 0, 0, 0, 3]]", fillcolor="#e5813968"] ;
366 -> 367 ;
368 [label="X[11] <= 138.1\ngini = 0.333\nsamples = 2\nvalue = [[0, 0, 1, 0, 1, 0, 0, 0, 0, 0, 0, 0, 0, 0, 0]\n[0, 0, 0, 0, 0, 0, 0, 0, 0, 0, 0, 0, 0, 0, 2]\n[0, 0, 0, 1, 0, 0, 0, 1, 0, 0, 0, 0, 0, 0, 0]]", fillcolor="#e5813954"] ;
367 -> 368 ;
369 [label="gini = 0.0\nsamples = 1\nvalue = [[0, 0, 1, 0, 0, 0, 0, 0, 0, 0, 0, 0, 0, 0, 0]\n[0, 0, 0, 0, 0, 0, 0, 0, 0, 0, 0, 0, 0, 0, 1]\n[0, 0, 0, 1, 0, 0, 0, 0, 0, 0, 0, 0, 0, 0, 0]]", fillcolor="#e58139ff"] ;
368 -> 369 ;
370 [label="gini = 0.0\nsamples = 1\nvalue = [[0, 0, 0, 0, 1, 0, 0, 0, 0, 0, 0, 0, 0, 0, 0]\n[0, 0, 0, 0, 0, 0, 0, 0, 0, 0, 0, 0, 0, 0, 1]\n[0, 0, 0, 0, 0, 0, 0, 1, 0, 0, 0, 0, 0, 0, 0]]", fillcolor="#e58139ff"] ;
368 -> 370 ;
371 [label="gini = 0.0\nsamples = 2\nvalue = [[0, 0, 3, 0, 0, 0, 0, 0, 0, 0, 0, 0, 0, 0, 0]\n[0, 0, 0, 0, 0, 0, 0, 0, 0, 0, 0, 0, 0, 0, 3]\n[0, 0, 0, 0, 0, 0, 0, 0, 0, 0, 0, 0, 0, 0, 3]]", fillcolor="#e58139ff"] ;
367 -> 371 ;
372 [label="X[6] <= 510.13\ngini = 0.273\nsamples = 13\nvalue = [[0, 0, 3, 0, 16, 0, 0, 0, 0, 0, 0, 0, 0, 0, 0]\n[0, 0, 0, 1, 0, 0, 0, 0, 0, 2, 0, 0, 0, 0, 16]\n[0, 0, 0, 16, 0, 0, 0, 0, 0, 1, 0, 0, 0, 0, 2]]", fillcolor="#e5813972"] ;
366 -> 372 ;
373 [label="X[14] <= 179.611\ngini = 0.24\nsamples = 12\nvalue = [[0, 0, 1, 0, 16, 0, 0, 0, 0, 0, 0, 0, 0, 0, 0]\n[0, 0, 0, 1, 0, 0, 0, 0, 0, 2, 0, 0, 0, 0, 14]\n[0, 0, 0, 14, 0, 0, 0, 0, 0, 1, 0, 0, 0, 0, 2]]", fillcolor="#e5813984"] ;
372 -> 373 ;
374 [label="gini = 0.0\nsamples = 1\nvalue = [[0, 0, 0, 0, 2, 0, 0, 0, 0, 0, 0, 0, 0, 0, 0]\n[0, 0, 0, 0, 0, 0, 0, 0, 0, 2, 0, 0, 0, 0, 0]\n[0, 0, 0, 2, 0, 0, 0, 0, 0, 0, 0, 0, 0, 0, 0]]", fillcolor="#e58139ff"] ;
373 -> 374 ;
375 [label="X[7] <= 91.429\ngini = 0.196\nsamples = 11\nvalue = [[0, 0, 1, 0, 14, 0, 0, 0, 0, 0, 0, 0, 0, 0, 0]\n[0, 0, 0, 1, 0, 0, 0, 0, 0, 0, 0, 0, 0, 0, 14]\n[0, 0, 0, 12, 0, 0, 0, 0, 0, 1, 0, 0, 0, 0, 2]]", fillcolor="#e581399a"] ;
373 -> 375 ;
376 [label="X[6] <= 166.466\ngini = 0.458\nsamples = 4\nvalue = [[0, 0, 1, 0, 3, 0, 0, 0, 0, 0, 0, 0, 0, 0, 0]\n[0, 0, 0, 1, 0, 0, 0, 0, 0, 0, 0, 0, 0, 0, 3]\n[0, 0, 0, 1, 0, 0, 0, 0, 0, 1, 0, 0, 0, 0, 2]]", fillcolor="#e5813913"] ;
375 -> 376 ;
377 [label="X[18] <= 90.228\ngini = 0.167\nsamples = 2\nvalue = [[0, 0, 0, 0, 2, 0, 0, 0, 0, 0, 0, 0, 0, 0, 0]\n[0, 0, 0, 0, 0, 0, 0, 0, 0, 0, 0, 0, 0, 0, 2]\n[0, 0, 0, 1, 0, 0, 0, 0, 0, 1, 0, 0, 0, 0, 0]]", fillcolor="#e58139a9"] ;
376 -> 377 ;
378 [label="gini = 0.0\nsamples = 1\nvalue = [[0, 0, 0, 0, 1, 0, 0, 0, 0, 0, 0, 0, 0, 0, 0]\n[0, 0, 0, 0, 0, 0, 0, 0, 0, 0, 0, 0, 0, 0, 1]\n[0, 0, 0, 1, 0, 0, 0, 0, 0, 0, 0, 0, 0, 0, 0]]", fillcolor="#e58139ff"] ;
377 -> 378 ;
379 [label="gini = 0.0\nsamples = 1\nvalue = [[0, 0, 0, 0, 1, 0, 0, 0, 0, 0, 0, 0, 0, 0, 0]\n[0, 0, 0, 0, 0, 0, 0, 0, 0, 0, 0, 0, 0, 0, 1]\n[0, 0, 0, 0, 0, 0, 0, 0, 0, 1, 0, 0, 0, 0, 0]]", fillcolor="#e58139ff"] ;
377 -> 379 ;
380 [label="X[20] <= 89.212\ngini = 0.333\nsamples = 2\nvalue = [[0, 0, 1, 0, 1, 0, 0, 0, 0, 0, 0, 0, 0, 0, 0]\n[0, 0, 0, 1, 0, 0, 0, 0, 0, 0, 0, 0, 0, 0, 1]\n[0, 0, 0, 0, 0, 0, 0, 0, 0, 0, 0, 0, 0, 0, 2]]", fillcolor="#e5813954"] ;
376 -> 380 ;
381 [label="gini = 0.0\nsamples = 1\nvalue = [[0, 0, 1, 0, 0, 0, 0, 0, 0, 0, 0, 0, 0, 0, 0]\n[0, 0, 0, 0, 0, 0, 0, 0, 0, 0, 0, 0, 0, 0, 1]\n[0, 0, 0, 0, 0, 0, 0, 0, 0, 0, 0, 0, 0, 0, 1]]", fillcolor="#e58139ff"] ;
380 -> 381 ;
382 [label="gini = 0.0\nsamples = 1\nvalue = [[0, 0, 0, 0, 1, 0, 0, 0, 0, 0, 0, 0, 0, 0, 0]\n[0, 0, 0, 1, 0, 0, 0, 0, 0, 0, 0, 0, 0, 0, 0]\n[0, 0, 0, 0, 0, 0, 0, 0, 0, 0, 0, 0, 0, 0, 1]]", fillcolor="#e58139ff"] ;
380 -> 382 ;
383 [label="gini = 0.0\nsamples = 7\nvalue = [[0, 0, 0, 0, 11, 0, 0, 0, 0, 0, 0, 0, 0, 0, 0]\n[0, 0, 0, 0, 0, 0, 0, 0, 0, 0, 0, 0, 0, 0, 11]\n[0, 0, 0, 11, 0, 0, 0, 0, 0, 0, 0, 0, 0, 0, 0]]", fillcolor="#e58139ff"] ;
375 -> 383 ;
384 [label="gini = 0.0\nsamples = 1\nvalue = [[0, 0, 2, 0, 0, 0, 0, 0, 0, 0, 0, 0, 0, 0, 0]\n[0, 0, 0, 0, 0, 0, 0, 0, 0, 0, 0, 0, 0, 0, 2]\n[0, 0, 0, 2, 0, 0, 0, 0, 0, 0, 0, 0, 0, 0, 0]]", fillcolor="#e58139ff"] ;
372 -> 384 ;
385 [label="X[8] <= 385.961\ngini = 0.148\nsamples = 2\nvalue = [[0, 0, 0, 0, 6, 0, 0, 0, 0, 0, 0, 0, 0, 0, 0]\n[0, 0, 0, 4, 0, 0, 0, 0, 0, 2, 0, 0, 0, 0, 0]\n[0, 0, 0, 6, 0, 0, 0, 0, 0, 0, 0, 0, 0, 0, 0]]", fillcolor="#e58139b3"] ;
1 -> 385 ;
386 [label="gini = 0.0\nsamples = 1\nvalue = [[0, 0, 0, 0, 4, 0, 0, 0, 0, 0, 0, 0, 0, 0, 0]\n[0, 0, 0, 4, 0, 0, 0, 0, 0, 0, 0, 0, 0, 0, 0]\n[0, 0, 0, 4, 0, 0, 0, 0, 0, 0, 0, 0, 0, 0, 0]]", fillcolor="#e58139ff"] ;
385 -> 386 ;
387 [label="gini = 0.0\nsamples = 1\nvalue = [[0, 0, 0, 0, 2, 0, 0, 0, 0, 0, 0, 0, 0, 0, 0]\n[0, 0, 0, 0, 0, 0, 0, 0, 0, 2, 0, 0, 0, 0, 0]\n[0, 0, 0, 2, 0, 0, 0, 0, 0, 0, 0, 0, 0, 0, 0]]", fillcolor="#e58139ff"] ;
385 -> 387 ;
388 [label="X[13] <= 44.846\ngini = 0.093\nsamples = 3\nvalue = [[0, 0, 0, 0, 6, 0, 0, 0, 0, 0, 0, 0, 0, 0, 0]\n[0, 0, 0, 0, 0, 0, 0, 0, 0, 0, 0, 0, 0, 0, 6]\n[0, 0, 0, 0, 0, 0, 0, 1, 0, 5, 0, 0, 0, 0, 0]]", fillcolor="#e58139cf"] ;
0 -> 388 [labeldistance=2.5, labelangle=-45, headlabel="False"] ;
389 [label="gini = 0.0\nsamples = 2\nvalue = [[0, 0, 0, 0, 5, 0, 0, 0, 0, 0, 0, 0, 0, 0, 0]\n[0, 0, 0, 0, 0, 0, 0, 0, 0, 0, 0, 0, 0, 0, 5]\n[0, 0, 0, 0, 0, 0, 0, 0, 0, 5, 0, 0, 0, 0, 0]]", fillcolor="#e58139ff"] ;
388 -> 389 ;
390 [label="gini = 0.0\nsamples = 1\nvalue = [[0, 0, 0, 0, 1, 0, 0, 0, 0, 0, 0, 0, 0, 0, 0]\n[0, 0, 0, 0, 0, 0, 0, 0, 0, 0, 0, 0, 0, 0, 1]\n[0, 0, 0, 0, 0, 0, 0, 1, 0, 0, 0, 0, 0, 0, 0]]", fillcolor="#e58139ff"] ;
388 -> 390 ;
}