digraph Tree {
node [shape=box, style="filled, rounded", color="black", fontname=helvetica] ;
edge [fontname=helvetica] ;
0 [label="X[10] <= 192.527\ngini = 0.377\nsamples = 332\nvalue = [[1, 4, 37, 3, 457, 0, 0, 0, 0, 0, 0, 0, 0, 0, 0]\n[5, 1, 1, 48, 5, 12, 1, 1, 4, 56, 0, 0, 3, 0, 365]\n[0, 0, 1, 334, 1, 0, 2, 13, 1, 22, 0, 1, 27, 6, 94]]", fillcolor="#e5813959"] ;
1 [label="X[9] <= 37.019\ngini = 0.368\nsamples = 313\nvalue = [[1, 1, 35, 3, 435, 0, 0, 0, 0, 0, 0, 0, 0, 0, 0]\n[5, 1, 1, 46, 3, 12, 1, 1, 4, 54, 0, 0, 3, 0, 344]\n[0, 0, 1, 325, 1, 0, 2, 13, 1, 21, 0, 1, 23, 4, 83]]", fillcolor="#e581395d"] ;
0 -> 1 [labeldistance=2.5, labelangle=45, headlabel="True"] ;
2 [label="X[1] <= 3.5\ngini = 0.358\nsamples = 266\nvalue = [[0, 1, 24, 3, 377, 0, 0, 0, 0, 0, 0, 0, 0, 0, 0]\n[5, 1, 1, 39, 3, 12, 1, 1, 1, 52, 0, 0, 1, 0, 288]\n[0, 0, 1, 285, 1, 0, 2, 11, 0, 19, 0, 1, 18, 4, 63]]", fillcolor="#e5813961"] ;
1 -> 2 ;
3 [label="X[5] <= 9.752\ngini = 0.371\nsamples = 233\nvalue = [[0, 1, 23, 3, 327, 0, 0, 0, 0, 0, 0, 0, 0, 0, 0]\n[5, 1, 1, 31, 3, 12, 1, 1, 1, 39, 0, 0, 1, 0, 258]\n[0, 0, 1, 235, 1, 0, 2, 11, 0, 19, 0, 1, 18, 4, 62]]", fillcolor="#e581395c"] ;
2 -> 3 ;
4 [label="X[7] <= 192.173\ngini = 0.365\nsamples = 190\nvalue = [[0, 0, 19, 2, 262, 0, 0, 0, 0, 0, 0, 0, 0, 0, 0]\n[5, 1, 1, 26, 3, 8, 1, 0, 1, 39, 0, 0, 1, 0, 197]\n[0, 0, 1, 200, 1, 0, 1, 4, 0, 15, 0, 1, 11, 3, 46]]", fillcolor="#e581395e"] ;
3 -> 4 ;
5 [label="X[17] <= 0.005\ngini = 0.353\nsamples = 179\nvalue = [[0, 0, 15, 2, 247, 0, 0, 0, 0, 0, 0, 0, 0, 0, 0]\n[5, 0, 1, 17, 2, 8, 1, 0, 1, 39, 0, 0, 1, 0, 189]\n[0, 0, 0, 185, 1, 0, 1, 4, 0, 15, 0, 1, 11, 3, 43]]", fillcolor="#e5813964"] ;
4 -> 5 ;
6 [label="X[12] <= 38.099\ngini = 0.445\nsamples = 56\nvalue = [[0, 0, 7, 0, 75, 0, 0, 0, 0, 0, 0, 0, 0, 0, 0]\n[5, 0, 0, 7, 2, 2, 0, 0, 0, 15, 0, 0, 1, 0, 50]\n[0, 0, 0, 47, 0, 0, 1, 0, 0, 4, 0, 0, 6, 3, 21]]", fillcolor="#e581393b"] ;
5 -> 6 ;
7 [label="X[18] <= 90.058\ngini = 0.439\nsamples = 54\nvalue = [[0, 0, 7, 0, 70, 0, 0, 0, 0, 0, 0, 0, 0, 0, 0]\n[5, 0, 0, 2, 2, 2, 0, 0, 0, 15, 0, 0, 1, 0, 50]\n[0, 0, 0, 42, 0, 0, 1, 0, 0, 4, 0, 0, 6, 3, 21]]", fillcolor="#e581393e"] ;
6 -> 7 ;
8 [label="X[14] <= 179.977\ngini = 0.26\nsamples = 8\nvalue = [[0, 0, 0, 0, 10, 0, 0, 0, 0, 0, 0, 0, 0, 0, 0]\n[2, 0, 0, 0, 0, 1, 0, 0, 0, 7, 0, 0, 0, 0, 0]\n[0, 0, 0, 8, 0, 0, 0, 0, 0, 0, 0, 0, 0, 0, 2]]", fillcolor="#e581398c"] ;
7 -> 8 ;
9 [label="gini = 0.0\nsamples = 1\nvalue = [[0, 0, 0, 0, 2, 0, 0, 0, 0, 0, 0, 0, 0, 0, 0]\n[2, 0, 0, 0, 0, 0, 0, 0, 0, 0, 0, 0, 0, 0, 0]\n[0, 0, 0, 0, 0, 0, 0, 0, 0, 0, 0, 0, 0, 0, 2]]", fillcolor="#e58139ff"] ;
8 -> 9 ;
10 [label="X[19] <= 38.802\ngini = 0.073\nsamples = 7\nvalue = [[0, 0, 0, 0, 8, 0, 0, 0, 0, 0, 0, 0, 0, 0, 0]\n[0, 0, 0, 0, 0, 1, 0, 0, 0, 7, 0, 0, 0, 0, 0]\n[0, 0, 0, 8, 0, 0, 0, 0, 0, 0, 0, 0, 0, 0, 0]]", fillcolor="#e58139df"] ;
8 -> 10 ;
11 [label="gini = 0.0\nsamples = 6\nvalue = [[0, 0, 0, 0, 7, 0, 0, 0, 0, 0, 0, 0, 0, 0, 0]\n[0, 0, 0, 0, 0, 0, 0, 0, 0, 7, 0, 0, 0, 0, 0]\n[0, 0, 0, 7, 0, 0, 0, 0, 0, 0, 0, 0, 0, 0, 0]]", fillcolor="#e58139ff"] ;
10 -> 11 ;
12 [label="gini = 0.0\nsamples = 1\nvalue = [[0, 0, 0, 0, 1, 0, 0, 0, 0, 0, 0, 0, 0, 0, 0]\n[0, 0, 0, 0, 0, 1, 0, 0, 0, 0, 0, 0, 0, 0, 0]\n[0, 0, 0, 1, 0, 0, 0, 0, 0, 0, 0, 0, 0, 0, 0]]", fillcolor="#e58139ff"] ;
10 -> 12 ;
13 [label="X[10] <= 169.07\ngini = 0.42\nsamples = 46\nvalue = [[0, 0, 7, 0, 60, 0, 0, 0, 0, 0, 0, 0, 0, 0, 0]\n[3, 0, 0, 2, 2, 1, 0, 0, 0, 8, 0, 0, 1, 0, 50]\n[0, 0, 0, 34, 0, 0, 1, 0, 0, 4, 0, 0, 6, 3, 19]]", fillcolor="#e5813946"] ;
7 -> 13 ;
14 [label="X[17] <= 0.001\ngini = 0.399\nsamples = 45\nvalue = [[0, 0, 4, 0, 60, 0, 0, 0, 0, 0, 0, 0, 0, 0, 0]\n[3, 0, 0, 2, 2, 1, 0, 0, 0, 8, 0, 0, 1, 0, 47]\n[0, 0, 0, 34, 0, 0, 1, 0, 0, 4, 0, 0, 6, 3, 16]]", fillcolor="#e581394f"] ;
13 -> 14 ;
15 [label="X[19] <= 28.609\ngini = 0.303\nsamples = 34\nvalue = [[0, 0, 1, 0, 48, 0, 0, 0, 0, 0, 0, 0, 0, 0, 0]\n[0, 0, 0, 1, 2, 1, 0, 0, 0, 4, 0, 0, 0, 0, 41]\n[0, 0, 0, 30, 0, 0, 0, 0, 0, 3, 0, 0, 4, 3, 9]]", fillcolor="#e581397a"] ;
14 -> 15 ;
16 [label="X[0] <= 17.0\ngini = 0.25\nsamples = 2\nvalue = [[0, 0, 0, 0, 4, 0, 0, 0, 0, 0, 0, 0, 0, 0, 0]\n[0, 0, 0, 1, 0, 0, 0, 0, 0, 0, 0, 0, 0, 0, 3]\n[0, 0, 0, 0, 0, 0, 0, 0, 0, 0, 0, 0, 1, 3, 0]]", fillcolor="#e5813991"] ;
15 -> 16 ;
17 [label="gini = 0.0\nsamples = 1\nvalue = [[0, 0, 0, 0, 3, 0, 0, 0, 0, 0, 0, 0, 0, 0, 0]\n[0, 0, 0, 0, 0, 0, 0, 0, 0, 0, 0, 0, 0, 0, 3]\n[0, 0, 0, 0, 0, 0, 0, 0, 0, 0, 0, 0, 0, 3, 0]]", fillcolor="#e58139ff"] ;
16 -> 17 ;
18 [label="gini = 0.0\nsamples = 1\nvalue = [[0, 0, 0, 0, 1, 0, 0, 0, 0, 0, 0, 0, 0, 0, 0]\n[0, 0, 0, 1, 0, 0, 0, 0, 0, 0, 0, 0, 0, 0, 0]\n[0, 0, 0, 0, 0, 0, 0, 0, 0, 0, 0, 0, 1, 0, 0]]", fillcolor="#e58139ff"] ;
16 -> 18 ;
19 [label="X[10] <= 165.161\ngini = 0.276\nsamples = 32\nvalue = [[0, 0, 1, 0, 44, 0, 0, 0, 0, 0, 0, 0, 0, 0, 0]\n[0, 0, 0, 0, 2, 1, 0, 0, 0, 4, 0, 0, 0, 0, 38]\n[0, 0, 0, 30, 0, 0, 0, 0, 0, 3, 0, 0, 3, 0, 9]]", fillcolor="#e5813986"] ;
15 -> 19 ;
20 [label="X[19] <= 37.49\ngini = 0.247\nsamples = 30\nvalue = [[0, 0, 1, 0, 40, 0, 0, 0, 0, 0, 0, 0, 0, 0, 0]\n[0, 0, 0, 0, 2, 1, 0, 0, 0, 1, 0, 0, 0, 0, 37]\n[0, 0, 0, 27, 0, 0, 0, 0, 0, 2, 0, 0, 3, 0, 9]]", fillcolor="#e5813992"] ;
19 -> 20 ;
21 [label="X[19] <= 32.8\ngini = 0.115\nsamples = 13\nvalue = [[0, 0, 1, 0, 15, 0, 0, 0, 0, 0, 0, 0, 0, 0, 0]\n[0, 0, 0, 0, 0, 0, 0, 0, 0, 0, 0, 0, 0, 0, 16]\n[0, 0, 0, 14, 0, 0, 0, 0, 0, 1, 0, 0, 1, 0, 0]]", fillcolor="#e58139cd"] ;
20 -> 21 ;
22 [label="X[19] <= 32.725\ngini = 0.187\nsamples = 4\nvalue = [[0, 0, 0, 0, 5, 0, 0, 0, 0, 0, 0, 0, 0, 0, 0]\n[0, 0, 0, 0, 0, 0, 0, 0, 0, 0, 0, 0, 0, 0, 5]\n[0, 0, 0, 3, 0, 0, 0, 0, 0, 1, 0, 0, 1, 0, 0]]", fillcolor="#e58139ad"] ;
21 -> 22 ;
23 [label="X[16] <= 89.922\ngini = 0.125\nsamples = 3\nvalue = [[0, 0, 0, 0, 4, 0, 0, 0, 0, 0, 0, 0, 0, 0, 0]\n[0, 0, 0, 0, 0, 0, 0, 0, 0, 0, 0, 0, 0, 0, 4]\n[0, 0, 0, 3, 0, 0, 0, 0, 0, 0, 0, 0, 1, 0, 0]]", fillcolor="#e58139c8"] ;
22 -> 23 ;
24 [label="gini = 0.0\nsamples = 2\nvalue = [[0, 0, 0, 0, 3, 0, 0, 0, 0, 0, 0, 0, 0, 0, 0]\n[0, 0, 0, 0, 0, 0, 0, 0, 0, 0, 0, 0, 0, 0, 3]\n[0, 0, 0, 3, 0, 0, 0, 0, 0, 0, 0, 0, 0, 0, 0]]", fillcolor="#e58139ff"] ;
23 -> 24 ;
25 [label="gini = 0.0\nsamples = 1\nvalue = [[0, 0, 0, 0, 1, 0, 0, 0, 0, 0, 0, 0, 0, 0, 0]\n[0, 0, 0, 0, 0, 0, 0, 0, 0, 0, 0, 0, 0, 0, 1]\n[0, 0, 0, 0, 0, 0, 0, 0, 0, 0, 0, 0, 1, 0, 0]]", fillcolor="#e58139ff"] ;
23 -> 25 ;
26 [label="gini = 0.0\nsamples = 1\nvalue = [[0, 0, 0, 0, 1, 0, 0, 0, 0, 0, 0, 0, 0, 0, 0]\n[0, 0, 0, 0, 0, 0, 0, 0, 0, 0, 0, 0, 0, 0, 1]\n[0, 0, 0, 0, 0, 0, 0, 0, 0, 1, 0, 0, 0, 0, 0]]", fillcolor="#e58139ff"] ;
22 -> 26 ;
27 [label="X[19] <= 32.965\ngini = 0.055\nsamples = 9\nvalue = [[0, 0, 1, 0, 10, 0, 0, 0, 0, 0, 0, 0, 0, 0, 0]\n[0, 0, 0, 0, 0, 0, 0, 0, 0, 0, 0, 0, 0, 0, 11]\n[0, 0, 0, 11, 0, 0, 0, 0, 0, 0, 0, 0, 0, 0, 0]]", fillcolor="#e58139e7"] ;
21 -> 27 ;
28 [label="X[18] <= 90.269\ngini = 0.125\nsamples = 3\nvalue = [[0, 0, 1, 0, 3, 0, 0, 0, 0, 0, 0, 0, 0, 0, 0]\n[0, 0, 0, 0, 0, 0, 0, 0, 0, 0, 0, 0, 0, 0, 4]\n[0, 0, 0, 4, 0, 0, 0, 0, 0, 0, 0, 0, 0, 0, 0]]", fillcolor="#e58139c8"] ;
27 -> 28 ;
29 [label="gini = 0.0\nsamples = 2\nvalue = [[0, 0, 0, 0, 3, 0, 0, 0, 0, 0, 0, 0, 0, 0, 0]\n[0, 0, 0, 0, 0, 0, 0, 0, 0, 0, 0, 0, 0, 0, 3]\n[0, 0, 0, 3, 0, 0, 0, 0, 0, 0, 0, 0, 0, 0, 0]]", fillcolor="#e58139ff"] ;
28 -> 29 ;
30 [label="gini = 0.0\nsamples = 1\nvalue = [[0, 0, 1, 0, 0, 0, 0, 0, 0, 0, 0, 0, 0, 0, 0]\n[0, 0, 0, 0, 0, 0, 0, 0, 0, 0, 0, 0, 0, 0, 1]\n[0, 0, 0, 1, 0, 0, 0, 0, 0, 0, 0, 0, 0, 0, 0]]", fillcolor="#e58139ff"] ;
28 -> 30 ;
31 [label="gini = 0.0\nsamples = 6\nvalue = [[0, 0, 0, 0, 7, 0, 0, 0, 0, 0, 0, 0, 0, 0, 0]\n[0, 0, 0, 0, 0, 0, 0, 0, 0, 0, 0, 0, 0, 0, 7]\n[0, 0, 0, 7, 0, 0, 0, 0, 0, 0, 0, 0, 0, 0, 0]]", fillcolor="#e58139ff"] ;
27 -> 31 ;
32 [label="X[5] <= 0.99\ngini = 0.292\nsamples = 17\nvalue = [[0, 0, 0, 0, 25, 0, 0, 0, 0, 0, 0, 0, 0, 0, 0]\n[0, 0, 0, 0, 2, 1, 0, 0, 0, 1, 0, 0, 0, 0, 21]\n[0, 0, 0, 13, 0, 0, 0, 0, 0, 1, 0, 0, 2, 0, 9]]", fillcolor="#e581397e"] ;
20 -> 32 ;
33 [label="gini = 0.0\nsamples = 1\nvalue = [[0, 0, 0, 0, 2, 0, 0, 0, 0, 0, 0, 0, 0, 0, 0]\n[0, 0, 0, 0, 2, 0, 0, 0, 0, 0, 0, 0, 0, 0, 0]\n[0, 0, 0, 0, 0, 0, 0, 0, 0, 0, 0, 0, 0, 0, 2]]", fillcolor="#e58139ff"] ;
32 -> 33 ;
34 [label="X[17] <= 0.0\ngini = 0.247\nsamples = 16\nvalue = [[0, 0, 0, 0, 23, 0, 0, 0, 0, 0, 0, 0, 0, 0, 0]\n[0, 0, 0, 0, 0, 1, 0, 0, 0, 1, 0, 0, 0, 0, 21]\n[0, 0, 0, 13, 0, 0, 0, 0, 0, 1, 0, 0, 2, 0, 7]]", fillcolor="#e5813992"] ;
32 -> 34 ;
35 [label="X[5] <= 6.986\ngini = 0.211\nsamples = 15\nvalue = [[0, 0, 0, 0, 22, 0, 0, 0, 0, 0, 0, 0, 0, 0, 0]\n[0, 0, 0, 0, 0, 0, 0, 0, 0, 1, 0, 0, 0, 0, 21]\n[0, 0, 0, 13, 0, 0, 0, 0, 0, 1, 0, 0, 1, 0, 7]]", fillcolor="#e58139a2"] ;
34 -> 35 ;
36 [label="X[16] <= 89.714\ngini = 0.246\nsamples = 11\nvalue = [[0, 0, 0, 0, 15, 0, 0, 0, 0, 0, 0, 0, 0, 0, 0]\n[0, 0, 0, 0, 0, 0, 0, 0, 0, 1, 0, 0, 0, 0, 14]\n[0, 0, 0, 6, 0, 0, 0, 0, 0, 1, 0, 0, 1, 0, 7]]", fillcolor="#e5813993"] ;
35 -> 36 ;
37 [label="gini = 0.0\nsamples = 2\nvalue = [[0, 0, 0, 0, 4, 0, 0, 0, 0, 0, 0, 0, 0, 0, 0]\n[0, 0, 0, 0, 0, 0, 0, 0, 0, 0, 0, 0, 0, 0, 4]\n[0, 0, 0, 0, 0, 0, 0, 0, 0, 0, 0, 0, 0, 0, 4]]", fillcolor="#e58139ff"] ;
36 -> 37 ;
38 [label="X[19] <= 38.549\ngini = 0.259\nsamples = 9\nvalue = [[0, 0, 0, 0, 11, 0, 0, 0, 0, 0, 0, 0, 0, 0, 0]\n[0, 0, 0, 0, 0, 0, 0, 0, 0, 1, 0, 0, 0, 0, 10]\n[0, 0, 0, 6, 0, 0, 0, 0, 0, 1, 0, 0, 1, 0, 3]]", fillcolor="#e581398d"] ;
36 -> 38 ;
39 [label="gini = 0.0\nsamples = 1\nvalue = [[0, 0, 0, 0, 1, 0, 0, 0, 0, 0, 0, 0, 0, 0, 0]\n[0, 0, 0, 0, 0, 0, 0, 0, 0, 1, 0, 0, 0, 0, 0]\n[0, 0, 0, 0, 0, 0, 0, 0, 0, 0, 0, 0, 1, 0, 0]]", fillcolor="#e58139ff"] ;
38 -> 39 ;
40 [label="X[9] <= 3.101\ngini = 0.18\nsamples = 8\nvalue = [[0, 0, 0, 0, 10, 0, 0, 0, 0, 0, 0, 0, 0, 0, 0]\n[0, 0, 0, 0, 0, 0, 0, 0, 0, 0, 0, 0, 0, 0, 10]\n[0, 0, 0, 6, 0, 0, 0, 0, 0, 1, 0, 0, 0, 0, 3]]", fillcolor="#e58139b0"] ;
38 -> 40 ;
41 [label="X[20] <= 3.799\ngini = 0.125\nsamples = 3\nvalue = [[0, 0, 0, 0, 4, 0, 0, 0, 0, 0, 0, 0, 0, 0, 0]\n[0, 0, 0, 0, 0, 0, 0, 0, 0, 0, 0, 0, 0, 0, 4]\n[0, 0, 0, 1, 0, 0, 0, 0, 0, 0, 0, 0, 0, 0, 3]]", fillcolor="#e58139c8"] ;
40 -> 41 ;
42 [label="gini = 0.0\nsamples = 2\nvalue = [[0, 0, 0, 0, 3, 0, 0, 0, 0, 0, 0, 0, 0, 0, 0]\n[0, 0, 0, 0, 0, 0, 0, 0, 0, 0, 0, 0, 0, 0, 3]\n[0, 0, 0, 0, 0, 0, 0, 0, 0, 0, 0, 0, 0, 0, 3]]", fillcolor="#e58139ff"] ;
41 -> 42 ;
43 [label="gini = 0.0\nsamples = 1\nvalue = [[0, 0, 0, 0, 1, 0, 0, 0, 0, 0, 0, 0, 0, 0, 0]\n[0, 0, 0, 0, 0, 0, 0, 0, 0, 0, 0, 0, 0, 0, 1]\n[0, 0, 0, 1, 0, 0, 0, 0, 0, 0, 0, 0, 0, 0, 0]]", fillcolor="#e58139ff"] ;
41 -> 43 ;
44 [label="X[11] <= 48.237\ngini = 0.093\nsamples = 5\nvalue = [[0, 0, 0, 0, 6, 0, 0, 0, 0, 0, 0, 0, 0, 0, 0]\n[0, 0, 0, 0, 0, 0, 0, 0, 0, 0, 0, 0, 0, 0, 6]\n[0, 0, 0, 5, 0, 0, 0, 0, 0, 1, 0, 0, 0, 0, 0]]", fillcolor="#e58139d6"] ;
40 -> 44 ;
45 [label="gini = 0.0\nsamples = 4\nvalue = [[0, 0, 0, 0, 5, 0, 0, 0, 0, 0, 0, 0, 0, 0, 0]\n[0, 0, 0, 0, 0, 0, 0, 0, 0, 0, 0, 0, 0, 0, 5]\n[0, 0, 0, 5, 0, 0, 0, 0, 0, 0, 0, 0, 0, 0, 0]]", fillcolor="#e58139ff"] ;
44 -> 45 ;
46 [label="gini = 0.0\nsamples = 1\nvalue = [[0, 0, 0, 0, 1, 0, 0, 0, 0, 0, 0, 0, 0, 0, 0]\n[0, 0, 0, 0, 0, 0, 0, 0, 0, 0, 0, 0, 0, 0, 1]\n[0, 0, 0, 0, 0, 0, 0, 0, 0, 1, 0, 0, 0, 0, 0]]", fillcolor="#e58139ff"] ;
44 -> 46 ;
47 [label="gini = 0.0\nsamples = 4\nvalue = [[0, 0, 0, 0, 7, 0, 0, 0, 0, 0, 0, 0, 0, 0, 0]\n[0, 0, 0, 0, 0, 0, 0, 0, 0, 0, 0, 0, 0, 0, 7]\n[0, 0, 0, 7, 0, 0, 0, 0, 0, 0, 0, 0, 0, 0, 0]]", fillcolor="#e58139ff"] ;
35 -> 47 ;
48 [label="gini = 0.0\nsamples = 1\nvalue = [[0, 0, 0, 0, 1, 0, 0, 0, 0, 0, 0, 0, 0, 0, 0]\n[0, 0, 0, 0, 0, 1, 0, 0, 0, 0, 0, 0, 0, 0, 0]\n[0, 0, 0, 0, 0, 0, 0, 0, 0, 0, 0, 0, 1, 0, 0]]", fillcolor="#e58139ff"] ;
34 -> 48 ;
49 [label="X[14] <= 179.751\ngini = 0.25\nsamples = 2\nvalue = [[0, 0, 0, 0, 4, 0, 0, 0, 0, 0, 0, 0, 0, 0, 0]\n[0, 0, 0, 0, 0, 0, 0, 0, 0, 3, 0, 0, 0, 0, 1]\n[0, 0, 0, 3, 0, 0, 0, 0, 0, 1, 0, 0, 0, 0, 0]]", fillcolor="#e5813991"] ;
19 -> 49 ;
50 [label="gini = 0.0\nsamples = 1\nvalue = [[0, 0, 0, 0, 3, 0, 0, 0, 0, 0, 0, 0, 0, 0, 0]\n[0, 0, 0, 0, 0, 0, 0, 0, 0, 3, 0, 0, 0, 0, 0]\n[0, 0, 0, 3, 0, 0, 0, 0, 0, 0, 0, 0, 0, 0, 0]]", fillcolor="#e58139ff"] ;
49 -> 50 ;
51 [label="gini = 0.0\nsamples = 1\nvalue = [[0, 0, 0, 0, 1, 0, 0, 0, 0, 0, 0, 0, 0, 0, 0]\n[0, 0, 0, 0, 0, 0, 0, 0, 0, 0, 0, 0, 0, 0, 1]\n[0, 0, 0, 0, 0, 0, 0, 0, 0, 1, 0, 0, 0, 0, 0]]", fillcolor="#e58139ff"] ;
49 -> 51 ;
52 [label="X[14] <= 179.997\ngini = 0.575\nsamples = 11\nvalue = [[0, 0, 3, 0, 12, 0, 0, 0, 0, 0, 0, 0, 0, 0, 0]\n[3, 0, 0, 1, 0, 0, 0, 0, 0, 4, 0, 0, 1, 0, 6]\n[0, 0, 0, 4, 0, 0, 1, 0, 0, 1, 0, 0, 2, 0, 7]]", fillcolor="#e5813902"] ;
14 -> 52 ;
53 [label="X[18] <= 92.315\ngini = 0.579\nsamples = 10\nvalue = [[0, 0, 3, 0, 9, 0, 0, 0, 0, 0, 0, 0, 0, 0, 0]\n[0, 0, 0, 1, 0, 0, 0, 0, 0, 4, 0, 0, 1, 0, 6]\n[0, 0, 0, 4, 0, 0, 1, 0, 0, 1, 0, 0, 2, 0, 4]]", fillcolor="#e5813900"] ;
52 -> 53 ;
54 [label="X[7] <= 98.521\ngini = 0.448\nsamples = 7\nvalue = [[0, 0, 0, 0, 8, 0, 0, 0, 0, 0, 0, 0, 0, 0, 0]\n[0, 0, 0, 1, 0, 0, 0, 0, 0, 4, 0, 0, 0, 0, 3]\n[0, 0, 0, 3, 0, 0, 1, 0, 0, 1, 0, 0, 1, 0, 2]]", fillcolor="#e581393a"] ;
53 -> 54 ;
55 [label="X[11] <= 28.673\ngini = 0.148\nsamples = 2\nvalue = [[0, 0, 0, 0, 3, 0, 0, 0, 0, 0, 0, 0, 0, 0, 0]\n[0, 0, 0, 0, 0, 0, 0, 0, 0, 3, 0, 0, 0, 0, 0]\n[0, 0, 0, 2, 0, 0, 0, 0, 0, 0, 0, 0, 0, 0, 1]]", fillcolor="#e58139be"] ;
54 -> 55 ;
56 [label="gini = 0.0\nsamples = 1\nvalue = [[0, 0, 0, 0, 1, 0, 0, 0, 0, 0, 0, 0, 0, 0, 0]\n[0, 0, 0, 0, 0, 0, 0, 0, 0, 1, 0, 0, 0, 0, 0]\n[0, 0, 0, 0, 0, 0, 0, 0, 0, 0, 0, 0, 0, 0, 1]]", fillcolor="#e58139ff"] ;
55 -> 56 ;
57 [label="gini = 0.0\nsamples = 1\nvalue = [[0, 0, 0, 0, 2, 0, 0, 0, 0, 0, 0, 0, 0, 0, 0]\n[0, 0, 0, 0, 0, 0, 0, 0, 0, 2, 0, 0, 0, 0, 0]\n[0, 0, 0, 2, 0, 0, 0, 0, 0, 0, 0, 0, 0, 0, 0]]", fillcolor="#e58139ff"] ;
55 -> 57 ;
58 [label="X[13] <= 0.005\ngini = 0.453\nsamples = 5\nvalue = [[0, 0, 0, 0, 5, 0, 0, 0, 0, 0, 0, 0, 0, 0, 0]\n[0, 0, 0, 1, 0, 0, 0, 0, 0, 1, 0, 0, 0, 0, 3]\n[0, 0, 0, 1, 0, 0, 1, 0, 0, 1, 0, 0, 1, 0, 1]]", fillcolor="#e5813937"] ;
54 -> 58 ;
59 [label="X[13] <= 0.002\ngini = 0.222\nsamples = 3\nvalue = [[0, 0, 0, 0, 3, 0, 0, 0, 0, 0, 0, 0, 0, 0, 0]\n[0, 0, 0, 0, 0, 0, 0, 0, 0, 0, 0, 0, 0, 0, 3]\n[0, 0, 0, 0, 0, 0, 1, 0, 0, 1, 0, 0, 0, 0, 1]]", fillcolor="#e581399d"] ;
58 -> 59 ;
60 [label="gini = 0.0\nsamples = 1\nvalue = [[0, 0, 0, 0, 1, 0, 0, 0, 0, 0, 0, 0, 0, 0, 0]\n[0, 0, 0, 0, 0, 0, 0, 0, 0, 0, 0, 0, 0, 0, 1]\n[0, 0, 0, 0, 0, 0, 0, 0, 0, 1, 0, 0, 0, 0, 0]]", fillcolor="#e58139ff"] ;
59 -> 60 ;
61 [label="X[14] <= 179.978\ngini = 0.167\nsamples = 2\nvalue = [[0, 0, 0, 0, 2, 0, 0, 0, 0, 0, 0, 0, 0, 0, 0]\n[0, 0, 0, 0, 0, 0, 0, 0, 0, 0, 0, 0, 0, 0, 2]\n[0, 0, 0, 0, 0, 0, 1, 0, 0, 0, 0, 0, 0, 0, 1]]", fillcolor="#e58139b6"] ;
59 -> 61 ;
62 [label="gini = 0.0\nsamples = 1\nvalue = [[0, 0, 0, 0, 1, 0, 0, 0, 0, 0, 0, 0, 0, 0, 0]\n[0, 0, 0, 0, 0, 0, 0, 0, 0, 0, 0, 0, 0, 0, 1]\n[0, 0, 0, 0, 0, 0, 0, 0, 0, 0, 0, 0, 0, 0, 1]]", fillcolor="#e58139ff"] ;
61 -> 62 ;
63 [label="gini = 0.0\nsamples = 1\nvalue = [[0, 0, 0, 0, 1, 0, 0, 0, 0, 0, 0, 0, 0, 0, 0]\n[0, 0, 0, 0, 0, 0, 0, 0, 0, 0, 0, 0, 0, 0, 1]\n[0, 0, 0, 0, 0, 0, 1, 0, 0, 0, 0, 0, 0, 0, 0]]", fillcolor="#e58139ff"] ;
61 -> 63 ;
64 [label="X[16] <= 89.838\ngini = 0.333\nsamples = 2\nvalue = [[0, 0, 0, 0, 2, 0, 0, 0, 0, 0, 0, 0, 0, 0, 0]\n[0, 0, 0, 1, 0, 0, 0, 0, 0, 1, 0, 0, 0, 0, 0]\n[0, 0, 0, 1, 0, 0, 0, 0, 0, 0, 0, 0, 1, 0, 0]]", fillcolor="#e581396c"] ;
58 -> 64 ;
65 [label="gini = 0.0\nsamples = 1\nvalue = [[0, 0, 0, 0, 1, 0, 0, 0, 0, 0, 0, 0, 0, 0, 0]\n[0, 0, 0, 1, 0, 0, 0, 0, 0, 0, 0, 0, 0, 0, 0]\n[0, 0, 0, 0, 0, 0, 0, 0, 0, 0, 0, 0, 1, 0, 0]]", fillcolor="#e58139ff"] ;
64 -> 65 ;
66 [label="gini = 0.0\nsamples = 1\nvalue = [[0, 0, 0, 0, 1, 0, 0, 0, 0, 0, 0, 0, 0, 0, 0]\n[0, 0, 0, 0, 0, 0, 0, 0, 0, 1, 0, 0, 0, 0, 0]\n[0, 0, 0, 1, 0, 0, 0, 0, 0, 0, 0, 0, 0, 0, 0]]", fillcolor="#e58139ff"] ;
64 -> 66 ;
67 [label="X[11] <= 50.728\ngini = 0.458\nsamples = 3\nvalue = [[0, 0, 3, 0, 1, 0, 0, 0, 0, 0, 0, 0, 0, 0, 0]\n[0, 0, 0, 0, 0, 0, 0, 0, 0, 0, 0, 0, 1, 0, 3]\n[0, 0, 0, 1, 0, 0, 0, 0, 0, 0, 0, 0, 1, 0, 2]]", fillcolor="#e5813935"] ;
53 -> 67 ;
68 [label="gini = 0.0\nsamples = 1\nvalue = [[0, 0, 1, 0, 0, 0, 0, 0, 0, 0, 0, 0, 0, 0, 0]\n[0, 0, 0, 0, 0, 0, 0, 0, 0, 0, 0, 0, 1, 0, 0]\n[0, 0, 0, 0, 0, 0, 0, 0, 0, 0, 0, 0, 1, 0, 0]]", fillcolor="#e58139ff"] ;
67 -> 68 ;
69 [label="X[20] <= 2.224\ngini = 0.296\nsamples = 2\nvalue = [[0, 0, 2, 0, 1, 0, 0, 0, 0, 0, 0, 0, 0, 0, 0]\n[0, 0, 0, 0, 0, 0, 0, 0, 0, 0, 0, 0, 0, 0, 3]\n[0, 0, 0, 1, 0, 0, 0, 0, 0, 0, 0, 0, 0, 0, 2]]", fillcolor="#e581397c"] ;
67 -> 69 ;
70 [label="gini = 0.0\nsamples = 1\nvalue = [[0, 0, 2, 0, 0, 0, 0, 0, 0, 0, 0, 0, 0, 0, 0]\n[0, 0, 0, 0, 0, 0, 0, 0, 0, 0, 0, 0, 0, 0, 2]\n[0, 0, 0, 0, 0, 0, 0, 0, 0, 0, 0, 0, 0, 0, 2]]", fillcolor="#e58139ff"] ;
69 -> 70 ;
71 [label="gini = 0.0\nsamples = 1\nvalue = [[0, 0, 0, 0, 1, 0, 0, 0, 0, 0, 0, 0, 0, 0, 0]\n[0, 0, 0, 0, 0, 0, 0, 0, 0, 0, 0, 0, 0, 0, 1]\n[0, 0, 0, 1, 0, 0, 0, 0, 0, 0, 0, 0, 0, 0, 0]]", fillcolor="#e58139ff"] ;
69 -> 71 ;
72 [label="gini = 0.0\nsamples = 1\nvalue = [[0, 0, 0, 0, 3, 0, 0, 0, 0, 0, 0, 0, 0, 0, 0]\n[3, 0, 0, 0, 0, 0, 0, 0, 0, 0, 0, 0, 0, 0, 0]\n[0, 0, 0, 0, 0, 0, 0, 0, 0, 0, 0, 0, 0, 0, 3]]", fillcolor="#e58139ff"] ;
52 -> 72 ;
73 [label="gini = 0.0\nsamples = 1\nvalue = [[0, 0, 3, 0, 0, 0, 0, 0, 0, 0, 0, 0, 0, 0, 0]\n[0, 0, 0, 0, 0, 0, 0, 0, 0, 0, 0, 0, 0, 0, 3]\n[0, 0, 0, 0, 0, 0, 0, 0, 0, 0, 0, 0, 0, 0, 3]]", fillcolor="#e58139ff"] ;
13 -> 73 ;
74 [label="gini = 0.0\nsamples = 2\nvalue = [[0, 0, 0, 0, 5, 0, 0, 0, 0, 0, 0, 0, 0, 0, 0]\n[0, 0, 0, 5, 0, 0, 0, 0, 0, 0, 0, 0, 0, 0, 0]\n[0, 0, 0, 5, 0, 0, 0, 0, 0, 0, 0, 0, 0, 0, 0]]", fillcolor="#e58139ff"] ;
6 -> 74 ;
75 [label="X[16] <= 89.974\ngini = 0.302\nsamples = 123\nvalue = [[0, 0, 8, 2, 172, 0, 0, 0, 0, 0, 0, 0, 0, 0, 0]\n[0, 0, 1, 10, 0, 6, 1, 0, 1, 24, 0, 0, 0, 0, 139]\n[0, 0, 0, 138, 1, 0, 0, 4, 0, 11, 0, 1, 5, 0, 22]]", fillcolor="#e581397a"] ;
5 -> 75 ;
76 [label="X[8] <= 132.383\ngini = 0.279\nsamples = 97\nvalue = [[0, 0, 6, 2, 138, 0, 0, 0, 0, 0, 0, 0, 0, 0, 0]\n[0, 0, 1, 7, 0, 6, 0, 0, 1, 24, 0, 0, 0, 0, 107]\n[0, 0, 0, 121, 1, 0, 0, 2, 0, 4, 0, 0, 3, 0, 15]]", fillcolor="#e5813984"] ;
75 -> 76 ;
77 [label="X[14] <= 179.984\ngini = 0.266\nsamples = 94\nvalue = [[0, 0, 4, 2, 136, 0, 0, 0, 0, 0, 0, 0, 0, 0, 0]\n[0, 0, 1, 7, 0, 6, 0, 0, 1, 24, 0, 0, 0, 0, 103]\n[0, 0, 0, 120, 1, 0, 0, 2, 0, 4, 0, 0, 2, 0, 13]]", fillcolor="#e581398a"] ;
76 -> 77 ;
78 [label="X[8] <= 104.095\ngini = 0.225\nsamples = 57\nvalue = [[0, 0, 0, 2, 87, 0, 0, 0, 0, 0, 0, 0, 0, 0, 0]\n[0, 0, 0, 3, 0, 5, 0, 0, 0, 7, 0, 0, 0, 0, 74]\n[0, 0, 0, 72, 1, 0, 0, 1, 0, 4, 0, 0, 2, 0, 9]]", fillcolor="#e581399c"] ;
77 -> 78 ;
79 [label="X[19] <= 32.908\ngini = 0.211\nsamples = 53\nvalue = [[0, 0, 0, 2, 79, 0, 0, 0, 0, 0, 0, 0, 0, 0, 0]\n[0, 0, 0, 1, 0, 5, 0, 0, 0, 4, 0, 0, 0, 0, 71]\n[0, 0, 0, 64, 1, 0, 0, 1, 0, 4, 0, 0, 2, 0, 9]]", fillcolor="#e58139a2"] ;
78 -> 79 ;
80 [label="X[13] <= 0.007\ngini = 0.108\nsamples = 27\nvalue = [[0, 0, 0, 0, 46, 0, 0, 0, 0, 0, 0, 0, 0, 0, 0]\n[0, 0, 0, 1, 0, 1, 0, 0, 0, 2, 0, 0, 0, 0, 42]\n[0, 0, 0, 42, 0, 0, 0, 0, 0, 3, 0, 0, 0, 0, 1]]", fillcolor="#e58139cf"] ;
79 -> 80 ;
81 [label="X[17] <= 0.024\ngini = 0.167\nsamples = 2\nvalue = [[0, 0, 0, 0, 4, 0, 0, 0, 0, 0, 0, 0, 0, 0, 0]\n[0, 0, 0, 0, 0, 0, 0, 0, 0, 0, 0, 0, 0, 0, 4]\n[0, 0, 0, 2, 0, 0, 0, 0, 0, 2, 0, 0, 0, 0, 0]]", fillcolor="#e58139b6"] ;
80 -> 81 ;
82 [label="gini = 0.0\nsamples = 1\nvalue = [[0, 0, 0, 0, 2, 0, 0, 0, 0, 0, 0, 0, 0, 0, 0]\n[0, 0, 0, 0, 0, 0, 0, 0, 0, 0, 0, 0, 0, 0, 2]\n[0, 0, 0, 0, 0, 0, 0, 0, 0, 2, 0, 0, 0, 0, 0]]", fillcolor="#e58139ff"] ;
81 -> 82 ;
83 [label="gini = 0.0\nsamples = 1\nvalue = [[0, 0, 0, 0, 2, 0, 0, 0, 0, 0, 0, 0, 0, 0, 0]\n[0, 0, 0, 0, 0, 0, 0, 0, 0, 0, 0, 0, 0, 0, 2]\n[0, 0, 0, 2, 0, 0, 0, 0, 0, 0, 0, 0, 0, 0, 0]]", fillcolor="#e58139ff"] ;
81 -> 83 ;
84 [label="X[6] <= 368.802\ngini = 0.09\nsamples = 25\nvalue = [[0, 0, 0, 0, 42, 0, 0, 0, 0, 0, 0, 0, 0, 0, 0]\n[0, 0, 0, 1, 0, 1, 0, 0, 0, 2, 0, 0, 0, 0, 38]\n[0, 0, 0, 40, 0, 0, 0, 0, 0, 1, 0, 0, 0, 0, 1]]", fillcolor="#e58139d7"] ;
80 -> 84 ;
85 [label="X[8] <= 19.15\ngini = 0.025\nsamples = 15\nvalue = [[0, 0, 0, 0, 26, 0, 0, 0, 0, 0, 0, 0, 0, 0, 0]\n[0, 0, 0, 1, 0, 0, 0, 0, 0, 0, 0, 0, 0, 0, 25]\n[0, 0, 0, 26, 0, 0, 0, 0, 0, 0, 0, 0, 0, 0, 0]]", fillcolor="#e58139f4"] ;
84 -> 85 ;
86 [label="X[5] <= 1.288\ngini = 0.148\nsamples = 2\nvalue = [[0, 0, 0, 0, 3, 0, 0, 0, 0, 0, 0, 0, 0, 0, 0]\n[0, 0, 0, 1, 0, 0, 0, 0, 0, 0, 0, 0, 0, 0, 2]\n[0, 0, 0, 3, 0, 0, 0, 0, 0, 0, 0, 0, 0, 0, 0]]", fillcolor="#e58139be"] ;
85 -> 86 ;
87 [label="gini = 0.0\nsamples = 1\nvalue = [[0, 0, 0, 0, 2, 0, 0, 0, 0, 0, 0, 0, 0, 0, 0]\n[0, 0, 0, 0, 0, 0, 0, 0, 0, 0, 0, 0, 0, 0, 2]\n[0, 0, 0, 2, 0, 0, 0, 0, 0, 0, 0, 0, 0, 0, 0]]", fillcolor="#e58139ff"] ;
86 -> 87 ;
88 [label="gini = 0.0\nsamples = 1\nvalue = [[0, 0, 0, 0, 1, 0, 0, 0, 0, 0, 0, 0, 0, 0, 0]\n[0, 0, 0, 1, 0, 0, 0, 0, 0, 0, 0, 0, 0, 0, 0]\n[0, 0, 0, 1, 0, 0, 0, 0, 0, 0, 0, 0, 0, 0, 0]]", fillcolor="#e58139ff"] ;
86 -> 88 ;
89 [label="gini = 0.0\nsamples = 13\nvalue = [[0, 0, 0, 0, 23, 0, 0, 0, 0, 0, 0, 0, 0, 0, 0]\n[0, 0, 0, 0, 0, 0, 0, 0, 0, 0, 0, 0, 0, 0, 23]\n[0, 0, 0, 23, 0, 0, 0, 0, 0, 0, 0, 0, 0, 0, 0]]", fillcolor="#e58139ff"] ;
85 -> 89 ;
90 [label="X[7] <= 104.485\ngini = 0.182\nsamples = 10\nvalue = [[0, 0, 0, 0, 16, 0, 0, 0, 0, 0, 0, 0, 0, 0, 0]\n[0, 0, 0, 0, 0, 1, 0, 0, 0, 2, 0, 0, 0, 0, 13]\n[0, 0, 0, 14, 0, 0, 0, 0, 0, 1, 0, 0, 0, 0, 1]]", fillcolor="#e58139af"] ;
84 -> 90 ;
91 [label="X[6] <= 411.772\ngini = 0.167\nsamples = 2\nvalue = [[0, 0, 0, 0, 2, 0, 0, 0, 0, 0, 0, 0, 0, 0, 0]\n[0, 0, 0, 0, 0, 0, 0, 0, 0, 2, 0, 0, 0, 0, 0]\n[0, 0, 0, 1, 0, 0, 0, 0, 0, 0, 0, 0, 0, 0, 1]]", fillcolor="#e58139b6"] ;
90 -> 91 ;
92 [label="gini = 0.0\nsamples = 1\nvalue = [[0, 0, 0, 0, 1, 0, 0, 0, 0, 0, 0, 0, 0, 0, 0]\n[0, 0, 0, 0, 0, 0, 0, 0, 0, 1, 0, 0, 0, 0, 0]\n[0, 0, 0, 1, 0, 0, 0, 0, 0, 0, 0, 0, 0, 0, 0]]", fillcolor="#e58139ff"] ;
91 -> 92 ;
93 [label="gini = 0.0\nsamples = 1\nvalue = [[0, 0, 0, 0, 1, 0, 0, 0, 0, 0, 0, 0, 0, 0, 0]\n[0, 0, 0, 0, 0, 0, 0, 0, 0, 1, 0, 0, 0, 0, 0]\n[0, 0, 0, 0, 0, 0, 0, 0, 0, 0, 0, 0, 0, 0, 1]]", fillcolor="#e58139ff"] ;
91 -> 93 ;
94 [label="X[7] <= 109.917\ngini = 0.088\nsamples = 8\nvalue = [[0, 0, 0, 0, 14, 0, 0, 0, 0, 0, 0, 0, 0, 0, 0]\n[0, 0, 0, 0, 0, 1, 0, 0, 0, 0, 0, 0, 0, 0, 13]\n[0, 0, 0, 13, 0, 0, 0, 0, 0, 1, 0, 0, 0, 0, 0]]", fillcolor="#e58139d8"] ;
90 -> 94 ;
95 [label="gini = 0.0\nsamples = 1\nvalue = [[0, 0, 0, 0, 1, 0, 0, 0, 0, 0, 0, 0, 0, 0, 0]\n[0, 0, 0, 0, 0, 0, 0, 0, 0, 0, 0, 0, 0, 0, 1]\n[0, 0, 0, 0, 0, 0, 0, 0, 0, 1, 0, 0, 0, 0, 0]]", fillcolor="#e58139ff"] ;
94 -> 95 ;
96 [label="X[13] <= 0.012\ngini = 0.047\nsamples = 7\nvalue = [[0, 0, 0, 0, 13, 0, 0, 0, 0, 0, 0, 0, 0, 0, 0]\n[0, 0, 0, 0, 0, 1, 0, 0, 0, 0, 0, 0, 0, 0, 12]\n[0, 0, 0, 13, 0, 0, 0, 0, 0, 0, 0, 0, 0, 0, 0]]", fillcolor="#e58139ea"] ;
94 -> 96 ;
97 [label="gini = 0.0\nsamples = 1\nvalue = [[0, 0, 0, 0, 1, 0, 0, 0, 0, 0, 0, 0, 0, 0, 0]\n[0, 0, 0, 0, 0, 1, 0, 0, 0, 0, 0, 0, 0, 0, 0]\n[0, 0, 0, 1, 0, 0, 0, 0, 0, 0, 0, 0, 0, 0, 0]]", fillcolor="#e58139ff"] ;
96 -> 97 ;
98 [label="gini = 0.0\nsamples = 6\nvalue = [[0, 0, 0, 0, 12, 0, 0, 0, 0, 0, 0, 0, 0, 0, 0]\n[0, 0, 0, 0, 0, 0, 0, 0, 0, 0, 0, 0, 0, 0, 12]\n[0, 0, 0, 12, 0, 0, 0, 0, 0, 0, 0, 0, 0, 0, 0]]", fillcolor="#e58139ff"] ;
96 -> 98 ;
99 [label="X[14] <= 179.972\ngini = 0.317\nsamples = 26\nvalue = [[0, 0, 0, 2, 33, 0, 0, 0, 0, 0, 0, 0, 0, 0, 0]\n[0, 0, 0, 0, 0, 4, 0, 0, 0, 2, 0, 0, 0, 0, 29]\n[0, 0, 0, 22, 1, 0, 0, 1, 0, 1, 0, 0, 2, 0, 8]]", fillcolor="#e5813973"] ;
79 -> 99 ;
100 [label="X[19] <= 32.918\ngini = 0.272\nsamples = 22\nvalue = [[0, 0, 0, 2, 27, 0, 0, 0, 0, 0, 0, 0, 0, 0, 0]\n[0, 0, 0, 0, 0, 1, 0, 0, 0, 2, 0, 0, 0, 0, 26]\n[0, 0, 0, 20, 1, 0, 0, 1, 0, 1, 0, 0, 2, 0, 4]]", fillcolor="#e5813987"] ;
99 -> 100 ;
101 [label="gini = 0.0\nsamples = 1\nvalue = [[0, 0, 0, 2, 0, 0, 0, 0, 0, 0, 0, 0, 0, 0, 0]\n[0, 0, 0, 0, 0, 0, 0, 0, 0, 0, 0, 0, 0, 0, 2]\n[0, 0, 0, 0, 0, 0, 0, 0, 0, 0, 0, 0, 0, 0, 2]]", fillcolor="#e58139ff"] ;
100 -> 101 ;
102 [label="X[10] <= 44.231\ngini = 0.213\nsamples = 21\nvalue = [[0, 0, 0, 0, 27, 0, 0, 0, 0, 0, 0, 0, 0, 0, 0]\n[0, 0, 0, 0, 0, 1, 0, 0, 0, 2, 0, 0, 0, 0, 24]\n[0, 0, 0, 20, 1, 0, 0, 1, 0, 1, 0, 0, 2, 0, 2]]", fillcolor="#e58139a1"] ;
100 -> 102 ;
103 [label="X[13] <= 0.014\ngini = 0.333\nsamples = 2\nvalue = [[0, 0, 0, 0, 2, 0, 0, 0, 0, 0, 0, 0, 0, 0, 0]\n[0, 0, 0, 0, 0, 1, 0, 0, 0, 0, 0, 0, 0, 0, 1]\n[0, 0, 0, 0, 0, 0, 0, 1, 0, 0, 0, 0, 0, 0, 1]]", fillcolor="#e581396c"] ;
102 -> 103 ;
104 [label="gini = 0.0\nsamples = 1\nvalue = [[0, 0, 0, 0, 1, 0, 0, 0, 0, 0, 0, 0, 0, 0, 0]\n[0, 0, 0, 0, 0, 1, 0, 0, 0, 0, 0, 0, 0, 0, 0]\n[0, 0, 0, 0, 0, 0, 0, 0, 0, 0, 0, 0, 0, 0, 1]]", fillcolor="#e58139ff"] ;
103 -> 104 ;
105 [label="gini = 0.0\nsamples = 1\nvalue = [[0, 0, 0, 0, 1, 0, 0, 0, 0, 0, 0, 0, 0, 0, 0]\n[0, 0, 0, 0, 0, 0, 0, 0, 0, 0, 0, 0, 0, 0, 1]\n[0, 0, 0, 0, 0, 0, 0, 1, 0, 0, 0, 0, 0, 0, 0]]", fillcolor="#e58139ff"] ;
103 -> 105 ;
106 [label="X[5] <= 0.047\ngini = 0.165\nsamples = 19\nvalue = [[0, 0, 0, 0, 25, 0, 0, 0, 0, 0, 0, 0, 0, 0, 0]\n[0, 0, 0, 0, 0, 0, 0, 0, 0, 2, 0, 0, 0, 0, 23]\n[0, 0, 0, 20, 1, 0, 0, 0, 0, 1, 0, 0, 2, 0, 1]]", fillcolor="#e58139b6"] ;
102 -> 106 ;
107 [label="gini = 0.0\nsamples = 1\nvalue = [[0, 0, 0, 0, 2, 0, 0, 0, 0, 0, 0, 0, 0, 0, 0]\n[0, 0, 0, 0, 0, 0, 0, 0, 0, 2, 0, 0, 0, 0, 0]\n[0, 0, 0, 2, 0, 0, 0, 0, 0, 0, 0, 0, 0, 0, 0]]", fillcolor="#e58139ff"] ;
106 -> 107 ;
108 [label="X[9] <= 0.779\ngini = 0.125\nsamples = 18\nvalue = [[0, 0, 0, 0, 23, 0, 0, 0, 0, 0, 0, 0, 0, 0, 0]\n[0, 0, 0, 0, 0, 0, 0, 0, 0, 0, 0, 0, 0, 0, 23]\n[0, 0, 0, 18, 1, 0, 0, 0, 0, 1, 0, 0, 2, 0, 1]]", fillcolor="#e58139c8"] ;
106 -> 108 ;
109 [label="gini = 0.0\nsamples = 1\nvalue = [[0, 0, 0, 0, 1, 0, 0, 0, 0, 0, 0, 0, 0, 0, 0]\n[0, 0, 0, 0, 0, 0, 0, 0, 0, 0, 0, 0, 0, 0, 1]\n[0, 0, 0, 0, 1, 0, 0, 0, 0, 0, 0, 0, 0, 0, 0]]", fillcolor="#e58139ff"] ;
108 -> 109 ;
110 [label="X[20] <= 31.009\ngini = 0.106\nsamples = 17\nvalue = [[0, 0, 0, 0, 22, 0, 0, 0, 0, 0, 0, 0, 0, 0, 0]\n[0, 0, 0, 0, 0, 0, 0, 0, 0, 0, 0, 0, 0, 0, 22]\n[0, 0, 0, 18, 0, 0, 0, 0, 0, 1, 0, 0, 2, 0, 1]]", fillcolor="#e58139d0"] ;
108 -> 110 ;
111 [label="X[10] <= 151.49\ngini = 0.062\nsamples = 15\nvalue = [[0, 0, 0, 0, 20, 0, 0, 0, 0, 0, 0, 0, 0, 0, 0]\n[0, 0, 0, 0, 0, 0, 0, 0, 0, 0, 0, 0, 0, 0, 20]\n[0, 0, 0, 18, 0, 0, 0, 0, 0, 1, 0, 0, 1, 0, 0]]", fillcolor="#e58139e4"] ;
110 -> 111 ;
112 [label="X[16] <= 89.936\ngini = 0.037\nsamples = 12\nvalue = [[0, 0, 0, 0, 17, 0, 0, 0, 0, 0, 0, 0, 0, 0, 0]\n[0, 0, 0, 0, 0, 0, 0, 0, 0, 0, 0, 0, 0, 0, 17]\n[0, 0, 0, 16, 0, 0, 0, 0, 0, 0, 0, 0, 1, 0, 0]]", fillcolor="#e58139ef"] ;
111 -> 112 ;
113 [label="gini = 0.0\nsamples = 8\nvalue = [[0, 0, 0, 0, 13, 0, 0, 0, 0, 0, 0, 0, 0, 0, 0]\n[0, 0, 0, 0, 0, 0, 0, 0, 0, 0, 0, 0, 0, 0, 13]\n[0, 0, 0, 13, 0, 0, 0, 0, 0, 0, 0, 0, 0, 0, 0]]", fillcolor="#e58139ff"] ;
112 -> 113 ;
114 [label="X[12] <= 11.044\ngini = 0.125\nsamples = 4\nvalue = [[0, 0, 0, 0, 4, 0, 0, 0, 0, 0, 0, 0, 0, 0, 0]\n[0, 0, 0, 0, 0, 0, 0, 0, 0, 0, 0, 0, 0, 0, 4]\n[0, 0, 0, 3, 0, 0, 0, 0, 0, 0, 0, 0, 1, 0, 0]]", fillcolor="#e58139c8"] ;
112 -> 114 ;
115 [label="gini = 0.0\nsamples = 3\nvalue = [[0, 0, 0, 0, 3, 0, 0, 0, 0, 0, 0, 0, 0, 0, 0]\n[0, 0, 0, 0, 0, 0, 0, 0, 0, 0, 0, 0, 0, 0, 3]\n[0, 0, 0, 3, 0, 0, 0, 0, 0, 0, 0, 0, 0, 0, 0]]", fillcolor="#e58139ff"] ;
114 -> 115 ;
116 [label="gini = 0.0\nsamples = 1\nvalue = [[0, 0, 0, 0, 1, 0, 0, 0, 0, 0, 0, 0, 0, 0, 0]\n[0, 0, 0, 0, 0, 0, 0, 0, 0, 0, 0, 0, 0, 0, 1]\n[0, 0, 0, 0, 0, 0, 0, 0, 0, 0, 0, 0, 1, 0, 0]]", fillcolor="#e58139ff"] ;
114 -> 116 ;
117 [label="X[19] <= 35.828\ngini = 0.148\nsamples = 3\nvalue = [[0, 0, 0, 0, 3, 0, 0, 0, 0, 0, 0, 0, 0, 0, 0]\n[0, 0, 0, 0, 0, 0, 0, 0, 0, 0, 0, 0, 0, 0, 3]\n[0, 0, 0, 2, 0, 0, 0, 0, 0, 1, 0, 0, 0, 0, 0]]", fillcolor="#e58139be"] ;
111 -> 117 ;
118 [label="gini = 0.0\nsamples = 1\nvalue = [[0, 0, 0, 0, 1, 0, 0, 0, 0, 0, 0, 0, 0, 0, 0]\n[0, 0, 0, 0, 0, 0, 0, 0, 0, 0, 0, 0, 0, 0, 1]\n[0, 0, 0, 1, 0, 0, 0, 0, 0, 0, 0, 0, 0, 0, 0]]", fillcolor="#e58139ff"] ;
117 -> 118 ;
119 [label="X[7] <= 110.374\ngini = 0.167\nsamples = 2\nvalue = [[0, 0, 0, 0, 2, 0, 0, 0, 0, 0, 0, 0, 0, 0, 0]\n[0, 0, 0, 0, 0, 0, 0, 0, 0, 0, 0, 0, 0, 0, 2]\n[0, 0, 0, 1, 0, 0, 0, 0, 0, 1, 0, 0, 0, 0, 0]]", fillcolor="#e58139b6"] ;
117 -> 119 ;
120 [label="gini = 0.0\nsamples = 1\nvalue = [[0, 0, 0, 0, 1, 0, 0, 0, 0, 0, 0, 0, 0, 0, 0]\n[0, 0, 0, 0, 0, 0, 0, 0, 0, 0, 0, 0, 0, 0, 1]\n[0, 0, 0, 0, 0, 0, 0, 0, 0, 1, 0, 0, 0, 0, 0]]", fillcolor="#e58139ff"] ;
119 -> 120 ;
121 [label="gini = 0.0\nsamples = 1\nvalue = [[0, 0, 0, 0, 1, 0, 0, 0, 0, 0, 0, 0, 0, 0, 0]\n[0, 0, 0, 0, 0, 0, 0, 0, 0, 0, 0, 0, 0, 0, 1]\n[0, 0, 0, 1, 0, 0, 0, 0, 0, 0, 0, 0, 0, 0, 0]]", fillcolor="#e58139ff"] ;
119 -> 121 ;
122 [label="X[14] <= 179.583\ngini = 0.167\nsamples = 2\nvalue = [[0, 0, 0, 0, 2, 0, 0, 0, 0, 0, 0, 0, 0, 0, 0]\n[0, 0, 0, 0, 0, 0, 0, 0, 0, 0, 0, 0, 0, 0, 2]\n[0, 0, 0, 0, 0, 0, 0, 0, 0, 0, 0, 0, 1, 0, 1]]", fillcolor="#e58139b6"] ;
110 -> 122 ;
123 [label="gini = 0.0\nsamples = 1\nvalue = [[0, 0, 0, 0, 1, 0, 0, 0, 0, 0, 0, 0, 0, 0, 0]\n[0, 0, 0, 0, 0, 0, 0, 0, 0, 0, 0, 0, 0, 0, 1]\n[0, 0, 0, 0, 0, 0, 0, 0, 0, 0, 0, 0, 1, 0, 0]]", fillcolor="#e58139ff"] ;
122 -> 123 ;
124 [label="gini = 0.0\nsamples = 1\nvalue = [[0, 0, 0, 0, 1, 0, 0, 0, 0, 0, 0, 0, 0, 0, 0]\n[0, 0, 0, 0, 0, 0, 0, 0, 0, 0, 0, 0, 0, 0, 1]\n[0, 0, 0, 0, 0, 0, 0, 0, 0, 0, 0, 0, 0, 0, 1]]", fillcolor="#e58139ff"] ;
122 -> 124 ;
125 [label="X[9] <= 2.049\ngini = 0.315\nsamples = 4\nvalue = [[0, 0, 0, 0, 6, 0, 0, 0, 0, 0, 0, 0, 0, 0, 0]\n[0, 0, 0, 0, 0, 3, 0, 0, 0, 0, 0, 0, 0, 0, 3]\n[0, 0, 0, 2, 0, 0, 0, 0, 0, 0, 0, 0, 0, 0, 4]]", fillcolor="#e5813974"] ;
99 -> 125 ;
126 [label="X[5] <= 0.788\ngini = 0.167\nsamples = 2\nvalue = [[0, 0, 0, 0, 2, 0, 0, 0, 0, 0, 0, 0, 0, 0, 0]\n[0, 0, 0, 0, 0, 0, 0, 0, 0, 0, 0, 0, 0, 0, 2]\n[0, 0, 0, 1, 0, 0, 0, 0, 0, 0, 0, 0, 0, 0, 1]]", fillcolor="#e58139b6"] ;
125 -> 126 ;
127 [label="gini = 0.0\nsamples = 1\nvalue = [[0, 0, 0, 0, 1, 0, 0, 0, 0, 0, 0, 0, 0, 0, 0]\n[0, 0, 0, 0, 0, 0, 0, 0, 0, 0, 0, 0, 0, 0, 1]\n[0, 0, 0, 1, 0, 0, 0, 0, 0, 0, 0, 0, 0, 0, 0]]", fillcolor="#e58139ff"] ;
126 -> 127 ;
128 [label="gini = 0.0\nsamples = 1\nvalue = [[0, 0, 0, 0, 1, 0, 0, 0, 0, 0, 0, 0, 0, 0, 0]\n[0, 0, 0, 0, 0, 0, 0, 0, 0, 0, 0, 0, 0, 0, 1]\n[0, 0, 0, 0, 0, 0, 0, 0, 0, 0, 0, 0, 0, 0, 1]]", fillcolor="#e58139ff"] ;
126 -> 128 ;
129 [label="X[14] <= 179.981\ngini = 0.25\nsamples = 2\nvalue = [[0, 0, 0, 0, 4, 0, 0, 0, 0, 0, 0, 0, 0, 0, 0]\n[0, 0, 0, 0, 0, 3, 0, 0, 0, 0, 0, 0, 0, 0, 1]\n[0, 0, 0, 1, 0, 0, 0, 0, 0, 0, 0, 0, 0, 0, 3]]", fillcolor="#e5813991"] ;
125 -> 129 ;
130 [label="gini = 0.0\nsamples = 1\nvalue = [[0, 0, 0, 0, 3, 0, 0, 0, 0, 0, 0, 0, 0, 0, 0]\n[0, 0, 0, 0, 0, 3, 0, 0, 0, 0, 0, 0, 0, 0, 0]\n[0, 0, 0, 0, 0, 0, 0, 0, 0, 0, 0, 0, 0, 0, 3]]", fillcolor="#e58139ff"] ;
129 -> 130 ;
131 [label="gini = 0.0\nsamples = 1\nvalue = [[0, 0, 0, 0, 1, 0, 0, 0, 0, 0, 0, 0, 0, 0, 0]\n[0, 0, 0, 0, 0, 0, 0, 0, 0, 0, 0, 0, 0, 0, 1]\n[0, 0, 0, 1, 0, 0, 0, 0, 0, 0, 0, 0, 0, 0, 0]]", fillcolor="#e58139ff"] ;
129 -> 131 ;
132 [label="X[8] <= 111.299\ngini = 0.219\nsamples = 4\nvalue = [[0, 0, 0, 0, 8, 0, 0, 0, 0, 0, 0, 0, 0, 0, 0]\n[0, 0, 0, 2, 0, 0, 0, 0, 0, 3, 0, 0, 0, 0, 3]\n[0, 0, 0, 8, 0, 0, 0, 0, 0, 0, 0, 0, 0, 0, 0]]", fillcolor="#e581399f"] ;
78 -> 132 ;
133 [label="gini = 0.0\nsamples = 1\nvalue = [[0, 0, 0, 0, 3, 0, 0, 0, 0, 0, 0, 0, 0, 0, 0]\n[0, 0, 0, 0, 0, 0, 0, 0, 0, 3, 0, 0, 0, 0, 0]\n[0, 0, 0, 3, 0, 0, 0, 0, 0, 0, 0, 0, 0, 0, 0]]", fillcolor="#e58139ff"] ;
132 -> 133 ;
134 [label="X[8] <= 119.619\ngini = 0.16\nsamples = 3\nvalue = [[0, 0, 0, 0, 5, 0, 0, 0, 0, 0, 0, 0, 0, 0, 0]\n[0, 0, 0, 2, 0, 0, 0, 0, 0, 0, 0, 0, 0, 0, 3]\n[0, 0, 0, 5, 0, 0, 0, 0, 0, 0, 0, 0, 0, 0, 0]]", fillcolor="#e58139b8"] ;
132 -> 134 ;
135 [label="gini = 0.0\nsamples = 2\nvalue = [[0, 0, 0, 0, 3, 0, 0, 0, 0, 0, 0, 0, 0, 0, 0]\n[0, 0, 0, 0, 0, 0, 0, 0, 0, 0, 0, 0, 0, 0, 3]\n[0, 0, 0, 3, 0, 0, 0, 0, 0, 0, 0, 0, 0, 0, 0]]", fillcolor="#e58139ff"] ;
134 -> 135 ;
136 [label="gini = 0.0\nsamples = 1\nvalue = [[0, 0, 0, 0, 2, 0, 0, 0, 0, 0, 0, 0, 0, 0, 0]\n[0, 0, 0, 2, 0, 0, 0, 0, 0, 0, 0, 0, 0, 0, 0]\n[0, 0, 0, 2, 0, 0, 0, 0, 0, 0, 0, 0, 0, 0, 0]]", fillcolor="#e58139ff"] ;
134 -> 136 ;
137 [label="X[9] <= 1.413\ngini = 0.301\nsamples = 37\nvalue = [[0, 0, 4, 0, 49, 0, 0, 0, 0, 0, 0, 0, 0, 0, 0]\n[0, 0, 1, 4, 0, 1, 0, 0, 1, 17, 0, 0, 0, 0, 29]\n[0, 0, 0, 48, 0, 0, 0, 1, 0, 0, 0, 0, 0, 0, 4]]", fillcolor="#e581397a"] ;
77 -> 137 ;
138 [label="X[8] <= 61.732\ngini = 0.28\nsamples = 9\nvalue = [[0, 0, 4, 0, 9, 0, 0, 0, 0, 0, 0, 0, 0, 0, 0]\n[0, 0, 0, 0, 0, 1, 0, 0, 0, 1, 0, 0, 0, 0, 11]\n[0, 0, 0, 12, 0, 0, 0, 0, 0, 0, 0, 0, 0, 0, 1]]", fillcolor="#e5813984"] ;
137 -> 138 ;
139 [label="X[20] <= 14.384\ngini = 0.173\nsamples = 7\nvalue = [[0, 0, 1, 0, 9, 0, 0, 0, 0, 0, 0, 0, 0, 0, 0]\n[0, 0, 0, 0, 0, 1, 0, 0, 0, 1, 0, 0, 0, 0, 8]\n[0, 0, 0, 10, 0, 0, 0, 0, 0, 0, 0, 0, 0, 0, 0]]", fillcolor="#e58139b3"] ;
138 -> 139 ;
140 [label="X[20] <= 0.89\ngini = 0.132\nsamples = 6\nvalue = [[0, 0, 1, 0, 8, 0, 0, 0, 0, 0, 0, 0, 0, 0, 0]\n[0, 0, 0, 0, 0, 0, 0, 0, 0, 1, 0, 0, 0, 0, 8]\n[0, 0, 0, 9, 0, 0, 0, 0, 0, 0, 0, 0, 0, 0, 0]]", fillcolor="#e58139c5"] ;
139 -> 140 ;
141 [label="X[16] <= 89.74\ngini = 0.073\nsamples = 5\nvalue = [[0, 0, 0, 0, 8, 0, 0, 0, 0, 0, 0, 0, 0, 0, 0]\n[0, 0, 0, 0, 0, 0, 0, 0, 0, 1, 0, 0, 0, 0, 7]\n[0, 0, 0, 8, 0, 0, 0, 0, 0, 0, 0, 0, 0, 0, 0]]", fillcolor="#e58139df"] ;
140 -> 141 ;
142 [label="gini = 0.0\nsamples = 1\nvalue = [[0, 0, 0, 0, 1, 0, 0, 0, 0, 0, 0, 0, 0, 0, 0]\n[0, 0, 0, 0, 0, 0, 0, 0, 0, 1, 0, 0, 0, 0, 0]\n[0, 0, 0, 1, 0, 0, 0, 0, 0, 0, 0, 0, 0, 0, 0]]", fillcolor="#e58139ff"] ;
141 -> 142 ;
143 [label="gini = 0.0\nsamples = 4\nvalue = [[0, 0, 0, 0, 7, 0, 0, 0, 0, 0, 0, 0, 0, 0, 0]\n[0, 0, 0, 0, 0, 0, 0, 0, 0, 0, 0, 0, 0, 0, 7]\n[0, 0, 0, 7, 0, 0, 0, 0, 0, 0, 0, 0, 0, 0, 0]]", fillcolor="#e58139ff"] ;
141 -> 143 ;
144 [label="gini = 0.0\nsamples = 1\nvalue = [[0, 0, 1, 0, 0, 0, 0, 0, 0, 0, 0, 0, 0, 0, 0]\n[0, 0, 0, 0, 0, 0, 0, 0, 0, 0, 0, 0, 0, 0, 1]\n[0, 0, 0, 1, 0, 0, 0, 0, 0, 0, 0, 0, 0, 0, 0]]", fillcolor="#e58139ff"] ;
140 -> 144 ;
145 [label="gini = 0.0\nsamples = 1\nvalue = [[0, 0, 0, 0, 1, 0, 0, 0, 0, 0, 0, 0, 0, 0, 0]\n[0, 0, 0, 0, 0, 1, 0, 0, 0, 0, 0, 0, 0, 0, 0]\n[0, 0, 0, 1, 0, 0, 0, 0, 0, 0, 0, 0, 0, 0, 0]]", fillcolor="#e58139ff"] ;
139 -> 145 ;
146 [label="X[13] <= 0.007\ngini = 0.148\nsamples = 2\nvalue = [[0, 0, 3, 0, 0, 0, 0, 0, 0, 0, 0, 0, 0, 0, 0]\n[0, 0, 0, 0, 0, 0, 0, 0, 0, 0, 0, 0, 0, 0, 3]\n[0, 0, 0, 2, 0, 0, 0, 0, 0, 0, 0, 0, 0, 0, 1]]", fillcolor="#e58139be"] ;
138 -> 146 ;
147 [label="gini = 0.0\nsamples = 1\nvalue = [[0, 0, 2, 0, 0, 0, 0, 0, 0, 0, 0, 0, 0, 0, 0]\n[0, 0, 0, 0, 0, 0, 0, 0, 0, 0, 0, 0, 0, 0, 2]\n[0, 0, 0, 2, 0, 0, 0, 0, 0, 0, 0, 0, 0, 0, 0]]", fillcolor="#e58139ff"] ;
146 -> 147 ;
148 [label="gini = 0.0\nsamples = 1\nvalue = [[0, 0, 1, 0, 0, 0, 0, 0, 0, 0, 0, 0, 0, 0, 0]\n[0, 0, 0, 0, 0, 0, 0, 0, 0, 0, 0, 0, 0, 0, 1]\n[0, 0, 0, 0, 0, 0, 0, 0, 0, 0, 0, 0, 0, 0, 1]]", fillcolor="#e58139ff"] ;
146 -> 148 ;
149 [label="X[5] <= 1.9\ngini = 0.27\nsamples = 28\nvalue = [[0, 0, 0, 0, 40, 0, 0, 0, 0, 0, 0, 0, 0, 0, 0]\n[0, 0, 1, 4, 0, 0, 0, 0, 1, 16, 0, 0, 0, 0, 18]\n[0, 0, 0, 36, 0, 0, 0, 1, 0, 0, 0, 0, 0, 0, 3]]", fillcolor="#e5813988"] ;
137 -> 149 ;
150 [label="X[12] <= 15.8\ngini = 0.178\nsamples = 10\nvalue = [[0, 0, 0, 0, 13, 0, 0, 0, 0, 0, 0, 0, 0, 0, 0]\n[0, 0, 0, 0, 0, 0, 0, 0, 0, 2, 0, 0, 0, 0, 11]\n[0, 0, 0, 11, 0, 0, 0, 1, 0, 0, 0, 0, 0, 0, 1]]", fillcolor="#e58139b1"] ;
149 -> 150 ;
151 [label="X[5] <= 0.698\ngini = 0.099\nsamples = 8\nvalue = [[0, 0, 0, 0, 11, 0, 0, 0, 0, 0, 0, 0, 0, 0, 0]\n[0, 0, 0, 0, 0, 0, 0, 0, 0, 2, 0, 0, 0, 0, 9]\n[0, 0, 0, 11, 0, 0, 0, 0, 0, 0, 0, 0, 0, 0, 0]]", fillcolor="#e58139d3"] ;
150 -> 151 ;
152 [label="X[5] <= 0.202\ngini = 0.167\nsamples = 4\nvalue = [[0, 0, 0, 0, 4, 0, 0, 0, 0, 0, 0, 0, 0, 0, 0]\n[0, 0, 0, 0, 0, 0, 0, 0, 0, 2, 0, 0, 0, 0, 2]\n[0, 0, 0, 4, 0, 0, 0, 0, 0, 0, 0, 0, 0, 0, 0]]", fillcolor="#e58139b6"] ;
151 -> 152 ;
153 [label="gini = 0.0\nsamples = 2\nvalue = [[0, 0, 0, 0, 2, 0, 0, 0, 0, 0, 0, 0, 0, 0, 0]\n[0, 0, 0, 0, 0, 0, 0, 0, 0, 0, 0, 0, 0, 0, 2]\n[0, 0, 0, 2, 0, 0, 0, 0, 0, 0, 0, 0, 0, 0, 0]]", fillcolor="#e58139ff"] ;
152 -> 153 ;
154 [label="gini = 0.0\nsamples = 2\nvalue = [[0, 0, 0, 0, 2, 0, 0, 0, 0, 0, 0, 0, 0, 0, 0]\n[0, 0, 0, 0, 0, 0, 0, 0, 0, 2, 0, 0, 0, 0, 0]\n[0, 0, 0, 2, 0, 0, 0, 0, 0, 0, 0, 0, 0, 0, 0]]", fillcolor="#e58139ff"] ;
152 -> 154 ;
155 [label="gini = 0.0\nsamples = 4\nvalue = [[0, 0, 0, 0, 7, 0, 0, 0, 0, 0, 0, 0, 0, 0, 0]\n[0, 0, 0, 0, 0, 0, 0, 0, 0, 0, 0, 0, 0, 0, 7]\n[0, 0, 0, 7, 0, 0, 0, 0, 0, 0, 0, 0, 0, 0, 0]]", fillcolor="#e58139ff"] ;
151 -> 155 ;
156 [label="X[6] <= 374.305\ngini = 0.167\nsamples = 2\nvalue = [[0, 0, 0, 0, 2, 0, 0, 0, 0, 0, 0, 0, 0, 0, 0]\n[0, 0, 0, 0, 0, 0, 0, 0, 0, 0, 0, 0, 0, 0, 2]\n[0, 0, 0, 0, 0, 0, 0, 1, 0, 0, 0, 0, 0, 0, 1]]", fillcolor="#e58139b6"] ;
150 -> 156 ;
157 [label="gini = 0.0\nsamples = 1\nvalue = [[0, 0, 0, 0, 1, 0, 0, 0, 0, 0, 0, 0, 0, 0, 0]\n[0, 0, 0, 0, 0, 0, 0, 0, 0, 0, 0, 0, 0, 0, 1]\n[0, 0, 0, 0, 0, 0, 0, 1, 0, 0, 0, 0, 0, 0, 0]]", fillcolor="#e58139ff"] ;
156 -> 157 ;
158 [label="gini = 0.0\nsamples = 1\nvalue = [[0, 0, 0, 0, 1, 0, 0, 0, 0, 0, 0, 0, 0, 0, 0]\n[0, 0, 0, 0, 0, 0, 0, 0, 0, 0, 0, 0, 0, 0, 1]\n[0, 0, 0, 0, 0, 0, 0, 0, 0, 0, 0, 0, 0, 0, 1]]", fillcolor="#e58139ff"] ;
156 -> 158 ;
159 [label="X[20] <= 0.114\ngini = 0.259\nsamples = 18\nvalue = [[0, 0, 0, 0, 27, 0, 0, 0, 0, 0, 0, 0, 0, 0, 0]\n[0, 0, 1, 4, 0, 0, 0, 0, 1, 14, 0, 0, 0, 0, 7]\n[0, 0, 0, 25, 0, 0, 0, 0, 0, 0, 0, 0, 0, 0, 2]]", fillcolor="#e581398d"] ;
149 -> 159 ;
160 [label="X[19] <= 32.758\ngini = 0.25\nsamples = 2\nvalue = [[0, 0, 0, 0, 4, 0, 0, 0, 0, 0, 0, 0, 0, 0, 0]\n[0, 0, 1, 3, 0, 0, 0, 0, 0, 0, 0, 0, 0, 0, 0]\n[0, 0, 0, 3, 0, 0, 0, 0, 0, 0, 0, 0, 0, 0, 1]]", fillcolor="#e5813991"] ;
159 -> 160 ;
161 [label="gini = 0.0\nsamples = 1\nvalue = [[0, 0, 0, 0, 3, 0, 0, 0, 0, 0, 0, 0, 0, 0, 0]\n[0, 0, 0, 3, 0, 0, 0, 0, 0, 0, 0, 0, 0, 0, 0]\n[0, 0, 0, 3, 0, 0, 0, 0, 0, 0, 0, 0, 0, 0, 0]]", fillcolor="#e58139ff"] ;
160 -> 161 ;
162 [label="gini = 0.0\nsamples = 1\nvalue = [[0, 0, 0, 0, 1, 0, 0, 0, 0, 0, 0, 0, 0, 0, 0]\n[0, 0, 1, 0, 0, 0, 0, 0, 0, 0, 0, 0, 0, 0, 0]\n[0, 0, 0, 0, 0, 0, 0, 0, 0, 0, 0, 0, 0, 0, 1]]", fillcolor="#e58139ff"] ;
160 -> 162 ;
163 [label="X[11] <= 47.752\ngini = 0.205\nsamples = 16\nvalue = [[0, 0, 0, 0, 23, 0, 0, 0, 0, 0, 0, 0, 0, 0, 0]\n[0, 0, 0, 1, 0, 0, 0, 0, 1, 14, 0, 0, 0, 0, 7]\n[0, 0, 0, 22, 0, 0, 0, 0, 0, 0, 0, 0, 0, 0, 1]]", fillcolor="#e58139a4"] ;
159 -> 163 ;
164 [label="X[7] <= 103.982\ngini = 0.222\nsamples = 8\nvalue = [[0, 0, 0, 0, 9, 0, 0, 0, 0, 0, 0, 0, 0, 0, 0]\n[0, 0, 0, 1, 0, 0, 0, 0, 1, 3, 0, 0, 0, 0, 4]\n[0, 0, 0, 9, 0, 0, 0, 0, 0, 0, 0, 0, 0, 0, 0]]", fillcolor="#e581399d"] ;
163 -> 164 ;
165 [label="X[8] <= 39.163\ngini = 0.187\nsamples = 4\nvalue = [[0, 0, 0, 0, 5, 0, 0, 0, 0, 0, 0, 0, 0, 0, 0]\n[0, 0, 0, 0, 0, 0, 0, 0, 1, 3, 0, 0, 0, 0, 1]\n[0, 0, 0, 5, 0, 0, 0, 0, 0, 0, 0, 0, 0, 0, 0]]", fillcolor="#e58139ad"] ;
164 -> 165 ;
166 [label="gini = 0.0\nsamples = 1\nvalue = [[0, 0, 0, 0, 1, 0, 0, 0, 0, 0, 0, 0, 0, 0, 0]\n[0, 0, 0, 0, 0, 0, 0, 0, 0, 0, 0, 0, 0, 0, 1]\n[0, 0, 0, 1, 0, 0, 0, 0, 0, 0, 0, 0, 0, 0, 0]]", fillcolor="#e58139ff"] ;
165 -> 166 ;
167 [label="X[17] <= 0.013\ngini = 0.125\nsamples = 3\nvalue = [[0, 0, 0, 0, 4, 0, 0, 0, 0, 0, 0, 0, 0, 0, 0]\n[0, 0, 0, 0, 0, 0, 0, 0, 1, 3, 0, 0, 0, 0, 0]\n[0, 0, 0, 4, 0, 0, 0, 0, 0, 0, 0, 0, 0, 0, 0]]", fillcolor="#e58139c8"] ;
165 -> 167 ;
168 [label="gini = 0.0\nsamples = 2\nvalue = [[0, 0, 0, 0, 3, 0, 0, 0, 0, 0, 0, 0, 0, 0, 0]\n[0, 0, 0, 0, 0, 0, 0, 0, 0, 3, 0, 0, 0, 0, 0]\n[0, 0, 0, 3, 0, 0, 0, 0, 0, 0, 0, 0, 0, 0, 0]]", fillcolor="#e58139ff"] ;
167 -> 168 ;
169 [label="gini = 0.0\nsamples = 1\nvalue = [[0, 0, 0, 0, 1, 0, 0, 0, 0, 0, 0, 0, 0, 0, 0]\n[0, 0, 0, 0, 0, 0, 0, 0, 1, 0, 0, 0, 0, 0, 0]\n[0, 0, 0, 1, 0, 0, 0, 0, 0, 0, 0, 0, 0, 0, 0]]", fillcolor="#e58139ff"] ;
167 -> 169 ;
170 [label="X[6] <= 462.052\ngini = 0.125\nsamples = 4\nvalue = [[0, 0, 0, 0, 4, 0, 0, 0, 0, 0, 0, 0, 0, 0, 0]\n[0, 0, 0, 1, 0, 0, 0, 0, 0, 0, 0, 0, 0, 0, 3]\n[0, 0, 0, 4, 0, 0, 0, 0, 0, 0, 0, 0, 0, 0, 0]]", fillcolor="#e58139c8"] ;
164 -> 170 ;
171 [label="X[7] <= 128.426\ngini = 0.167\nsamples = 2\nvalue = [[0, 0, 0, 0, 2, 0, 0, 0, 0, 0, 0, 0, 0, 0, 0]\n[0, 0, 0, 1, 0, 0, 0, 0, 0, 0, 0, 0, 0, 0, 1]\n[0, 0, 0, 2, 0, 0, 0, 0, 0, 0, 0, 0, 0, 0, 0]]", fillcolor="#e58139b6"] ;
170 -> 171 ;
172 [label="gini = 0.0\nsamples = 1\nvalue = [[0, 0, 0, 0, 1, 0, 0, 0, 0, 0, 0, 0, 0, 0, 0]\n[0, 0, 0, 0, 0, 0, 0, 0, 0, 0, 0, 0, 0, 0, 1]\n[0, 0, 0, 1, 0, 0, 0, 0, 0, 0, 0, 0, 0, 0, 0]]", fillcolor="#e58139ff"] ;
171 -> 172 ;
173 [label="gini = 0.0\nsamples = 1\nvalue = [[0, 0, 0, 0, 1, 0, 0, 0, 0, 0, 0, 0, 0, 0, 0]\n[0, 0, 0, 1, 0, 0, 0, 0, 0, 0, 0, 0, 0, 0, 0]\n[0, 0, 0, 1, 0, 0, 0, 0, 0, 0, 0, 0, 0, 0, 0]]", fillcolor="#e58139ff"] ;
171 -> 173 ;
174 [label="gini = 0.0\nsamples = 2\nvalue = [[0, 0, 0, 0, 2, 0, 0, 0, 0, 0, 0, 0, 0, 0, 0]\n[0, 0, 0, 0, 0, 0, 0, 0, 0, 0, 0, 0, 0, 0, 2]\n[0, 0, 0, 2, 0, 0, 0, 0, 0, 0, 0, 0, 0, 0, 0]]", fillcolor="#e58139ff"] ;
170 -> 174 ;
175 [label="X[6] <= 355.671\ngini = 0.156\nsamples = 8\nvalue = [[0, 0, 0, 0, 14, 0, 0, 0, 0, 0, 0, 0, 0, 0, 0]\n[0, 0, 0, 0, 0, 0, 0, 0, 0, 11, 0, 0, 0, 0, 3]\n[0, 0, 0, 13, 0, 0, 0, 0, 0, 0, 0, 0, 0, 0, 1]]", fillcolor="#e58139ba"] ;
163 -> 175 ;
176 [label="gini = 0.0\nsamples = 6\nvalue = [[0, 0, 0, 0, 11, 0, 0, 0, 0, 0, 0, 0, 0, 0, 0]\n[0, 0, 0, 0, 0, 0, 0, 0, 0, 11, 0, 0, 0, 0, 0]\n[0, 0, 0, 11, 0, 0, 0, 0, 0, 0, 0, 0, 0, 0, 0]]", fillcolor="#e58139ff"] ;
175 -> 176 ;
177 [label="X[14] <= 179.997\ngini = 0.148\nsamples = 2\nvalue = [[0, 0, 0, 0, 3, 0, 0, 0, 0, 0, 0, 0, 0, 0, 0]\n[0, 0, 0, 0, 0, 0, 0, 0, 0, 0, 0, 0, 0, 0, 3]\n[0, 0, 0, 2, 0, 0, 0, 0, 0, 0, 0, 0, 0, 0, 1]]", fillcolor="#e58139be"] ;
175 -> 177 ;
178 [label="gini = 0.0\nsamples = 1\nvalue = [[0, 0, 0, 0, 1, 0, 0, 0, 0, 0, 0, 0, 0, 0, 0]\n[0, 0, 0, 0, 0, 0, 0, 0, 0, 0, 0, 0, 0, 0, 1]\n[0, 0, 0, 0, 0, 0, 0, 0, 0, 0, 0, 0, 0, 0, 1]]", fillcolor="#e58139ff"] ;
177 -> 178 ;
179 [label="gini = 0.0\nsamples = 1\nvalue = [[0, 0, 0, 0, 2, 0, 0, 0, 0, 0, 0, 0, 0, 0, 0]\n[0, 0, 0, 0, 0, 0, 0, 0, 0, 0, 0, 0, 0, 0, 2]\n[0, 0, 0, 2, 0, 0, 0, 0, 0, 0, 0, 0, 0, 0, 0]]", fillcolor="#e58139ff"] ;
177 -> 179 ;
180 [label="X[15] <= 88.185\ngini = 0.375\nsamples = 3\nvalue = [[0, 0, 2, 0, 2, 0, 0, 0, 0, 0, 0, 0, 0, 0, 0]\n[0, 0, 0, 0, 0, 0, 0, 0, 0, 0, 0, 0, 0, 0, 4]\n[0, 0, 0, 1, 0, 0, 0, 0, 0, 0, 0, 0, 1, 0, 2]]", fillcolor="#e581395a"] ;
76 -> 180 ;
181 [label="X[6] <= 509.069\ngini = 0.167\nsamples = 2\nvalue = [[0, 0, 0, 0, 2, 0, 0, 0, 0, 0, 0, 0, 0, 0, 0]\n[0, 0, 0, 0, 0, 0, 0, 0, 0, 0, 0, 0, 0, 0, 2]\n[0, 0, 0, 1, 0, 0, 0, 0, 0, 0, 0, 0, 1, 0, 0]]", fillcolor="#e58139b6"] ;
180 -> 181 ;
182 [label="gini = 0.0\nsamples = 1\nvalue = [[0, 0, 0, 0, 1, 0, 0, 0, 0, 0, 0, 0, 0, 0, 0]\n[0, 0, 0, 0, 0, 0, 0, 0, 0, 0, 0, 0, 0, 0, 1]\n[0, 0, 0, 1, 0, 0, 0, 0, 0, 0, 0, 0, 0, 0, 0]]", fillcolor="#e58139ff"] ;
181 -> 182 ;
183 [label="gini = 0.0\nsamples = 1\nvalue = [[0, 0, 0, 0, 1, 0, 0, 0, 0, 0, 0, 0, 0, 0, 0]\n[0, 0, 0, 0, 0, 0, 0, 0, 0, 0, 0, 0, 0, 0, 1]\n[0, 0, 0, 0, 0, 0, 0, 0, 0, 0, 0, 0, 1, 0, 0]]", fillcolor="#e58139ff"] ;
181 -> 183 ;
184 [label="gini = 0.0\nsamples = 1\nvalue = [[0, 0, 2, 0, 0, 0, 0, 0, 0, 0, 0, 0, 0, 0, 0]\n[0, 0, 0, 0, 0, 0, 0, 0, 0, 0, 0, 0, 0, 0, 2]\n[0, 0, 0, 0, 0, 0, 0, 0, 0, 0, 0, 0, 0, 0, 2]]", fillcolor="#e58139ff"] ;
180 -> 184 ;
185 [label="X[8] <= 99.956\ngini = 0.334\nsamples = 26\nvalue = [[0, 0, 2, 0, 34, 0, 0, 0, 0, 0, 0, 0, 0, 0, 0]\n[0, 0, 0, 3, 0, 0, 1, 0, 0, 0, 0, 0, 0, 0, 32]\n[0, 0, 0, 17, 0, 0, 0, 2, 0, 7, 0, 1, 2, 0, 7]]", fillcolor="#e581396c"] ;
75 -> 185 ;
186 [label="X[20] <= 0.177\ngini = 0.282\nsamples = 20\nvalue = [[0, 0, 2, 0, 25, 0, 0, 0, 0, 0, 0, 0, 0, 0, 0]\n[0, 0, 0, 1, 0, 0, 1, 0, 0, 0, 0, 0, 0, 0, 25]\n[0, 0, 0, 17, 0, 0, 0, 2, 0, 3, 0, 0, 2, 0, 3]]", fillcolor="#e5813983"] ;
185 -> 186 ;
187 [label="X[13] <= 0.019\ngini = 0.133\nsamples = 9\nvalue = [[0, 0, 1, 0, 13, 0, 0, 0, 0, 0, 0, 0, 0, 0, 0]\n[0, 0, 0, 1, 0, 0, 0, 0, 0, 0, 0, 0, 0, 0, 13]\n[0, 0, 0, 13, 0, 0, 0, 0, 0, 0, 0, 0, 0, 0, 1]]", fillcolor="#e58139c5"] ;
186 -> 187 ;
188 [label="X[18] <= 90.1\ngini = 0.047\nsamples = 8\nvalue = [[0, 0, 1, 0, 12, 0, 0, 0, 0, 0, 0, 0, 0, 0, 0]\n[0, 0, 0, 0, 0, 0, 0, 0, 0, 0, 0, 0, 0, 0, 13]\n[0, 0, 0, 13, 0, 0, 0, 0, 0, 0, 0, 0, 0, 0, 0]]", fillcolor="#e58139ea"] ;
187 -> 188 ;
189 [label="X[12] <= 9.215\ngini = 0.107\nsamples = 3\nvalue = [[0, 0, 1, 0, 4, 0, 0, 0, 0, 0, 0, 0, 0, 0, 0]\n[0, 0, 0, 0, 0, 0, 0, 0, 0, 0, 0, 0, 0, 0, 5]\n[0, 0, 0, 5, 0, 0, 0, 0, 0, 0, 0, 0, 0, 0, 0]]", fillcolor="#e58139d0"] ;
188 -> 189 ;
190 [label="gini = 0.0\nsamples = 2\nvalue = [[0, 0, 0, 0, 4, 0, 0, 0, 0, 0, 0, 0, 0, 0, 0]\n[0, 0, 0, 0, 0, 0, 0, 0, 0, 0, 0, 0, 0, 0, 4]\n[0, 0, 0, 4, 0, 0, 0, 0, 0, 0, 0, 0, 0, 0, 0]]", fillcolor="#e58139ff"] ;
189 -> 190 ;
191 [label="gini = 0.0\nsamples = 1\nvalue = [[0, 0, 1, 0, 0, 0, 0, 0, 0, 0, 0, 0, 0, 0, 0]\n[0, 0, 0, 0, 0, 0, 0, 0, 0, 0, 0, 0, 0, 0, 1]\n[0, 0, 0, 1, 0, 0, 0, 0, 0, 0, 0, 0, 0, 0, 0]]", fillcolor="#e58139ff"] ;
189 -> 191 ;
192 [label="gini = 0.0\nsamples = 5\nvalue = [[0, 0, 0, 0, 8, 0, 0, 0, 0, 0, 0, 0, 0, 0, 0]\n[0, 0, 0, 0, 0, 0, 0, 0, 0, 0, 0, 0, 0, 0, 8]\n[0, 0, 0, 8, 0, 0, 0, 0, 0, 0, 0, 0, 0, 0, 0]]", fillcolor="#e58139ff"] ;
188 -> 192 ;
193 [label="gini = 0.0\nsamples = 1\nvalue = [[0, 0, 0, 0, 1, 0, 0, 0, 0, 0, 0, 0, 0, 0, 0]\n[0, 0, 0, 1, 0, 0, 0, 0, 0, 0, 0, 0, 0, 0, 0]\n[0, 0, 0, 0, 0, 0, 0, 0, 0, 0, 0, 0, 0, 0, 1]]", fillcolor="#e58139ff"] ;
187 -> 193 ;
194 [label="X[18] <= 90.137\ngini = 0.355\nsamples = 11\nvalue = [[0, 0, 1, 0, 12, 0, 0, 0, 0, 0, 0, 0, 0, 0, 0]\n[0, 0, 0, 0, 0, 0, 1, 0, 0, 0, 0, 0, 0, 0, 12]\n[0, 0, 0, 4, 0, 0, 0, 2, 0, 3, 0, 0, 2, 0, 2]]", fillcolor="#e5813963"] ;
186 -> 194 ;
195 [label="X[19] <= 32.667\ngini = 0.32\nsamples = 8\nvalue = [[0, 0, 0, 0, 10, 0, 0, 0, 0, 0, 0, 0, 0, 0, 0]\n[0, 0, 0, 0, 0, 0, 1, 0, 0, 0, 0, 0, 0, 0, 9]\n[0, 0, 0, 1, 0, 0, 0, 2, 0, 3, 0, 0, 2, 0, 2]]", fillcolor="#e5813972"] ;
194 -> 195 ;
196 [label="gini = 0.0\nsamples = 2\nvalue = [[0, 0, 0, 0, 3, 0, 0, 0, 0, 0, 0, 0, 0, 0, 0]\n[0, 0, 0, 0, 0, 0, 0, 0, 0, 0, 0, 0, 0, 0, 3]\n[0, 0, 0, 0, 0, 0, 0, 0, 0, 3, 0, 0, 0, 0, 0]]", fillcolor="#e58139ff"] ;
195 -> 196 ;
197 [label="X[19] <= 32.744\ngini = 0.327\nsamples = 6\nvalue = [[0, 0, 0, 0, 7, 0, 0, 0, 0, 0, 0, 0, 0, 0, 0]\n[0, 0, 0, 0, 0, 0, 1, 0, 0, 0, 0, 0, 0, 0, 6]\n[0, 0, 0, 1, 0, 0, 0, 2, 0, 0, 0, 0, 2, 0, 2]]", fillcolor="#e581396f"] ;
195 -> 197 ;
198 [label="X[16] <= 89.99\ngini = 0.167\nsamples = 2\nvalue = [[0, 0, 0, 0, 2, 0, 0, 0, 0, 0, 0, 0, 0, 0, 0]\n[0, 0, 0, 0, 0, 0, 1, 0, 0, 0, 0, 0, 0, 0, 1]\n[0, 0, 0, 0, 0, 0, 0, 0, 0, 0, 0, 0, 0, 0, 2]]", fillcolor="#e58139b6"] ;
197 -> 198 ;
199 [label="gini = 0.0\nsamples = 1\nvalue = [[0, 0, 0, 0, 1, 0, 0, 0, 0, 0, 0, 0, 0, 0, 0]\n[0, 0, 0, 0, 0, 0, 0, 0, 0, 0, 0, 0, 0, 0, 1]\n[0, 0, 0, 0, 0, 0, 0, 0, 0, 0, 0, 0, 0, 0, 1]]", fillcolor="#e58139ff"] ;
198 -> 199 ;
200 [label="gini = 0.0\nsamples = 1\nvalue = [[0, 0, 0, 0, 1, 0, 0, 0, 0, 0, 0, 0, 0, 0, 0]\n[0, 0, 0, 0, 0, 0, 1, 0, 0, 0, 0, 0, 0, 0, 0]\n[0, 0, 0, 0, 0, 0, 0, 0, 0, 0, 0, 0, 0, 0, 1]]", fillcolor="#e58139ff"] ;
198 -> 200 ;
201 [label="X[5] <= 2.131\ngini = 0.213\nsamples = 4\nvalue = [[0, 0, 0, 0, 5, 0, 0, 0, 0, 0, 0, 0, 0, 0, 0]\n[0, 0, 0, 0, 0, 0, 0, 0, 0, 0, 0, 0, 0, 0, 5]\n[0, 0, 0, 1, 0, 0, 0, 2, 0, 0, 0, 0, 2, 0, 0]]", fillcolor="#e58139a1"] ;
197 -> 201 ;
202 [label="gini = 0.0\nsamples = 2\nvalue = [[0, 0, 0, 0, 2, 0, 0, 0, 0, 0, 0, 0, 0, 0, 0]\n[0, 0, 0, 0, 0, 0, 0, 0, 0, 0, 0, 0, 0, 0, 2]\n[0, 0, 0, 0, 0, 0, 0, 0, 0, 0, 0, 0, 2, 0, 0]]", fillcolor="#e58139ff"] ;
201 -> 202 ;
203 [label="X[9] <= 2.636\ngini = 0.148\nsamples = 2\nvalue = [[0, 0, 0, 0, 3, 0, 0, 0, 0, 0, 0, 0, 0, 0, 0]\n[0, 0, 0, 0, 0, 0, 0, 0, 0, 0, 0, 0, 0, 0, 3]\n[0, 0, 0, 1, 0, 0, 0, 2, 0, 0, 0, 0, 0, 0, 0]]", fillcolor="#e58139be"] ;
201 -> 203 ;
204 [label="gini = 0.0\nsamples = 1\nvalue = [[0, 0, 0, 0, 1, 0, 0, 0, 0, 0, 0, 0, 0, 0, 0]\n[0, 0, 0, 0, 0, 0, 0, 0, 0, 0, 0, 0, 0, 0, 1]\n[0, 0, 0, 1, 0, 0, 0, 0, 0, 0, 0, 0, 0, 0, 0]]", fillcolor="#e58139ff"] ;
203 -> 204 ;
205 [label="gini = 0.0\nsamples = 1\nvalue = [[0, 0, 0, 0, 2, 0, 0, 0, 0, 0, 0, 0, 0, 0, 0]\n[0, 0, 0, 0, 0, 0, 0, 0, 0, 0, 0, 0, 0, 0, 2]\n[0, 0, 0, 0, 0, 0, 0, 2, 0, 0, 0, 0, 0, 0, 0]]", fillcolor="#e58139ff"] ;
203 -> 205 ;
206 [label="X[20] <= 0.231\ngini = 0.148\nsamples = 3\nvalue = [[0, 0, 1, 0, 2, 0, 0, 0, 0, 0, 0, 0, 0, 0, 0]\n[0, 0, 0, 0, 0, 0, 0, 0, 0, 0, 0, 0, 0, 0, 3]\n[0, 0, 0, 3, 0, 0, 0, 0, 0, 0, 0, 0, 0, 0, 0]]", fillcolor="#e58139be"] ;
194 -> 206 ;
207 [label="gini = 0.0\nsamples = 1\nvalue = [[0, 0, 1, 0, 0, 0, 0, 0, 0, 0, 0, 0, 0, 0, 0]\n[0, 0, 0, 0, 0, 0, 0, 0, 0, 0, 0, 0, 0, 0, 1]\n[0, 0, 0, 1, 0, 0, 0, 0, 0, 0, 0, 0, 0, 0, 0]]", fillcolor="#e58139ff"] ;
206 -> 207 ;
208 [label="gini = 0.0\nsamples = 2\nvalue = [[0, 0, 0, 0, 2, 0, 0, 0, 0, 0, 0, 0, 0, 0, 0]\n[0, 0, 0, 0, 0, 0, 0, 0, 0, 0, 0, 0, 0, 0, 2]\n[0, 0, 0, 2, 0, 0, 0, 0, 0, 0, 0, 0, 0, 0, 0]]", fillcolor="#e58139ff"] ;
206 -> 208 ;
209 [label="X[10] <= 154.621\ngini = 0.313\nsamples = 6\nvalue = [[0, 0, 0, 0, 9, 0, 0, 0, 0, 0, 0, 0, 0, 0, 0]\n[0, 0, 0, 2, 0, 0, 0, 0, 0, 0, 0, 0, 0, 0, 7]\n[0, 0, 0, 0, 0, 0, 0, 0, 0, 4, 0, 1, 0, 0, 4]]", fillcolor="#e5813975"] ;
185 -> 209 ;
210 [label="X[18] <= 90.112\ngini = 0.19\nsamples = 5\nvalue = [[0, 0, 0, 0, 7, 0, 0, 0, 0, 0, 0, 0, 0, 0, 0]\n[0, 0, 0, 0, 0, 0, 0, 0, 0, 0, 0, 0, 0, 0, 7]\n[0, 0, 0, 0, 0, 0, 0, 0, 0, 2, 0, 1, 0, 0, 4]]", fillcolor="#e58139ab"] ;
209 -> 210 ;
211 [label="X[6] <= 359.883\ngini = 0.148\nsamples = 2\nvalue = [[0, 0, 0, 0, 3, 0, 0, 0, 0, 0, 0, 0, 0, 0, 0]\n[0, 0, 0, 0, 0, 0, 0, 0, 0, 0, 0, 0, 0, 0, 3]\n[0, 0, 0, 0, 0, 0, 0, 0, 0, 2, 0, 1, 0, 0, 0]]", fillcolor="#e58139be"] ;
210 -> 211 ;
212 [label="gini = 0.0\nsamples = 1\nvalue = [[0, 0, 0, 0, 1, 0, 0, 0, 0, 0, 0, 0, 0, 0, 0]\n[0, 0, 0, 0, 0, 0, 0, 0, 0, 0, 0, 0, 0, 0, 1]\n[0, 0, 0, 0, 0, 0, 0, 0, 0, 0, 0, 1, 0, 0, 0]]", fillcolor="#e58139ff"] ;
211 -> 212 ;
213 [label="gini = 0.0\nsamples = 1\nvalue = [[0, 0, 0, 0, 2, 0, 0, 0, 0, 0, 0, 0, 0, 0, 0]\n[0, 0, 0, 0, 0, 0, 0, 0, 0, 0, 0, 0, 0, 0, 2]\n[0, 0, 0, 0, 0, 0, 0, 0, 0, 2, 0, 0, 0, 0, 0]]", fillcolor="#e58139ff"] ;
211 -> 213 ;
214 [label="gini = 0.0\nsamples = 3\nvalue = [[0, 0, 0, 0, 4, 0, 0, 0, 0, 0, 0, 0, 0, 0, 0]\n[0, 0, 0, 0, 0, 0, 0, 0, 0, 0, 0, 0, 0, 0, 4]\n[0, 0, 0, 0, 0, 0, 0, 0, 0, 0, 0, 0, 0, 0, 4]]", fillcolor="#e58139ff"] ;
210 -> 214 ;
215 [label="gini = 0.0\nsamples = 1\nvalue = [[0, 0, 0, 0, 2, 0, 0, 0, 0, 0, 0, 0, 0, 0, 0]\n[0, 0, 0, 2, 0, 0, 0, 0, 0, 0, 0, 0, 0, 0, 0]\n[0, 0, 0, 0, 0, 0, 0, 0, 0, 2, 0, 0, 0, 0, 0]]", fillcolor="#e58139ff"] ;
209 -> 215 ;
216 [label="X[0] <= 17.0\ngini = 0.425\nsamples = 11\nvalue = [[0, 0, 4, 0, 15, 0, 0, 0, 0, 0, 0, 0, 0, 0, 0]\n[0, 1, 0, 9, 1, 0, 0, 0, 0, 0, 0, 0, 0, 0, 8]\n[0, 0, 1, 15, 0, 0, 0, 0, 0, 0, 0, 0, 0, 0, 3]]", fillcolor="#e5813944"] ;
4 -> 216 ;
217 [label="X[4] <= 3.25\ngini = 0.278\nsamples = 6\nvalue = [[0, 0, 2, 0, 10, 0, 0, 0, 0, 0, 0, 0, 0, 0, 0]\n[0, 1, 0, 9, 0, 0, 0, 0, 0, 0, 0, 0, 0, 0, 2]\n[0, 0, 1, 11, 0, 0, 0, 0, 0, 0, 0, 0, 0, 0, 0]]", fillcolor="#e5813985"] ;
216 -> 217 ;
218 [label="gini = 0.0\nsamples = 1\nvalue = [[0, 0, 2, 0, 0, 0, 0, 0, 0, 0, 0, 0, 0, 0, 0]\n[0, 0, 0, 2, 0, 0, 0, 0, 0, 0, 0, 0, 0, 0, 0]\n[0, 0, 0, 2, 0, 0, 0, 0, 0, 0, 0, 0, 0, 0, 0]]", fillcolor="#e58139ff"] ;
217 -> 218 ;
219 [label="X[8] <= 114.002\ngini = 0.213\nsamples = 5\nvalue = [[0, 0, 0, 0, 10, 0, 0, 0, 0, 0, 0, 0, 0, 0, 0]\n[0, 1, 0, 7, 0, 0, 0, 0, 0, 0, 0, 0, 0, 0, 2]\n[0, 0, 1, 9, 0, 0, 0, 0, 0, 0, 0, 0, 0, 0, 0]]", fillcolor="#e58139a1"] ;
217 -> 219 ;
220 [label="X[16] <= 89.981\ngini = 0.115\nsamples = 4\nvalue = [[0, 0, 0, 0, 9, 0, 0, 0, 0, 0, 0, 0, 0, 0, 0]\n[0, 0, 0, 7, 0, 0, 0, 0, 0, 0, 0, 0, 0, 0, 2]\n[0, 0, 0, 9, 0, 0, 0, 0, 0, 0, 0, 0, 0, 0, 0]]", fillcolor="#e58139cc"] ;
219 -> 220 ;
221 [label="gini = 0.0\nsamples = 3\nvalue = [[0, 0, 0, 0, 7, 0, 0, 0, 0, 0, 0, 0, 0, 0, 0]\n[0, 0, 0, 7, 0, 0, 0, 0, 0, 0, 0, 0, 0, 0, 0]\n[0, 0, 0, 7, 0, 0, 0, 0, 0, 0, 0, 0, 0, 0, 0]]", fillcolor="#e58139ff"] ;
220 -> 221 ;
222 [label="gini = 0.0\nsamples = 1\nvalue = [[0, 0, 0, 0, 2, 0, 0, 0, 0, 0, 0, 0, 0, 0, 0]\n[0, 0, 0, 0, 0, 0, 0, 0, 0, 0, 0, 0, 0, 0, 2]\n[0, 0, 0, 2, 0, 0, 0, 0, 0, 0, 0, 0, 0, 0, 0]]", fillcolor="#e58139ff"] ;
220 -> 222 ;
223 [label="gini = 0.0\nsamples = 1\nvalue = [[0, 0, 0, 0, 1, 0, 0, 0, 0, 0, 0, 0, 0, 0, 0]\n[0, 1, 0, 0, 0, 0, 0, 0, 0, 0, 0, 0, 0, 0, 0]\n[0, 0, 1, 0, 0, 0, 0, 0, 0, 0, 0, 0, 0, 0, 0]]", fillcolor="#e58139ff"] ;
219 -> 223 ;
224 [label="X[11] <= 21.455\ngini = 0.381\nsamples = 5\nvalue = [[0, 0, 2, 0, 5, 0, 0, 0, 0, 0, 0, 0, 0, 0, 0]\n[0, 0, 0, 0, 1, 0, 0, 0, 0, 0, 0, 0, 0, 0, 6]\n[0, 0, 0, 4, 0, 0, 0, 0, 0, 0, 0, 0, 0, 0, 3]]", fillcolor="#e5813957"] ;
216 -> 224 ;
225 [label="gini = 0.0\nsamples = 2\nvalue = [[0, 0, 2, 0, 0, 0, 0, 0, 0, 0, 0, 0, 0, 0, 0]\n[0, 0, 0, 0, 0, 0, 0, 0, 0, 0, 0, 0, 0, 0, 2]\n[0, 0, 0, 2, 0, 0, 0, 0, 0, 0, 0, 0, 0, 0, 0]]", fillcolor="#e58139ff"] ;
224 -> 225 ;
226 [label="X[11] <= 31.655\ngini = 0.267\nsamples = 3\nvalue = [[0, 0, 0, 0, 5, 0, 0, 0, 0, 0, 0, 0, 0, 0, 0]\n[0, 0, 0, 0, 1, 0, 0, 0, 0, 0, 0, 0, 0, 0, 4]\n[0, 0, 0, 2, 0, 0, 0, 0, 0, 0, 0, 0, 0, 0, 3]]", fillcolor="#e5813989"] ;
224 -> 226 ;
227 [label="X[7] <= 226.216\ngini = 0.148\nsamples = 2\nvalue = [[0, 0, 0, 0, 3, 0, 0, 0, 0, 0, 0, 0, 0, 0, 0]\n[0, 0, 0, 0, 1, 0, 0, 0, 0, 0, 0, 0, 0, 0, 2]\n[0, 0, 0, 0, 0, 0, 0, 0, 0, 0, 0, 0, 0, 0, 3]]", fillcolor="#e58139be"] ;
226 -> 227 ;
228 [label="gini = 0.0\nsamples = 1\nvalue = [[0, 0, 0, 0, 1, 0, 0, 0, 0, 0, 0, 0, 0, 0, 0]\n[0, 0, 0, 0, 1, 0, 0, 0, 0, 0, 0, 0, 0, 0, 0]\n[0, 0, 0, 0, 0, 0, 0, 0, 0, 0, 0, 0, 0, 0, 1]]", fillcolor="#e58139ff"] ;
227 -> 228 ;
229 [label="gini = 0.0\nsamples = 1\nvalue = [[0, 0, 0, 0, 2, 0, 0, 0, 0, 0, 0, 0, 0, 0, 0]\n[0, 0, 0, 0, 0, 0, 0, 0, 0, 0, 0, 0, 0, 0, 2]\n[0, 0, 0, 0, 0, 0, 0, 0, 0, 0, 0, 0, 0, 0, 2]]", fillcolor="#e58139ff"] ;
227 -> 229 ;
230 [label="gini = 0.0\nsamples = 1\nvalue = [[0, 0, 0, 0, 2, 0, 0, 0, 0, 0, 0, 0, 0, 0, 0]\n[0, 0, 0, 0, 0, 0, 0, 0, 0, 0, 0, 0, 0, 0, 2]\n[0, 0, 0, 2, 0, 0, 0, 0, 0, 0, 0, 0, 0, 0, 0]]", fillcolor="#e58139ff"] ;
226 -> 230 ;
231 [label="X[17] <= 0.066\ngini = 0.365\nsamples = 43\nvalue = [[0, 1, 4, 1, 65, 0, 0, 0, 0, 0, 0, 0, 0, 0, 0]\n[0, 0, 0, 5, 0, 4, 0, 1, 0, 0, 0, 0, 0, 0, 61]\n[0, 0, 0, 35, 0, 0, 1, 7, 0, 4, 0, 0, 7, 1, 16]]", fillcolor="#e581395e"] ;
3 -> 231 ;
232 [label="X[15] <= 84.506\ngini = 0.362\nsamples = 42\nvalue = [[0, 1, 4, 1, 62, 0, 0, 0, 0, 0, 0, 0, 0, 0, 0]\n[0, 0, 0, 5, 0, 4, 0, 1, 0, 0, 0, 0, 0, 0, 58]\n[0, 0, 0, 35, 0, 0, 1, 7, 0, 1, 0, 0, 7, 1, 16]]", fillcolor="#e581395f"] ;
231 -> 232 ;
233 [label="X[16] <= 89.958\ngini = 0.375\nsamples = 3\nvalue = [[0, 0, 3, 0, 5, 0, 0, 0, 0, 0, 0, 0, 0, 0, 0]\n[0, 0, 0, 0, 0, 0, 0, 0, 0, 0, 0, 0, 0, 0, 8]\n[0, 0, 0, 0, 0, 0, 0, 2, 0, 0, 0, 0, 3, 0, 3]]", fillcolor="#e581395a"] ;
232 -> 233 ;
234 [label="X[19] <= 32.3\ngini = 0.16\nsamples = 2\nvalue = [[0, 0, 0, 0, 5, 0, 0, 0, 0, 0, 0, 0, 0, 0, 0]\n[0, 0, 0, 0, 0, 0, 0, 0, 0, 0, 0, 0, 0, 0, 5]\n[0, 0, 0, 0, 0, 0, 0, 2, 0, 0, 0, 0, 3, 0, 0]]", fillcolor="#e58139b8"] ;
233 -> 234 ;
235 [label="gini = 0.0\nsamples = 1\nvalue = [[0, 0, 0, 0, 3, 0, 0, 0, 0, 0, 0, 0, 0, 0, 0]\n[0, 0, 0, 0, 0, 0, 0, 0, 0, 0, 0, 0, 0, 0, 3]\n[0, 0, 0, 0, 0, 0, 0, 0, 0, 0, 0, 0, 3, 0, 0]]", fillcolor="#e58139ff"] ;
234 -> 235 ;
236 [label="gini = 0.0\nsamples = 1\nvalue = [[0, 0, 0, 0, 2, 0, 0, 0, 0, 0, 0, 0, 0, 0, 0]\n[0, 0, 0, 0, 0, 0, 0, 0, 0, 0, 0, 0, 0, 0, 2]\n[0, 0, 0, 0, 0, 0, 0, 2, 0, 0, 0, 0, 0, 0, 0]]", fillcolor="#e58139ff"] ;
234 -> 236 ;
237 [label="gini = 0.0\nsamples = 1\nvalue = [[0, 0, 3, 0, 0, 0, 0, 0, 0, 0, 0, 0, 0, 0, 0]\n[0, 0, 0, 0, 0, 0, 0, 0, 0, 0, 0, 0, 0, 0, 3]\n[0, 0, 0, 0, 0, 0, 0, 0, 0, 0, 0, 0, 0, 0, 3]]", fillcolor="#e58139ff"] ;
233 -> 237 ;
238 [label="X[13] <= 0.0\ngini = 0.33\nsamples = 39\nvalue = [[0, 1, 1, 1, 57, 0, 0, 0, 0, 0, 0, 0, 0, 0, 0]\n[0, 0, 0, 5, 0, 4, 0, 1, 0, 0, 0, 0, 0, 0, 50]\n[0, 0, 0, 35, 0, 0, 1, 5, 0, 1, 0, 0, 4, 1, 13]]", fillcolor="#e581396d"] ;
232 -> 238 ;
239 [label="X[17] <= 0.0\ngini = 0.415\nsamples = 11\nvalue = [[0, 0, 1, 0, 16, 0, 0, 0, 0, 0, 0, 0, 0, 0, 0]\n[0, 0, 0, 2, 0, 4, 0, 0, 0, 0, 0, 0, 0, 0, 11]\n[0, 0, 0, 9, 0, 0, 1, 5, 0, 1, 0, 0, 0, 0, 1]]", fillcolor="#e5813948"] ;
238 -> 239 ;
240 [label="X[10] <= 163.982\ngini = 0.3\nsamples = 10\nvalue = [[0, 0, 1, 0, 12, 0, 0, 0, 0, 0, 0, 0, 0, 0, 0]\n[0, 0, 0, 2, 0, 0, 0, 0, 0, 0, 0, 0, 0, 0, 11]\n[0, 0, 0, 9, 0, 0, 1, 1, 0, 1, 0, 0, 0, 0, 1]]", fillcolor="#e581397b"] ;
239 -> 240 ;
241 [label="X[20] <= 0.185\ngini = 0.16\nsamples = 8\nvalue = [[0, 0, 1, 0, 10, 0, 0, 0, 0, 0, 0, 0, 0, 0, 0]\n[0, 0, 0, 0, 0, 0, 0, 0, 0, 0, 0, 0, 0, 0, 11]\n[0, 0, 0, 9, 0, 0, 0, 0, 0, 1, 0, 0, 0, 0, 1]]", fillcolor="#e58139b9"] ;
240 -> 241 ;
242 [label="X[11] <= 24.341\ngini = 0.167\nsamples = 2\nvalue = [[0, 0, 0, 0, 2, 0, 0, 0, 0, 0, 0, 0, 0, 0, 0]\n[0, 0, 0, 0, 0, 0, 0, 0, 0, 0, 0, 0, 0, 0, 2]\n[0, 0, 0, 1, 0, 0, 0, 0, 0, 0, 0, 0, 0, 0, 1]]", fillcolor="#e58139b6"] ;
241 -> 242 ;
243 [label="gini = 0.0\nsamples = 1\nvalue = [[0, 0, 0, 0, 1, 0, 0, 0, 0, 0, 0, 0, 0, 0, 0]\n[0, 0, 0, 0, 0, 0, 0, 0, 0, 0, 0, 0, 0, 0, 1]\n[0, 0, 0, 1, 0, 0, 0, 0, 0, 0, 0, 0, 0, 0, 0]]", fillcolor="#e58139ff"] ;
242 -> 243 ;
244 [label="gini = 0.0\nsamples = 1\nvalue = [[0, 0, 0, 0, 1, 0, 0, 0, 0, 0, 0, 0, 0, 0, 0]\n[0, 0, 0, 0, 0, 0, 0, 0, 0, 0, 0, 0, 0, 0, 1]\n[0, 0, 0, 0, 0, 0, 0, 0, 0, 0, 0, 0, 0, 0, 1]]", fillcolor="#e58139ff"] ;
242 -> 244 ;
245 [label="X[13] <= 0.0\ngini = 0.132\nsamples = 6\nvalue = [[0, 0, 1, 0, 8, 0, 0, 0, 0, 0, 0, 0, 0, 0, 0]\n[0, 0, 0, 0, 0, 0, 0, 0, 0, 0, 0, 0, 0, 0, 9]\n[0, 0, 0, 8, 0, 0, 0, 0, 0, 1, 0, 0, 0, 0, 0]]", fillcolor="#e58139c5"] ;
241 -> 245 ;
246 [label="X[8] <= 196.099\ngini = 0.073\nsamples = 5\nvalue = [[0, 0, 1, 0, 7, 0, 0, 0, 0, 0, 0, 0, 0, 0, 0]\n[0, 0, 0, 0, 0, 0, 0, 0, 0, 0, 0, 0, 0, 0, 8]\n[0, 0, 0, 8, 0, 0, 0, 0, 0, 0, 0, 0, 0, 0, 0]]", fillcolor="#e58139df"] ;
245 -> 246 ;
247 [label="gini = 0.0\nsamples = 4\nvalue = [[0, 0, 0, 0, 7, 0, 0, 0, 0, 0, 0, 0, 0, 0, 0]\n[0, 0, 0, 0, 0, 0, 0, 0, 0, 0, 0, 0, 0, 0, 7]\n[0, 0, 0, 7, 0, 0, 0, 0, 0, 0, 0, 0, 0, 0, 0]]", fillcolor="#e58139ff"] ;
246 -> 247 ;
248 [label="gini = 0.0\nsamples = 1\nvalue = [[0, 0, 1, 0, 0, 0, 0, 0, 0, 0, 0, 0, 0, 0, 0]\n[0, 0, 0, 0, 0, 0, 0, 0, 0, 0, 0, 0, 0, 0, 1]\n[0, 0, 0, 1, 0, 0, 0, 0, 0, 0, 0, 0, 0, 0, 0]]", fillcolor="#e58139ff"] ;
246 -> 248 ;
249 [label="gini = 0.0\nsamples = 1\nvalue = [[0, 0, 0, 0, 1, 0, 0, 0, 0, 0, 0, 0, 0, 0, 0]\n[0, 0, 0, 0, 0, 0, 0, 0, 0, 0, 0, 0, 0, 0, 1]\n[0, 0, 0, 0, 0, 0, 0, 0, 0, 1, 0, 0, 0, 0, 0]]", fillcolor="#e58139ff"] ;
245 -> 249 ;
250 [label="X[12] <= 71.415\ngini = 0.167\nsamples = 2\nvalue = [[0, 0, 0, 0, 2, 0, 0, 0, 0, 0, 0, 0, 0, 0, 0]\n[0, 0, 0, 2, 0, 0, 0, 0, 0, 0, 0, 0, 0, 0, 0]\n[0, 0, 0, 0, 0, 0, 1, 1, 0, 0, 0, 0, 0, 0, 0]]", fillcolor="#e58139b6"] ;
240 -> 250 ;
251 [label="gini = 0.0\nsamples = 1\nvalue = [[0, 0, 0, 0, 1, 0, 0, 0, 0, 0, 0, 0, 0, 0, 0]\n[0, 0, 0, 1, 0, 0, 0, 0, 0, 0, 0, 0, 0, 0, 0]\n[0, 0, 0, 0, 0, 0, 1, 0, 0, 0, 0, 0, 0, 0, 0]]", fillcolor="#e58139ff"] ;
250 -> 251 ;
252 [label="gini = 0.0\nsamples = 1\nvalue = [[0, 0, 0, 0, 1, 0, 0, 0, 0, 0, 0, 0, 0, 0, 0]\n[0, 0, 0, 1, 0, 0, 0, 0, 0, 0, 0, 0, 0, 0, 0]\n[0, 0, 0, 0, 0, 0, 0, 1, 0, 0, 0, 0, 0, 0, 0]]", fillcolor="#e58139ff"] ;
250 -> 252 ;
253 [label="gini = 0.0\nsamples = 1\nvalue = [[0, 0, 0, 0, 4, 0, 0, 0, 0, 0, 0, 0, 0, 0, 0]\n[0, 0, 0, 0, 0, 4, 0, 0, 0, 0, 0, 0, 0, 0, 0]\n[0, 0, 0, 0, 0, 0, 0, 4, 0, 0, 0, 0, 0, 0, 0]]", fillcolor="#e58139ff"] ;
239 -> 253 ;
254 [label="X[10] <= 44.755\ngini = 0.27\nsamples = 28\nvalue = [[0, 1, 0, 1, 41, 0, 0, 0, 0, 0, 0, 0, 0, 0, 0]\n[0, 0, 0, 3, 0, 0, 0, 1, 0, 0, 0, 0, 0, 0, 39]\n[0, 0, 0, 26, 0, 0, 0, 0, 0, 0, 0, 0, 4, 1, 12]]", fillcolor="#e5813988"] ;
238 -> 254 ;
255 [label="gini = 0.0\nsamples = 1\nvalue = [[0, 0, 0, 0, 1, 0, 0, 0, 0, 0, 0, 0, 0, 0, 0]\n[0, 0, 0, 1, 0, 0, 0, 0, 0, 0, 0, 0, 0, 0, 0]\n[0, 0, 0, 0, 0, 0, 0, 0, 0, 0, 0, 0, 0, 1, 0]]", fillcolor="#e58139ff"] ;
254 -> 255 ;
256 [label="X[13] <= 0.037\ngini = 0.251\nsamples = 27\nvalue = [[0, 1, 0, 1, 40, 0, 0, 0, 0, 0, 0, 0, 0, 0, 0]\n[0, 0, 0, 2, 0, 0, 0, 1, 0, 0, 0, 0, 0, 0, 39]\n[0, 0, 0, 26, 0, 0, 0, 0, 0, 0, 0, 0, 4, 0, 12]]", fillcolor="#e5813990"] ;
254 -> 256 ;
257 [label="X[18] <= 90.832\ngini = 0.277\nsamples = 24\nvalue = [[0, 1, 0, 1, 34, 0, 0, 0, 0, 0, 0, 0, 0, 0, 0]\n[0, 0, 0, 2, 0, 0, 0, 1, 0, 0, 0, 0, 0, 0, 33]\n[0, 0, 0, 20, 0, 0, 0, 0, 0, 0, 0, 0, 4, 0, 12]]", fillcolor="#e5813985"] ;
256 -> 257 ;
258 [label="X[11] <= 37.667\ngini = 0.291\nsamples = 16\nvalue = [[0, 1, 0, 1, 21, 0, 0, 0, 0, 0, 0, 0, 0, 0, 0]\n[0, 0, 0, 0, 0, 0, 0, 1, 0, 0, 0, 0, 0, 0, 22]\n[0, 0, 0, 9, 0, 0, 0, 0, 0, 0, 0, 0, 4, 0, 10]]", fillcolor="#e581397f"] ;
257 -> 258 ;
259 [label="X[14] <= 180.0\ngini = 0.107\nsamples = 6\nvalue = [[0, 0, 0, 0, 10, 0, 0, 0, 0, 0, 0, 0, 0, 0, 0]\n[0, 0, 0, 0, 0, 0, 0, 0, 0, 0, 0, 0, 0, 0, 10]\n[0, 0, 0, 8, 0, 0, 0, 0, 0, 0, 0, 0, 0, 0, 2]]", fillcolor="#e58139d0"] ;
258 -> 259 ;
260 [label="gini = 0.0\nsamples = 5\nvalue = [[0, 0, 0, 0, 8, 0, 0, 0, 0, 0, 0, 0, 0, 0, 0]\n[0, 0, 0, 0, 0, 0, 0, 0, 0, 0, 0, 0, 0, 0, 8]\n[0, 0, 0, 8, 0, 0, 0, 0, 0, 0, 0, 0, 0, 0, 0]]", fillcolor="#e58139ff"] ;
259 -> 260 ;
261 [label="gini = 0.0\nsamples = 1\nvalue = [[0, 0, 0, 0, 2, 0, 0, 0, 0, 0, 0, 0, 0, 0, 0]\n[0, 0, 0, 0, 0, 0, 0, 0, 0, 0, 0, 0, 0, 0, 2]\n[0, 0, 0, 0, 0, 0, 0, 0, 0, 0, 0, 0, 0, 0, 2]]", fillcolor="#e58139ff"] ;
259 -> 261 ;
262 [label="X[17] <= 0.008\ngini = 0.312\nsamples = 10\nvalue = [[0, 1, 0, 1, 11, 0, 0, 0, 0, 0, 0, 0, 0, 0, 0]\n[0, 0, 0, 0, 0, 0, 0, 1, 0, 0, 0, 0, 0, 0, 12]\n[0, 0, 0, 1, 0, 0, 0, 0, 0, 0, 0, 0, 4, 0, 8]]", fillcolor="#e5813976"] ;
258 -> 262 ;
263 [label="X[12] <= 11.343\ngini = 0.167\nsamples = 4\nvalue = [[0, 0, 0, 0, 6, 0, 0, 0, 0, 0, 0, 0, 0, 0, 0]\n[0, 0, 0, 0, 0, 0, 0, 0, 0, 0, 0, 0, 0, 0, 6]\n[0, 0, 0, 1, 0, 0, 0, 0, 0, 0, 0, 0, 4, 0, 1]]", fillcolor="#e58139b6"] ;
262 -> 263 ;
264 [label="gini = 0.0\nsamples = 1\nvalue = [[0, 0, 0, 0, 1, 0, 0, 0, 0, 0, 0, 0, 0, 0, 0]\n[0, 0, 0, 0, 0, 0, 0, 0, 0, 0, 0, 0, 0, 0, 1]\n[0, 0, 0, 0, 0, 0, 0, 0, 0, 0, 0, 0, 0, 0, 1]]", fillcolor="#e58139ff"] ;
263 -> 264 ;
265 [label="X[10] <= 142.275\ngini = 0.107\nsamples = 3\nvalue = [[0, 0, 0, 0, 5, 0, 0, 0, 0, 0, 0, 0, 0, 0, 0]\n[0, 0, 0, 0, 0, 0, 0, 0, 0, 0, 0, 0, 0, 0, 5]\n[0, 0, 0, 1, 0, 0, 0, 0, 0, 0, 0, 0, 4, 0, 0]]", fillcolor="#e58139d0"] ;
263 -> 265 ;
266 [label="gini = 0.0\nsamples = 2\nvalue = [[0, 0, 0, 0, 4, 0, 0, 0, 0, 0, 0, 0, 0, 0, 0]\n[0, 0, 0, 0, 0, 0, 0, 0, 0, 0, 0, 0, 0, 0, 4]\n[0, 0, 0, 0, 0, 0, 0, 0, 0, 0, 0, 0, 4, 0, 0]]", fillcolor="#e58139ff"] ;
265 -> 266 ;
267 [label="gini = 0.0\nsamples = 1\nvalue = [[0, 0, 0, 0, 1, 0, 0, 0, 0, 0, 0, 0, 0, 0, 0]\n[0, 0, 0, 0, 0, 0, 0, 0, 0, 0, 0, 0, 0, 0, 1]\n[0, 0, 0, 1, 0, 0, 0, 0, 0, 0, 0, 0, 0, 0, 0]]", fillcolor="#e58139ff"] ;
265 -> 267 ;
268 [label="X[14] <= 179.997\ngini = 0.231\nsamples = 6\nvalue = [[0, 1, 0, 1, 5, 0, 0, 0, 0, 0, 0, 0, 0, 0, 0]\n[0, 0, 0, 0, 0, 0, 0, 1, 0, 0, 0, 0, 0, 0, 6]\n[0, 0, 0, 0, 0, 0, 0, 0, 0, 0, 0, 0, 0, 0, 7]]", fillcolor="#e5813999"] ;
262 -> 268 ;
269 [label="X[7] <= 143.929\ngini = 0.167\nsamples = 5\nvalue = [[0, 1, 0, 1, 4, 0, 0, 0, 0, 0, 0, 0, 0, 0, 0]\n[0, 0, 0, 0, 0, 0, 0, 0, 0, 0, 0, 0, 0, 0, 6]\n[0, 0, 0, 0, 0, 0, 0, 0, 0, 0, 0, 0, 0, 0, 6]]", fillcolor="#e58139b6"] ;
268 -> 269 ;
270 [label="gini = 0.0\nsamples = 3\nvalue = [[0, 0, 0, 0, 4, 0, 0, 0, 0, 0, 0, 0, 0, 0, 0]\n[0, 0, 0, 0, 0, 0, 0, 0, 0, 0, 0, 0, 0, 0, 4]\n[0, 0, 0, 0, 0, 0, 0, 0, 0, 0, 0, 0, 0, 0, 4]]", fillcolor="#e58139ff"] ;
269 -> 270 ;
271 [label="X[13] <= 0.025\ngini = 0.167\nsamples = 2\nvalue = [[0, 1, 0, 1, 0, 0, 0, 0, 0, 0, 0, 0, 0, 0, 0]\n[0, 0, 0, 0, 0, 0, 0, 0, 0, 0, 0, 0, 0, 0, 2]\n[0, 0, 0, 0, 0, 0, 0, 0, 0, 0, 0, 0, 0, 0, 2]]", fillcolor="#e58139b6"] ;
269 -> 271 ;
272 [label="gini = 0.0\nsamples = 1\nvalue = [[0, 1, 0, 0, 0, 0, 0, 0, 0, 0, 0, 0, 0, 0, 0]\n[0, 0, 0, 0, 0, 0, 0, 0, 0, 0, 0, 0, 0, 0, 1]\n[0, 0, 0, 0, 0, 0, 0, 0, 0, 0, 0, 0, 0, 0, 1]]", fillcolor="#e58139ff"] ;
271 -> 272 ;
273 [label="gini = 0.0\nsamples = 1\nvalue = [[0, 0, 0, 1, 0, 0, 0, 0, 0, 0, 0, 0, 0, 0, 0]\n[0, 0, 0, 0, 0, 0, 0, 0, 0, 0, 0, 0, 0, 0, 1]\n[0, 0, 0, 0, 0, 0, 0, 0, 0, 0, 0, 0, 0, 0, 1]]", fillcolor="#e58139ff"] ;
271 -> 273 ;
274 [label="gini = 0.0\nsamples = 1\nvalue = [[0, 0, 0, 0, 1, 0, 0, 0, 0, 0, 0, 0, 0, 0, 0]\n[0, 0, 0, 0, 0, 0, 0, 1, 0, 0, 0, 0, 0, 0, 0]\n[0, 0, 0, 0, 0, 0, 0, 0, 0, 0, 0, 0, 0, 0, 1]]", fillcolor="#e58139ff"] ;
268 -> 274 ;
275 [label="X[13] <= 0.0\ngini = 0.174\nsamples = 8\nvalue = [[0, 0, 0, 0, 13, 0, 0, 0, 0, 0, 0, 0, 0, 0, 0]\n[0, 0, 0, 2, 0, 0, 0, 0, 0, 0, 0, 0, 0, 0, 11]\n[0, 0, 0, 11, 0, 0, 0, 0, 0, 0, 0, 0, 0, 0, 2]]", fillcolor="#e58139b3"] ;
257 -> 275 ;
276 [label="gini = 0.0\nsamples = 1\nvalue = [[0, 0, 0, 0, 2, 0, 0, 0, 0, 0, 0, 0, 0, 0, 0]\n[0, 0, 0, 0, 0, 0, 0, 0, 0, 0, 0, 0, 0, 0, 2]\n[0, 0, 0, 0, 0, 0, 0, 0, 0, 0, 0, 0, 0, 0, 2]]", fillcolor="#e58139ff"] ;
275 -> 276 ;
277 [label="X[20] <= 0.846\ngini = 0.099\nsamples = 7\nvalue = [[0, 0, 0, 0, 11, 0, 0, 0, 0, 0, 0, 0, 0, 0, 0]\n[0, 0, 0, 2, 0, 0, 0, 0, 0, 0, 0, 0, 0, 0, 9]\n[0, 0, 0, 11, 0, 0, 0, 0, 0, 0, 0, 0, 0, 0, 0]]", fillcolor="#e58139d3"] ;
275 -> 277 ;
278 [label="gini = 0.0\nsamples = 1\nvalue = [[0, 0, 0, 0, 2, 0, 0, 0, 0, 0, 0, 0, 0, 0, 0]\n[0, 0, 0, 2, 0, 0, 0, 0, 0, 0, 0, 0, 0, 0, 0]\n[0, 0, 0, 2, 0, 0, 0, 0, 0, 0, 0, 0, 0, 0, 0]]", fillcolor="#e58139ff"] ;
277 -> 278 ;
279 [label="gini = 0.0\nsamples = 6\nvalue = [[0, 0, 0, 0, 9, 0, 0, 0, 0, 0, 0, 0, 0, 0, 0]\n[0, 0, 0, 0, 0, 0, 0, 0, 0, 0, 0, 0, 0, 0, 9]\n[0, 0, 0, 9, 0, 0, 0, 0, 0, 0, 0, 0, 0, 0, 0]]", fillcolor="#e58139ff"] ;
277 -> 279 ;
280 [label="gini = 0.0\nsamples = 3\nvalue = [[0, 0, 0, 0, 6, 0, 0, 0, 0, 0, 0, 0, 0, 0, 0]\n[0, 0, 0, 0, 0, 0, 0, 0, 0, 0, 0, 0, 0, 0, 6]\n[0, 0, 0, 6, 0, 0, 0, 0, 0, 0, 0, 0, 0, 0, 0]]", fillcolor="#e58139ff"] ;
256 -> 280 ;
281 [label="gini = 0.0\nsamples = 1\nvalue = [[0, 0, 0, 0, 3, 0, 0, 0, 0, 0, 0, 0, 0, 0, 0]\n[0, 0, 0, 0, 0, 0, 0, 0, 0, 0, 0, 0, 0, 0, 3]\n[0, 0, 0, 0, 0, 0, 0, 0, 0, 3, 0, 0, 0, 0, 0]]", fillcolor="#e58139ff"] ;
231 -> 281 ;
282 [label="X[17] <= 0.056\ngini = 0.214\nsamples = 33\nvalue = [[0, 0, 1, 0, 50, 0, 0, 0, 0, 0, 0, 0, 0, 0, 0]\n[0, 0, 0, 8, 0, 0, 0, 0, 0, 13, 0, 0, 0, 0, 30]\n[0, 0, 0, 50, 0, 0, 0, 0, 0, 0, 0, 0, 0, 0, 1]]", fillcolor="#e58139a1"] ;
2 -> 282 ;
283 [label="X[5] <= 0.004\ngini = 0.093\nsamples = 3\nvalue = [[0, 0, 0, 0, 6, 0, 0, 0, 0, 0, 0, 0, 0, 0, 0]\n[0, 0, 0, 0, 0, 0, 0, 0, 0, 5, 0, 0, 0, 0, 1]\n[0, 0, 0, 6, 0, 0, 0, 0, 0, 0, 0, 0, 0, 0, 0]]", fillcolor="#e58139d6"] ;
282 -> 283 ;
284 [label="gini = 0.0\nsamples = 1\nvalue = [[0, 0, 0, 0, 1, 0, 0, 0, 0, 0, 0, 0, 0, 0, 0]\n[0, 0, 0, 0, 0, 0, 0, 0, 0, 0, 0, 0, 0, 0, 1]\n[0, 0, 0, 1, 0, 0, 0, 0, 0, 0, 0, 0, 0, 0, 0]]", fillcolor="#e58139ff"] ;
283 -> 284 ;
285 [label="gini = 0.0\nsamples = 2\nvalue = [[0, 0, 0, 0, 5, 0, 0, 0, 0, 0, 0, 0, 0, 0, 0]\n[0, 0, 0, 0, 0, 0, 0, 0, 0, 5, 0, 0, 0, 0, 0]\n[0, 0, 0, 5, 0, 0, 0, 0, 0, 0, 0, 0, 0, 0, 0]]", fillcolor="#e58139ff"] ;
283 -> 285 ;
286 [label="X[8] <= 81.508\ngini = 0.203\nsamples = 30\nvalue = [[0, 0, 1, 0, 44, 0, 0, 0, 0, 0, 0, 0, 0, 0, 0]\n[0, 0, 0, 8, 0, 0, 0, 0, 0, 8, 0, 0, 0, 0, 29]\n[0, 0, 0, 44, 0, 0, 0, 0, 0, 0, 0, 0, 0, 0, 1]]", fillcolor="#e58139a6"] ;
282 -> 286 ;
287 [label="gini = 0.0\nsamples = 1\nvalue = [[0, 0, 0, 0, 3, 0, 0, 0, 0, 0, 0, 0, 0, 0, 0]\n[0, 0, 0, 3, 0, 0, 0, 0, 0, 0, 0, 0, 0, 0, 0]\n[0, 0, 0, 3, 0, 0, 0, 0, 0, 0, 0, 0, 0, 0, 0]]", fillcolor="#e58139ff"] ;
286 -> 287 ;
288 [label="X[12] <= 21.707\ngini = 0.189\nsamples = 29\nvalue = [[0, 0, 1, 0, 41, 0, 0, 0, 0, 0, 0, 0, 0, 0, 0]\n[0, 0, 0, 5, 0, 0, 0, 0, 0, 8, 0, 0, 0, 0, 29]\n[0, 0, 0, 41, 0, 0, 0, 0, 0, 0, 0, 0, 0, 0, 1]]", fillcolor="#e58139ac"] ;
286 -> 288 ;
289 [label="gini = 0.0\nsamples = 2\nvalue = [[0, 0, 0, 0, 3, 0, 0, 0, 0, 0, 0, 0, 0, 0, 0]\n[0, 0, 0, 0, 0, 0, 0, 0, 0, 3, 0, 0, 0, 0, 0]\n[0, 0, 0, 3, 0, 0, 0, 0, 0, 0, 0, 0, 0, 0, 0]]", fillcolor="#e58139ff"] ;
288 -> 289 ;
290 [label="X[8] <= 285.443\ngini = 0.171\nsamples = 27\nvalue = [[0, 0, 1, 0, 38, 0, 0, 0, 0, 0, 0, 0, 0, 0, 0]\n[0, 0, 0, 5, 0, 0, 0, 0, 0, 5, 0, 0, 0, 0, 29]\n[0, 0, 0, 38, 0, 0, 0, 0, 0, 0, 0, 0, 0, 0, 1]]", fillcolor="#e58139b3"] ;
288 -> 290 ;
291 [label="X[5] <= 14.291\ngini = 0.143\nsamples = 23\nvalue = [[0, 0, 1, 0, 32, 0, 0, 0, 0, 0, 0, 0, 0, 0, 0]\n[0, 0, 0, 4, 0, 0, 0, 0, 0, 2, 0, 0, 0, 0, 27]\n[0, 0, 0, 32, 0, 0, 0, 0, 0, 0, 0, 0, 0, 0, 1]]", fillcolor="#e58139c0"] ;
290 -> 291 ;
292 [label="X[18] <= 90.107\ngini = 0.104\nsamples = 21\nvalue = [[0, 0, 1, 0, 29, 0, 0, 0, 0, 0, 0, 0, 0, 0, 0]\n[0, 0, 0, 1, 0, 0, 0, 0, 0, 2, 0, 0, 0, 0, 27]\n[0, 0, 0, 29, 0, 0, 0, 0, 0, 0, 0, 0, 0, 0, 1]]", fillcolor="#e58139d1"] ;
291 -> 292 ;
293 [label="X[10] <= 124.582\ngini = 0.148\nsamples = 4\nvalue = [[0, 0, 0, 0, 6, 0, 0, 0, 0, 0, 0, 0, 0, 0, 0]\n[0, 0, 0, 0, 0, 0, 0, 0, 0, 2, 0, 0, 0, 0, 4]\n[0, 0, 0, 6, 0, 0, 0, 0, 0, 0, 0, 0, 0, 0, 0]]", fillcolor="#e58139be"] ;
292 -> 293 ;
294 [label="gini = 0.0\nsamples = 3\nvalue = [[0, 0, 0, 0, 4, 0, 0, 0, 0, 0, 0, 0, 0, 0, 0]\n[0, 0, 0, 0, 0, 0, 0, 0, 0, 0, 0, 0, 0, 0, 4]\n[0, 0, 0, 4, 0, 0, 0, 0, 0, 0, 0, 0, 0, 0, 0]]", fillcolor="#e58139ff"] ;
293 -> 294 ;
295 [label="gini = 0.0\nsamples = 1\nvalue = [[0, 0, 0, 0, 2, 0, 0, 0, 0, 0, 0, 0, 0, 0, 0]\n[0, 0, 0, 0, 0, 0, 0, 0, 0, 2, 0, 0, 0, 0, 0]\n[0, 0, 0, 2, 0, 0, 0, 0, 0, 0, 0, 0, 0, 0, 0]]", fillcolor="#e58139ff"] ;
293 -> 295 ;
296 [label="X[14] <= 179.942\ngini = 0.08\nsamples = 17\nvalue = [[0, 0, 1, 0, 23, 0, 0, 0, 0, 0, 0, 0, 0, 0, 0]\n[0, 0, 0, 1, 0, 0, 0, 0, 0, 0, 0, 0, 0, 0, 23]\n[0, 0, 0, 23, 0, 0, 0, 0, 0, 0, 0, 0, 0, 0, 1]]", fillcolor="#e58139dc"] ;
292 -> 296 ;
297 [label="X[13] <= 0.178\ngini = 0.03\nsamples = 14\nvalue = [[0, 0, 1, 0, 20, 0, 0, 0, 0, 0, 0, 0, 0, 0, 0]\n[0, 0, 0, 0, 0, 0, 0, 0, 0, 0, 0, 0, 0, 0, 21]\n[0, 0, 0, 21, 0, 0, 0, 0, 0, 0, 0, 0, 0, 0, 0]]", fillcolor="#e58139f2"] ;
296 -> 297 ;
298 [label="X[18] <= 91.093\ngini = 0.125\nsamples = 4\nvalue = [[0, 0, 1, 0, 3, 0, 0, 0, 0, 0, 0, 0, 0, 0, 0]\n[0, 0, 0, 0, 0, 0, 0, 0, 0, 0, 0, 0, 0, 0, 4]\n[0, 0, 0, 4, 0, 0, 0, 0, 0, 0, 0, 0, 0, 0, 0]]", fillcolor="#e58139c8"] ;
297 -> 298 ;
299 [label="gini = 0.0\nsamples = 2\nvalue = [[0, 0, 0, 0, 2, 0, 0, 0, 0, 0, 0, 0, 0, 0, 0]\n[0, 0, 0, 0, 0, 0, 0, 0, 0, 0, 0, 0, 0, 0, 2]\n[0, 0, 0, 2, 0, 0, 0, 0, 0, 0, 0, 0, 0, 0, 0]]", fillcolor="#e58139ff"] ;
298 -> 299 ;
300 [label="X[11] <= 95.364\ngini = 0.167\nsamples = 2\nvalue = [[0, 0, 1, 0, 1, 0, 0, 0, 0, 0, 0, 0, 0, 0, 0]\n[0, 0, 0, 0, 0, 0, 0, 0, 0, 0, 0, 0, 0, 0, 2]\n[0, 0, 0, 2, 0, 0, 0, 0, 0, 0, 0, 0, 0, 0, 0]]", fillcolor="#e58139b6"] ;
298 -> 300 ;
301 [label="gini = 0.0\nsamples = 1\nvalue = [[0, 0, 0, 0, 1, 0, 0, 0, 0, 0, 0, 0, 0, 0, 0]\n[0, 0, 0, 0, 0, 0, 0, 0, 0, 0, 0, 0, 0, 0, 1]\n[0, 0, 0, 1, 0, 0, 0, 0, 0, 0, 0, 0, 0, 0, 0]]", fillcolor="#e58139ff"] ;
300 -> 301 ;
302 [label="gini = 0.0\nsamples = 1\nvalue = [[0, 0, 1, 0, 0, 0, 0, 0, 0, 0, 0, 0, 0, 0, 0]\n[0, 0, 0, 0, 0, 0, 0, 0, 0, 0, 0, 0, 0, 0, 1]\n[0, 0, 0, 1, 0, 0, 0, 0, 0, 0, 0, 0, 0, 0, 0]]", fillcolor="#e58139ff"] ;
300 -> 302 ;
303 [label="gini = 0.0\nsamples = 10\nvalue = [[0, 0, 0, 0, 17, 0, 0, 0, 0, 0, 0, 0, 0, 0, 0]\n[0, 0, 0, 0, 0, 0, 0, 0, 0, 0, 0, 0, 0, 0, 17]\n[0, 0, 0, 17, 0, 0, 0, 0, 0, 0, 0, 0, 0, 0, 0]]", fillcolor="#e58139ff"] ;
297 -> 303 ;
304 [label="X[10] <= 86.213\ngini = 0.296\nsamples = 3\nvalue = [[0, 0, 0, 0, 3, 0, 0, 0, 0, 0, 0, 0, 0, 0, 0]\n[0, 0, 0, 1, 0, 0, 0, 0, 0, 0, 0, 0, 0, 0, 2]\n[0, 0, 0, 2, 0, 0, 0, 0, 0, 0, 0, 0, 0, 0, 1]]", fillcolor="#e581397c"] ;
296 -> 304 ;
305 [label="gini = 0.0\nsamples = 1\nvalue = [[0, 0, 0, 0, 1, 0, 0, 0, 0, 0, 0, 0, 0, 0, 0]\n[0, 0, 0, 1, 0, 0, 0, 0, 0, 0, 0, 0, 0, 0, 0]\n[0, 0, 0, 1, 0, 0, 0, 0, 0, 0, 0, 0, 0, 0, 0]]", fillcolor="#e58139ff"] ;
304 -> 305 ;
306 [label="X[13] <= 0.062\ngini = 0.167\nsamples = 2\nvalue = [[0, 0, 0, 0, 2, 0, 0, 0, 0, 0, 0, 0, 0, 0, 0]\n[0, 0, 0, 0, 0, 0, 0, 0, 0, 0, 0, 0, 0, 0, 2]\n[0, 0, 0, 1, 0, 0, 0, 0, 0, 0, 0, 0, 0, 0, 1]]", fillcolor="#e58139b6"] ;
304 -> 306 ;
307 [label="gini = 0.0\nsamples = 1\nvalue = [[0, 0, 0, 0, 1, 0, 0, 0, 0, 0, 0, 0, 0, 0, 0]\n[0, 0, 0, 0, 0, 0, 0, 0, 0, 0, 0, 0, 0, 0, 1]\n[0, 0, 0, 1, 0, 0, 0, 0, 0, 0, 0, 0, 0, 0, 0]]", fillcolor="#e58139ff"] ;
306 -> 307 ;
308 [label="gini = 0.0\nsamples = 1\nvalue = [[0, 0, 0, 0, 1, 0, 0, 0, 0, 0, 0, 0, 0, 0, 0]\n[0, 0, 0, 0, 0, 0, 0, 0, 0, 0, 0, 0, 0, 0, 1]\n[0, 0, 0, 0, 0, 0, 0, 0, 0, 0, 0, 0, 0, 0, 1]]", fillcolor="#e58139ff"] ;
306 -> 308 ;
309 [label="gini = 0.0\nsamples = 2\nvalue = [[0, 0, 0, 0, 3, 0, 0, 0, 0, 0, 0, 0, 0, 0, 0]\n[0, 0, 0, 3, 0, 0, 0, 0, 0, 0, 0, 0, 0, 0, 0]\n[0, 0, 0, 3, 0, 0, 0, 0, 0, 0, 0, 0, 0, 0, 0]]", fillcolor="#e58139ff"] ;
291 -> 309 ;
310 [label="X[5] <= 9.453\ngini = 0.204\nsamples = 4\nvalue = [[0, 0, 0, 0, 6, 0, 0, 0, 0, 0, 0, 0, 0, 0, 0]\n[0, 0, 0, 1, 0, 0, 0, 0, 0, 3, 0, 0, 0, 0, 2]\n[0, 0, 0, 6, 0, 0, 0, 0, 0, 0, 0, 0, 0, 0, 0]]", fillcolor="#e58139a5"] ;
290 -> 310 ;
311 [label="X[8] <= 339.081\ngini = 0.148\nsamples = 2\nvalue = [[0, 0, 0, 0, 3, 0, 0, 0, 0, 0, 0, 0, 0, 0, 0]\n[0, 0, 0, 1, 0, 0, 0, 0, 0, 0, 0, 0, 0, 0, 2]\n[0, 0, 0, 3, 0, 0, 0, 0, 0, 0, 0, 0, 0, 0, 0]]", fillcolor="#e58139be"] ;
310 -> 311 ;
312 [label="gini = 0.0\nsamples = 1\nvalue = [[0, 0, 0, 0, 2, 0, 0, 0, 0, 0, 0, 0, 0, 0, 0]\n[0, 0, 0, 0, 0, 0, 0, 0, 0, 0, 0, 0, 0, 0, 2]\n[0, 0, 0, 2, 0, 0, 0, 0, 0, 0, 0, 0, 0, 0, 0]]", fillcolor="#e58139ff"] ;
311 -> 312 ;
313 [label="gini = 0.0\nsamples = 1\nvalue = [[0, 0, 0, 0, 1, 0, 0, 0, 0, 0, 0, 0, 0, 0, 0]\n[0, 0, 0, 1, 0, 0, 0, 0, 0, 0, 0, 0, 0, 0, 0]\n[0, 0, 0, 1, 0, 0, 0, 0, 0, 0, 0, 0, 0, 0, 0]]", fillcolor="#e58139ff"] ;
311 -> 313 ;
314 [label="gini = 0.0\nsamples = 2\nvalue = [[0, 0, 0, 0, 3, 0, 0, 0, 0, 0, 0, 0, 0, 0, 0]\n[0, 0, 0, 0, 0, 0, 0, 0, 0, 3, 0, 0, 0, 0, 0]\n[0, 0, 0, 3, 0, 0, 0, 0, 0, 0, 0, 0, 0, 0, 0]]", fillcolor="#e58139ff"] ;
310 -> 314 ;
315 [label="X[18] <= 89.987\ngini = 0.407\nsamples = 47\nvalue = [[1, 0, 11, 0, 58, 0, 0, 0, 0, 0, 0, 0, 0, 0, 0]\n[0, 0, 0, 7, 0, 0, 0, 0, 3, 2, 0, 0, 2, 0, 56]\n[0, 0, 0, 40, 0, 0, 0, 2, 1, 2, 0, 0, 5, 0, 20]]", fillcolor="#e581394c"] ;
1 -> 315 ;
316 [label="X[6] <= 36.685\ngini = 0.373\nsamples = 3\nvalue = [[0, 0, 0, 0, 5, 0, 0, 0, 0, 0, 0, 0, 0, 0, 0]\n[0, 0, 0, 2, 0, 0, 0, 0, 0, 0, 0, 0, 2, 0, 1]\n[0, 0, 0, 0, 0, 0, 0, 0, 0, 0, 0, 0, 2, 0, 3]]", fillcolor="#e581395a"] ;
315 -> 316 ;
317 [label="gini = 0.0\nsamples = 1\nvalue = [[0, 0, 0, 0, 2, 0, 0, 0, 0, 0, 0, 0, 0, 0, 0]\n[0, 0, 0, 0, 0, 0, 0, 0, 0, 0, 0, 0, 2, 0, 0]\n[0, 0, 0, 0, 0, 0, 0, 0, 0, 0, 0, 0, 2, 0, 0]]", fillcolor="#e58139ff"] ;
316 -> 317 ;
318 [label="X[14] <= 123.483\ngini = 0.148\nsamples = 2\nvalue = [[0, 0, 0, 0, 3, 0, 0, 0, 0, 0, 0, 0, 0, 0, 0]\n[0, 0, 0, 2, 0, 0, 0, 0, 0, 0, 0, 0, 0, 0, 1]\n[0, 0, 0, 0, 0, 0, 0, 0, 0, 0, 0, 0, 0, 0, 3]]", fillcolor="#e58139be"] ;
316 -> 318 ;
319 [label="gini = 0.0\nsamples = 1\nvalue = [[0, 0, 0, 0, 2, 0, 0, 0, 0, 0, 0, 0, 0, 0, 0]\n[0, 0, 0, 2, 0, 0, 0, 0, 0, 0, 0, 0, 0, 0, 0]\n[0, 0, 0, 0, 0, 0, 0, 0, 0, 0, 0, 0, 0, 0, 2]]", fillcolor="#e58139ff"] ;
318 -> 319 ;
320 [label="gini = 0.0\nsamples = 1\nvalue = [[0, 0, 0, 0, 1, 0, 0, 0, 0, 0, 0, 0, 0, 0, 0]\n[0, 0, 0, 0, 0, 0, 0, 0, 0, 0, 0, 0, 0, 0, 1]\n[0, 0, 0, 0, 0, 0, 0, 0, 0, 0, 0, 0, 0, 0, 1]]", fillcolor="#e58139ff"] ;
318 -> 320 ;
321 [label="X[10] <= 147.829\ngini = 0.377\nsamples = 44\nvalue = [[1, 0, 11, 0, 53, 0, 0, 0, 0, 0, 0, 0, 0, 0, 0]\n[0, 0, 0, 5, 0, 0, 0, 0, 3, 2, 0, 0, 0, 0, 55]\n[0, 0, 0, 40, 0, 0, 0, 2, 1, 2, 0, 0, 3, 0, 17]]", fillcolor="#e5813959"] ;
315 -> 321 ;
322 [label="X[7] <= 97.479\ngini = 0.383\nsamples = 27\nvalue = [[1, 0, 11, 0, 31, 0, 0, 0, 0, 0, 0, 0, 0, 0, 0]\n[0, 0, 0, 3, 0, 0, 0, 0, 3, 0, 0, 0, 0, 0, 37]\n[0, 0, 0, 27, 0, 0, 0, 0, 1, 0, 0, 0, 0, 0, 15]]", fillcolor="#e5813956"] ;
321 -> 322 ;
323 [label="gini = 0.0\nsamples = 2\nvalue = [[0, 0, 3, 0, 0, 0, 0, 0, 0, 0, 0, 0, 0, 0, 0]\n[0, 0, 0, 0, 0, 0, 0, 0, 0, 0, 0, 0, 0, 0, 3]\n[0, 0, 0, 0, 0, 0, 0, 0, 0, 0, 0, 0, 0, 0, 3]]", fillcolor="#e58139ff"] ;
322 -> 323 ;
324 [label="X[5] <= 6.298\ngini = 0.36\nsamples = 25\nvalue = [[1, 0, 8, 0, 31, 0, 0, 0, 0, 0, 0, 0, 0, 0, 0]\n[0, 0, 0, 3, 0, 0, 0, 0, 3, 0, 0, 0, 0, 0, 34]\n[0, 0, 0, 27, 0, 0, 0, 0, 1, 0, 0, 0, 0, 0, 12]]", fillcolor="#e5813961"] ;
322 -> 324 ;
325 [label="X[6] <= 569.033\ngini = 0.212\nsamples = 10\nvalue = [[0, 0, 2, 0, 16, 0, 0, 0, 0, 0, 0, 0, 0, 0, 0]\n[0, 0, 0, 3, 0, 0, 0, 0, 2, 0, 0, 0, 0, 0, 13]\n[0, 0, 0, 18, 0, 0, 0, 0, 0, 0, 0, 0, 0, 0, 0]]", fillcolor="#e58139a2"] ;
324 -> 325 ;
326 [label="X[17] <= 89.475\ngini = 0.159\nsamples = 9\nvalue = [[0, 0, 0, 0, 16, 0, 0, 0, 0, 0, 0, 0, 0, 0, 0]\n[0, 0, 0, 3, 0, 0, 0, 0, 2, 0, 0, 0, 0, 0, 11]\n[0, 0, 0, 16, 0, 0, 0, 0, 0, 0, 0, 0, 0, 0, 0]]", fillcolor="#e58139b9"] ;
325 -> 326 ;
327 [label="X[8] <= 102.522\ngini = 0.118\nsamples = 7\nvalue = [[0, 0, 0, 0, 13, 0, 0, 0, 0, 0, 0, 0, 0, 0, 0]\n[0, 0, 0, 3, 0, 0, 0, 0, 0, 0, 0, 0, 0, 0, 10]\n[0, 0, 0, 13, 0, 0, 0, 0, 0, 0, 0, 0, 0, 0, 0]]", fillcolor="#e58139cb"] ;
326 -> 327 ;
328 [label="gini = 0.0\nsamples = 2\nvalue = [[0, 0, 0, 0, 3, 0, 0, 0, 0, 0, 0, 0, 0, 0, 0]\n[0, 0, 0, 3, 0, 0, 0, 0, 0, 0, 0, 0, 0, 0, 0]\n[0, 0, 0, 3, 0, 0, 0, 0, 0, 0, 0, 0, 0, 0, 0]]", fillcolor="#e58139ff"] ;
327 -> 328 ;
329 [label="gini = 0.0\nsamples = 5\nvalue = [[0, 0, 0, 0, 10, 0, 0, 0, 0, 0, 0, 0, 0, 0, 0]\n[0, 0, 0, 0, 0, 0, 0, 0, 0, 0, 0, 0, 0, 0, 10]\n[0, 0, 0, 10, 0, 0, 0, 0, 0, 0, 0, 0, 0, 0, 0]]", fillcolor="#e58139ff"] ;
327 -> 329 ;
330 [label="X[7] <= 115.137\ngini = 0.148\nsamples = 2\nvalue = [[0, 0, 0, 0, 3, 0, 0, 0, 0, 0, 0, 0, 0, 0, 0]\n[0, 0, 0, 0, 0, 0, 0, 0, 2, 0, 0, 0, 0, 0, 1]\n[0, 0, 0, 3, 0, 0, 0, 0, 0, 0, 0, 0, 0, 0, 0]]", fillcolor="#e58139be"] ;
326 -> 330 ;
331 [label="gini = 0.0\nsamples = 1\nvalue = [[0, 0, 0, 0, 1, 0, 0, 0, 0, 0, 0, 0, 0, 0, 0]\n[0, 0, 0, 0, 0, 0, 0, 0, 0, 0, 0, 0, 0, 0, 1]\n[0, 0, 0, 1, 0, 0, 0, 0, 0, 0, 0, 0, 0, 0, 0]]", fillcolor="#e58139ff"] ;
330 -> 331 ;
332 [label="gini = 0.0\nsamples = 1\nvalue = [[0, 0, 0, 0, 2, 0, 0, 0, 0, 0, 0, 0, 0, 0, 0]\n[0, 0, 0, 0, 0, 0, 0, 0, 2, 0, 0, 0, 0, 0, 0]\n[0, 0, 0, 2, 0, 0, 0, 0, 0, 0, 0, 0, 0, 0, 0]]", fillcolor="#e58139ff"] ;
330 -> 332 ;
333 [label="gini = 0.0\nsamples = 1\nvalue = [[0, 0, 2, 0, 0, 0, 0, 0, 0, 0, 0, 0, 0, 0, 0]\n[0, 0, 0, 0, 0, 0, 0, 0, 0, 0, 0, 0, 0, 0, 2]\n[0, 0, 0, 2, 0, 0, 0, 0, 0, 0, 0, 0, 0, 0, 0]]", fillcolor="#e58139ff"] ;
325 -> 333 ;
334 [label="X[5] <= 8.739\ngini = 0.36\nsamples = 15\nvalue = [[1, 0, 6, 0, 15, 0, 0, 0, 0, 0, 0, 0, 0, 0, 0]\n[0, 0, 0, 0, 0, 0, 0, 0, 1, 0, 0, 0, 0, 0, 21]\n[0, 0, 0, 9, 0, 0, 0, 0, 1, 0, 0, 0, 0, 0, 12]]", fillcolor="#e5813961"] ;
324 -> 334 ;
335 [label="X[9] <= 130.468\ngini = 0.213\nsamples = 8\nvalue = [[1, 0, 3, 0, 8, 0, 0, 0, 0, 0, 0, 0, 0, 0, 0]\n[0, 0, 0, 0, 0, 0, 0, 0, 0, 0, 0, 0, 0, 0, 12]\n[0, 0, 0, 1, 0, 0, 0, 0, 0, 0, 0, 0, 0, 0, 11]]", fillcolor="#e58139a1"] ;
334 -> 335 ;
336 [label="X[20] <= 90.021\ngini = 0.173\nsamples = 7\nvalue = [[1, 0, 1, 0, 8, 0, 0, 0, 0, 0, 0, 0, 0, 0, 0]\n[0, 0, 0, 0, 0, 0, 0, 0, 0, 0, 0, 0, 0, 0, 10]\n[0, 0, 0, 1, 0, 0, 0, 0, 0, 0, 0, 0, 0, 0, 9]]", fillcolor="#e58139b3"] ;
335 -> 336 ;
337 [label="X[18] <= 90.028\ngini = 0.073\nsamples = 5\nvalue = [[0, 0, 0, 0, 8, 0, 0, 0, 0, 0, 0, 0, 0, 0, 0]\n[0, 0, 0, 0, 0, 0, 0, 0, 0, 0, 0, 0, 0, 0, 8]\n[0, 0, 0, 1, 0, 0, 0, 0, 0, 0, 0, 0, 0, 0, 7]]", fillcolor="#e58139df"] ;
336 -> 337 ;
338 [label="gini = 0.0\nsamples = 1\nvalue = [[0, 0, 0, 0, 1, 0, 0, 0, 0, 0, 0, 0, 0, 0, 0]\n[0, 0, 0, 0, 0, 0, 0, 0, 0, 0, 0, 0, 0, 0, 1]\n[0, 0, 0, 1, 0, 0, 0, 0, 0, 0, 0, 0, 0, 0, 0]]", fillcolor="#e58139ff"] ;
337 -> 338 ;
339 [label="gini = 0.0\nsamples = 4\nvalue = [[0, 0, 0, 0, 7, 0, 0, 0, 0, 0, 0, 0, 0, 0, 0]\n[0, 0, 0, 0, 0, 0, 0, 0, 0, 0, 0, 0, 0, 0, 7]\n[0, 0, 0, 0, 0, 0, 0, 0, 0, 0, 0, 0, 0, 0, 7]]", fillcolor="#e58139ff"] ;
337 -> 339 ;
340 [label="X[8] <= 147.348\ngini = 0.167\nsamples = 2\nvalue = [[1, 0, 1, 0, 0, 0, 0, 0, 0, 0, 0, 0, 0, 0, 0]\n[0, 0, 0, 0, 0, 0, 0, 0, 0, 0, 0, 0, 0, 0, 2]\n[0, 0, 0, 0, 0, 0, 0, 0, 0, 0, 0, 0, 0, 0, 2]]", fillcolor="#e58139b6"] ;
336 -> 340 ;
341 [label="gini = 0.0\nsamples = 1\nvalue = [[1, 0, 0, 0, 0, 0, 0, 0, 0, 0, 0, 0, 0, 0, 0]\n[0, 0, 0, 0, 0, 0, 0, 0, 0, 0, 0, 0, 0, 0, 1]\n[0, 0, 0, 0, 0, 0, 0, 0, 0, 0, 0, 0, 0, 0, 1]]", fillcolor="#e58139ff"] ;
340 -> 341 ;
342 [label="gini = 0.0\nsamples = 1\nvalue = [[0, 0, 1, 0, 0, 0, 0, 0, 0, 0, 0, 0, 0, 0, 0]\n[0, 0, 0, 0, 0, 0, 0, 0, 0, 0, 0, 0, 0, 0, 1]\n[0, 0, 0, 0, 0, 0, 0, 0, 0, 0, 0, 0, 0, 0, 1]]", fillcolor="#e58139ff"] ;
340 -> 342 ;
343 [label="gini = 0.0\nsamples = 1\nvalue = [[0, 0, 2, 0, 0, 0, 0, 0, 0, 0, 0, 0, 0, 0, 0]\n[0, 0, 0, 0, 0, 0, 0, 0, 0, 0, 0, 0, 0, 0, 2]\n[0, 0, 0, 0, 0, 0, 0, 0, 0, 0, 0, 0, 0, 0, 2]]", fillcolor="#e58139ff"] ;
335 -> 343 ;
344 [label="X[20] <= 90.026\ngini = 0.313\nsamples = 7\nvalue = [[0, 0, 3, 0, 7, 0, 0, 0, 0, 0, 0, 0, 0, 0, 0]\n[0, 0, 0, 0, 0, 0, 0, 0, 1, 0, 0, 0, 0, 0, 9]\n[0, 0, 0, 8, 0, 0, 0, 0, 1, 0, 0, 0, 0, 0, 1]]", fillcolor="#e5813975"] ;
334 -> 344 ;
345 [label="X[13] <= 89.116\ngini = 0.25\nsamples = 3\nvalue = [[0, 0, 3, 0, 1, 0, 0, 0, 0, 0, 0, 0, 0, 0, 0]\n[0, 0, 0, 0, 0, 0, 0, 0, 1, 0, 0, 0, 0, 0, 3]\n[0, 0, 0, 4, 0, 0, 0, 0, 0, 0, 0, 0, 0, 0, 0]]", fillcolor="#e5813991"] ;
344 -> 345 ;
346 [label="gini = 0.0\nsamples = 1\nvalue = [[0, 0, 0, 0, 1, 0, 0, 0, 0, 0, 0, 0, 0, 0, 0]\n[0, 0, 0, 0, 0, 0, 0, 0, 1, 0, 0, 0, 0, 0, 0]\n[0, 0, 0, 1, 0, 0, 0, 0, 0, 0, 0, 0, 0, 0, 0]]", fillcolor="#e58139ff"] ;
345 -> 346 ;
347 [label="gini = 0.0\nsamples = 2\nvalue = [[0, 0, 3, 0, 0, 0, 0, 0, 0, 0, 0, 0, 0, 0, 0]\n[0, 0, 0, 0, 0, 0, 0, 0, 0, 0, 0, 0, 0, 0, 3]\n[0, 0, 0, 3, 0, 0, 0, 0, 0, 0, 0, 0, 0, 0, 0]]", fillcolor="#e58139ff"] ;
345 -> 347 ;
348 [label="X[15] <= 107.86\ngini = 0.167\nsamples = 4\nvalue = [[0, 0, 0, 0, 6, 0, 0, 0, 0, 0, 0, 0, 0, 0, 0]\n[0, 0, 0, 0, 0, 0, 0, 0, 0, 0, 0, 0, 0, 0, 6]\n[0, 0, 0, 4, 0, 0, 0, 0, 1, 0, 0, 0, 0, 0, 1]]", fillcolor="#e58139b6"] ;
344 -> 348 ;
349 [label="X[14] <= 179.542\ngini = 0.167\nsamples = 2\nvalue = [[0, 0, 0, 0, 2, 0, 0, 0, 0, 0, 0, 0, 0, 0, 0]\n[0, 0, 0, 0, 0, 0, 0, 0, 0, 0, 0, 0, 0, 0, 2]\n[0, 0, 0, 0, 0, 0, 0, 0, 1, 0, 0, 0, 0, 0, 1]]", fillcolor="#e58139b6"] ;
348 -> 349 ;
350 [label="gini = 0.0\nsamples = 1\nvalue = [[0, 0, 0, 0, 1, 0, 0, 0, 0, 0, 0, 0, 0, 0, 0]\n[0, 0, 0, 0, 0, 0, 0, 0, 0, 0, 0, 0, 0, 0, 1]\n[0, 0, 0, 0, 0, 0, 0, 0, 1, 0, 0, 0, 0, 0, 0]]", fillcolor="#e58139ff"] ;
349 -> 350 ;
351 [label="gini = 0.0\nsamples = 1\nvalue = [[0, 0, 0, 0, 1, 0, 0, 0, 0, 0, 0, 0, 0, 0, 0]\n[0, 0, 0, 0, 0, 0, 0, 0, 0, 0, 0, 0, 0, 0, 1]\n[0, 0, 0, 0, 0, 0, 0, 0, 0, 0, 0, 0, 0, 0, 1]]", fillcolor="#e58139ff"] ;
349 -> 351 ;
352 [label="gini = 0.0\nsamples = 2\nvalue = [[0, 0, 0, 0, 4, 0, 0, 0, 0, 0, 0, 0, 0, 0, 0]\n[0, 0, 0, 0, 0, 0, 0, 0, 0, 0, 0, 0, 0, 0, 4]\n[0, 0, 0, 4, 0, 0, 0, 0, 0, 0, 0, 0, 0, 0, 0]]", fillcolor="#e58139ff"] ;
348 -> 352 ;
353 [label="X[7] <= 78.839\ngini = 0.307\nsamples = 17\nvalue = [[0, 0, 0, 0, 22, 0, 0, 0, 0, 0, 0, 0, 0, 0, 0]\n[0, 0, 0, 2, 0, 0, 0, 0, 0, 2, 0, 0, 0, 0, 18]\n[0, 0, 0, 13, 0, 0, 0, 2, 0, 2, 0, 0, 3, 0, 2]]", fillcolor="#e5813978"] ;
321 -> 353 ;
354 [label="X[13] <= 18.851\ngini = 0.296\nsamples = 3\nvalue = [[0, 0, 0, 0, 3, 0, 0, 0, 0, 0, 0, 0, 0, 0, 0]\n[0, 0, 0, 1, 0, 0, 0, 0, 0, 0, 0, 0, 0, 0, 2]\n[0, 0, 0, 0, 0, 0, 0, 0, 0, 2, 0, 0, 0, 0, 1]]", fillcolor="#e581397c"] ;
353 -> 354 ;
355 [label="gini = 0.0\nsamples = 1\nvalue = [[0, 0, 0, 0, 1, 0, 0, 0, 0, 0, 0, 0, 0, 0, 0]\n[0, 0, 0, 1, 0, 0, 0, 0, 0, 0, 0, 0, 0, 0, 0]\n[0, 0, 0, 0, 0, 0, 0, 0, 0, 0, 0, 0, 0, 0, 1]]", fillcolor="#e58139ff"] ;
354 -> 355 ;
356 [label="gini = 0.0\nsamples = 2\nvalue = [[0, 0, 0, 0, 2, 0, 0, 0, 0, 0, 0, 0, 0, 0, 0]\n[0, 0, 0, 0, 0, 0, 0, 0, 0, 0, 0, 0, 0, 0, 2]\n[0, 0, 0, 0, 0, 0, 0, 0, 0, 2, 0, 0, 0, 0, 0]]", fillcolor="#e58139ff"] ;
354 -> 356 ;
357 [label="X[17] <= 85.429\ngini = 0.257\nsamples = 14\nvalue = [[0, 0, 0, 0, 19, 0, 0, 0, 0, 0, 0, 0, 0, 0, 0]\n[0, 0, 0, 1, 0, 0, 0, 0, 0, 2, 0, 0, 0, 0, 16]\n[0, 0, 0, 13, 0, 0, 0, 2, 0, 0, 0, 0, 3, 0, 1]]", fillcolor="#e581398e"] ;
353 -> 357 ;
358 [label="gini = 0.0\nsamples = 1\nvalue = [[0, 0, 0, 0, 1, 0, 0, 0, 0, 0, 0, 0, 0, 0, 0]\n[0, 0, 0, 1, 0, 0, 0, 0, 0, 0, 0, 0, 0, 0, 0]\n[0, 0, 0, 0, 0, 0, 0, 0, 0, 0, 0, 0, 0, 0, 1]]", fillcolor="#e58139ff"] ;
357 -> 358 ;
359 [label="X[6] <= 144.976\ngini = 0.212\nsamples = 13\nvalue = [[0, 0, 0, 0, 18, 0, 0, 0, 0, 0, 0, 0, 0, 0, 0]\n[0, 0, 0, 0, 0, 0, 0, 0, 0, 2, 0, 0, 0, 0, 16]\n[0, 0, 0, 13, 0, 0, 0, 2, 0, 0, 0, 0, 3, 0, 0]]", fillcolor="#e58139a2"] ;
357 -> 359 ;
360 [label="X[6] <= 126.323\ngini = 0.296\nsamples = 2\nvalue = [[0, 0, 0, 0, 3, 0, 0, 0, 0, 0, 0, 0, 0, 0, 0]\n[0, 0, 0, 0, 0, 0, 0, 0, 0, 1, 0, 0, 0, 0, 2]\n[0, 0, 0, 1, 0, 0, 0, 2, 0, 0, 0, 0, 0, 0, 0]]", fillcolor="#e581397c"] ;
359 -> 360 ;
361 [label="gini = 0.0\nsamples = 1\nvalue = [[0, 0, 0, 0, 1, 0, 0, 0, 0, 0, 0, 0, 0, 0, 0]\n[0, 0, 0, 0, 0, 0, 0, 0, 0, 1, 0, 0, 0, 0, 0]\n[0, 0, 0, 1, 0, 0, 0, 0, 0, 0, 0, 0, 0, 0, 0]]", fillcolor="#e58139ff"] ;
360 -> 361 ;
362 [label="gini = 0.0\nsamples = 1\nvalue = [[0, 0, 0, 0, 2, 0, 0, 0, 0, 0, 0, 0, 0, 0, 0]\n[0, 0, 0, 0, 0, 0, 0, 0, 0, 0, 0, 0, 0, 0, 2]\n[0, 0, 0, 0, 0, 0, 0, 2, 0, 0, 0, 0, 0, 0, 0]]", fillcolor="#e58139ff"] ;
360 -> 362 ;
363 [label="X[20] <= 89.591\ngini = 0.148\nsamples = 11\nvalue = [[0, 0, 0, 0, 15, 0, 0, 0, 0, 0, 0, 0, 0, 0, 0]\n[0, 0, 0, 0, 0, 0, 0, 0, 0, 1, 0, 0, 0, 0, 14]\n[0, 0, 0, 12, 0, 0, 0, 0, 0, 0, 0, 0, 3, 0, 0]]", fillcolor="#e58139be"] ;
359 -> 363 ;
364 [label="gini = 0.0\nsamples = 1\nvalue = [[0, 0, 0, 0, 3, 0, 0, 0, 0, 0, 0, 0, 0, 0, 0]\n[0, 0, 0, 0, 0, 0, 0, 0, 0, 0, 0, 0, 0, 0, 3]\n[0, 0, 0, 0, 0, 0, 0, 0, 0, 0, 0, 0, 3, 0, 0]]", fillcolor="#e58139ff"] ;
363 -> 364 ;
365 [label="X[20] <= 90.168\ngini = 0.051\nsamples = 10\nvalue = [[0, 0, 0, 0, 12, 0, 0, 0, 0, 0, 0, 0, 0, 0, 0]\n[0, 0, 0, 0, 0, 0, 0, 0, 0, 1, 0, 0, 0, 0, 11]\n[0, 0, 0, 12, 0, 0, 0, 0, 0, 0, 0, 0, 0, 0, 0]]", fillcolor="#e58139e9"] ;
363 -> 365 ;
366 [label="gini = 0.0\nsamples = 7\nvalue = [[0, 0, 0, 0, 9, 0, 0, 0, 0, 0, 0, 0, 0, 0, 0]\n[0, 0, 0, 0, 0, 0, 0, 0, 0, 0, 0, 0, 0, 0, 9]\n[0, 0, 0, 9, 0, 0, 0, 0, 0, 0, 0, 0, 0, 0, 0]]", fillcolor="#e58139ff"] ;
365 -> 366 ;
367 [label="X[6] <= 240.201\ngini = 0.148\nsamples = 3\nvalue = [[0, 0, 0, 0, 3, 0, 0, 0, 0, 0, 0, 0, 0, 0, 0]\n[0, 0, 0, 0, 0, 0, 0, 0, 0, 1, 0, 0, 0, 0, 2]\n[0, 0, 0, 3, 0, 0, 0, 0, 0, 0, 0, 0, 0, 0, 0]]", fillcolor="#e58139be"] ;
365 -> 367 ;
368 [label="gini = 0.0\nsamples = 2\nvalue = [[0, 0, 0, 0, 2, 0, 0, 0, 0, 0, 0, 0, 0, 0, 0]\n[0, 0, 0, 0, 0, 0, 0, 0, 0, 0, 0, 0, 0, 0, 2]\n[0, 0, 0, 2, 0, 0, 0, 0, 0, 0, 0, 0, 0, 0, 0]]", fillcolor="#e58139ff"] ;
367 -> 368 ;
369 [label="gini = 0.0\nsamples = 1\nvalue = [[0, 0, 0, 0, 1, 0, 0, 0, 0, 0, 0, 0, 0, 0, 0]\n[0, 0, 0, 0, 0, 0, 0, 0, 0, 1, 0, 0, 0, 0, 0]\n[0, 0, 0, 1, 0, 0, 0, 0, 0, 0, 0, 0, 0, 0, 0]]", fillcolor="#e58139ff"] ;
367 -> 369 ;
370 [label="X[20] <= 0.207\ngini = 0.464\nsamples = 19\nvalue = [[0, 3, 2, 0, 22, 0, 0, 0, 0, 0, 0, 0, 0, 0, 0]\n[0, 0, 0, 2, 2, 0, 0, 0, 0, 2, 0, 0, 0, 0, 21]\n[0, 0, 0, 9, 0, 0, 0, 0, 0, 1, 0, 0, 4, 2, 11]]", fillcolor="#e5813933"] ;
0 -> 370 [labeldistance=2.5, labelangle=-45, headlabel="False"] ;
371 [label="X[18] <= 90.128\ngini = 0.542\nsamples = 4\nvalue = [[0, 3, 0, 0, 5, 0, 0, 0, 0, 0, 0, 0, 0, 0, 0]\n[0, 0, 0, 2, 2, 0, 0, 0, 0, 0, 0, 0, 0, 0, 4]\n[0, 0, 0, 1, 0, 0, 0, 0, 0, 0, 0, 0, 0, 2, 5]]", fillcolor="#e5813910"] ;
370 -> 371 ;
372 [label="X[6] <= 359.757\ngini = 0.427\nsamples = 3\nvalue = [[0, 0, 0, 0, 5, 0, 0, 0, 0, 0, 0, 0, 0, 0, 0]\n[0, 0, 0, 2, 2, 0, 0, 0, 0, 0, 0, 0, 0, 0, 1]\n[0, 0, 0, 1, 0, 0, 0, 0, 0, 0, 0, 0, 0, 2, 2]]", fillcolor="#e5813943"] ;
371 -> 372 ;
373 [label="gini = 0.0\nsamples = 1\nvalue = [[0, 0, 0, 0, 2, 0, 0, 0, 0, 0, 0, 0, 0, 0, 0]\n[0, 0, 0, 0, 2, 0, 0, 0, 0, 0, 0, 0, 0, 0, 0]\n[0, 0, 0, 0, 0, 0, 0, 0, 0, 0, 0, 0, 0, 0, 2]]", fillcolor="#e58139ff"] ;
372 -> 373 ;
374 [label="X[12] <= 11.565\ngini = 0.296\nsamples = 2\nvalue = [[0, 0, 0, 0, 3, 0, 0, 0, 0, 0, 0, 0, 0, 0, 0]\n[0, 0, 0, 2, 0, 0, 0, 0, 0, 0, 0, 0, 0, 0, 1]\n[0, 0, 0, 1, 0, 0, 0, 0, 0, 0, 0, 0, 0, 2, 0]]", fillcolor="#e581397c"] ;
372 -> 374 ;
375 [label="gini = 0.0\nsamples = 1\nvalue = [[0, 0, 0, 0, 2, 0, 0, 0, 0, 0, 0, 0, 0, 0, 0]\n[0, 0, 0, 2, 0, 0, 0, 0, 0, 0, 0, 0, 0, 0, 0]\n[0, 0, 0, 0, 0, 0, 0, 0, 0, 0, 0, 0, 0, 2, 0]]", fillcolor="#e58139ff"] ;
374 -> 375 ;
376 [label="gini = 0.0\nsamples = 1\nvalue = [[0, 0, 0, 0, 1, 0, 0, 0, 0, 0, 0, 0, 0, 0, 0]\n[0, 0, 0, 0, 0, 0, 0, 0, 0, 0, 0, 0, 0, 0, 1]\n[0, 0, 0, 1, 0, 0, 0, 0, 0, 0, 0, 0, 0, 0, 0]]", fillcolor="#e58139ff"] ;
374 -> 376 ;
377 [label="gini = 0.0\nsamples = 1\nvalue = [[0, 3, 0, 0, 0, 0, 0, 0, 0, 0, 0, 0, 0, 0, 0]\n[0, 0, 0, 0, 0, 0, 0, 0, 0, 0, 0, 0, 0, 0, 3]\n[0, 0, 0, 0, 0, 0, 0, 0, 0, 0, 0, 0, 0, 0, 3]]", fillcolor="#e58139ff"] ;
371 -> 377 ;
378 [label="X[18] <= 91.283\ngini = 0.351\nsamples = 15\nvalue = [[0, 0, 2, 0, 17, 0, 0, 0, 0, 0, 0, 0, 0, 0, 0]\n[0, 0, 0, 0, 0, 0, 0, 0, 0, 2, 0, 0, 0, 0, 17]\n[0, 0, 0, 8, 0, 0, 0, 0, 0, 1, 0, 0, 4, 0, 6]]", fillcolor="#e5813964"] ;
370 -> 378 ;
379 [label="X[10] <= 216.964\ngini = 0.359\nsamples = 11\nvalue = [[0, 0, 2, 0, 11, 0, 0, 0, 0, 0, 0, 0, 0, 0, 0]\n[0, 0, 0, 0, 0, 0, 0, 0, 0, 2, 0, 0, 0, 0, 11]\n[0, 0, 0, 8, 0, 0, 0, 0, 0, 1, 0, 0, 3, 0, 1]]", fillcolor="#e5813961"] ;
378 -> 379 ;
380 [label="X[0] <= 7.5\ngini = 0.32\nsamples = 9\nvalue = [[0, 0, 2, 0, 8, 0, 0, 0, 0, 0, 0, 0, 0, 0, 0]\n[0, 0, 0, 0, 0, 0, 0, 0, 0, 0, 0, 0, 0, 0, 10]\n[0, 0, 0, 5, 0, 0, 0, 0, 0, 1, 0, 0, 3, 0, 1]]", fillcolor="#e5813972"] ;
379 -> 380 ;
381 [label="X[7] <= 52.163\ngini = 0.185\nsamples = 6\nvalue = [[0, 0, 1, 0, 5, 0, 0, 0, 0, 0, 0, 0, 0, 0, 0]\n[0, 0, 0, 0, 0, 0, 0, 0, 0, 0, 0, 0, 0, 0, 6]\n[0, 0, 0, 5, 0, 0, 0, 0, 0, 1, 0, 0, 0, 0, 0]]", fillcolor="#e58139ad"] ;
380 -> 381 ;
382 [label="gini = 0.0\nsamples = 1\nvalue = [[0, 0, 0, 0, 1, 0, 0, 0, 0, 0, 0, 0, 0, 0, 0]\n[0, 0, 0, 0, 0, 0, 0, 0, 0, 0, 0, 0, 0, 0, 1]\n[0, 0, 0, 0, 0, 0, 0, 0, 0, 1, 0, 0, 0, 0, 0]]", fillcolor="#e58139ff"] ;
381 -> 382 ;
383 [label="X[11] <= 164.221\ngini = 0.107\nsamples = 5\nvalue = [[0, 0, 1, 0, 4, 0, 0, 0, 0, 0, 0, 0, 0, 0, 0]\n[0, 0, 0, 0, 0, 0, 0, 0, 0, 0, 0, 0, 0, 0, 5]\n[0, 0, 0, 5, 0, 0, 0, 0, 0, 0, 0, 0, 0, 0, 0]]", fillcolor="#e58139d0"] ;
381 -> 383 ;
384 [label="gini = 0.0\nsamples = 3\nvalue = [[0, 0, 0, 0, 3, 0, 0, 0, 0, 0, 0, 0, 0, 0, 0]\n[0, 0, 0, 0, 0, 0, 0, 0, 0, 0, 0, 0, 0, 0, 3]\n[0, 0, 0, 3, 0, 0, 0, 0, 0, 0, 0, 0, 0, 0, 0]]", fillcolor="#e58139ff"] ;
383 -> 384 ;
385 [label="X[17] <= 89.885\ngini = 0.167\nsamples = 2\nvalue = [[0, 0, 1, 0, 1, 0, 0, 0, 0, 0, 0, 0, 0, 0, 0]\n[0, 0, 0, 0, 0, 0, 0, 0, 0, 0, 0, 0, 0, 0, 2]\n[0, 0, 0, 2, 0, 0, 0, 0, 0, 0, 0, 0, 0, 0, 0]]", fillcolor="#e58139b6"] ;
383 -> 385 ;
386 [label="gini = 0.0\nsamples = 1\nvalue = [[0, 0, 0, 0, 1, 0, 0, 0, 0, 0, 0, 0, 0, 0, 0]\n[0, 0, 0, 0, 0, 0, 0, 0, 0, 0, 0, 0, 0, 0, 1]\n[0, 0, 0, 1, 0, 0, 0, 0, 0, 0, 0, 0, 0, 0, 0]]", fillcolor="#e58139ff"] ;
385 -> 386 ;
387 [label="gini = 0.0\nsamples = 1\nvalue = [[0, 0, 1, 0, 0, 0, 0, 0, 0, 0, 0, 0, 0, 0, 0]\n[0, 0, 0, 0, 0, 0, 0, 0, 0, 0, 0, 0, 0, 0, 1]\n[0, 0, 0, 1, 0, 0, 0, 0, 0, 0, 0, 0, 0, 0, 0]]", fillcolor="#e58139ff"] ;
385 -> 387 ;
388 [label="X[11] <= 69.368\ngini = 0.25\nsamples = 3\nvalue = [[0, 0, 1, 0, 3, 0, 0, 0, 0, 0, 0, 0, 0, 0, 0]\n[0, 0, 0, 0, 0, 0, 0, 0, 0, 0, 0, 0, 0, 0, 4]\n[0, 0, 0, 0, 0, 0, 0, 0, 0, 0, 0, 0, 3, 0, 1]]", fillcolor="#e5813991"] ;
380 -> 388 ;
389 [label="gini = 0.0\nsamples = 1\nvalue = [[0, 0, 1, 0, 0, 0, 0, 0, 0, 0, 0, 0, 0, 0, 0]\n[0, 0, 0, 0, 0, 0, 0, 0, 0, 0, 0, 0, 0, 0, 1]\n[0, 0, 0, 0, 0, 0, 0, 0, 0, 0, 0, 0, 0, 0, 1]]", fillcolor="#e58139ff"] ;
388 -> 389 ;
390 [label="gini = 0.0\nsamples = 2\nvalue = [[0, 0, 0, 0, 3, 0, 0, 0, 0, 0, 0, 0, 0, 0, 0]\n[0, 0, 0, 0, 0, 0, 0, 0, 0, 0, 0, 0, 0, 0, 3]\n[0, 0, 0, 0, 0, 0, 0, 0, 0, 0, 0, 0, 3, 0, 0]]", fillcolor="#e58139ff"] ;
388 -> 390 ;
391 [label="X[7] <= 121.992\ngini = 0.148\nsamples = 2\nvalue = [[0, 0, 0, 0, 3, 0, 0, 0, 0, 0, 0, 0, 0, 0, 0]\n[0, 0, 0, 0, 0, 0, 0, 0, 0, 2, 0, 0, 0, 0, 1]\n[0, 0, 0, 3, 0, 0, 0, 0, 0, 0, 0, 0, 0, 0, 0]]", fillcolor="#e58139be"] ;
379 -> 391 ;
392 [label="gini = 0.0\nsamples = 1\nvalue = [[0, 0, 0, 0, 2, 0, 0, 0, 0, 0, 0, 0, 0, 0, 0]\n[0, 0, 0, 0, 0, 0, 0, 0, 0, 2, 0, 0, 0, 0, 0]\n[0, 0, 0, 2, 0, 0, 0, 0, 0, 0, 0, 0, 0, 0, 0]]", fillcolor="#e58139ff"] ;
391 -> 392 ;
393 [label="gini = 0.0\nsamples = 1\nvalue = [[0, 0, 0, 0, 1, 0, 0, 0, 0, 0, 0, 0, 0, 0, 0]\n[0, 0, 0, 0, 0, 0, 0, 0, 0, 0, 0, 0, 0, 0, 1]\n[0, 0, 0, 1, 0, 0, 0, 0, 0, 0, 0, 0, 0, 0, 0]]", fillcolor="#e58139ff"] ;
391 -> 393 ;
394 [label="X[19] <= 56.776\ngini = 0.093\nsamples = 4\nvalue = [[0, 0, 0, 0, 6, 0, 0, 0, 0, 0, 0, 0, 0, 0, 0]\n[0, 0, 0, 0, 0, 0, 0, 0, 0, 0, 0, 0, 0, 0, 6]\n[0, 0, 0, 0, 0, 0, 0, 0, 0, 0, 0, 0, 1, 0, 5]]", fillcolor="#e58139d6"] ;
378 -> 394 ;
395 [label="gini = 0.0\nsamples = 1\nvalue = [[0, 0, 0, 0, 1, 0, 0, 0, 0, 0, 0, 0, 0, 0, 0]\n[0, 0, 0, 0, 0, 0, 0, 0, 0, 0, 0, 0, 0, 0, 1]\n[0, 0, 0, 0, 0, 0, 0, 0, 0, 0, 0, 0, 1, 0, 0]]", fillcolor="#e58139ff"] ;
394 -> 395 ;
396 [label="gini = 0.0\nsamples = 3\nvalue = [[0, 0, 0, 0, 5, 0, 0, 0, 0, 0, 0, 0, 0, 0, 0]\n[0, 0, 0, 0, 0, 0, 0, 0, 0, 0, 0, 0, 0, 0, 5]\n[0, 0, 0, 0, 0, 0, 0, 0, 0, 0, 0, 0, 0, 0, 5]]", fillcolor="#e58139ff"] ;
394 -> 396 ;
}